tree
version=v4
num_class=1
num_tree_per_iteration=1
label_index=0
max_feature_idx=48
objective=binary sigmoid:1
feature_names=viol_lag1 viol_lag2 viol_lag3 hist_horizon viol_recency viol_chronicity viol_cnt_prior1 viol_cnt_prior_cum ctx_a_prior1 ctx_a_cum ctx_b_prior1 ctx_b_cum ctx_c_prior1 ctx_c_cum ctx_i_prior1 ctx_i_cum ctx_total_prior1 ctx_total_cum c311_available c311_prior1 c311_prior_cum building_age prewar unitsres unitstotal numfloors bldgclass_1 borough portfolio_size portfolio_loo_rate c6_available_ps c6_available_t365 c6_available_t730 c6_evt_ps c6_days_ps c6_dup_intensity_ps c6_evt_t365 c6_evt_t730 c6_gap_median_t730 c6_gap_min_t730 c6_days_since_last_t730 c7_available_ps c7_available_t730 c7_apts_ps c7_apt_share_ps c7_evt_all_ps c7_evt_dedupN_ps c7_dupflag_share_ps c7_apts_t730
feature_infos=[0:1] [0:1] [0:1] [2:7] [1:7] [0:1] [0:120] [0:146] [0:362] [0:1661] [0:557] [0:2582] [0:392] [0:1097] [0:446] [0:1346] [0:1075] [0:4958] [0:1] [0:3707] [0:12288] [0:224] [0:1] [0:10914] [0:10948] [1:72] -1:2:3:1:17:16:0:7:10:12:8:13:20:11:14:5:6 -1:0:1:2:3:4 [1:423] [0:1] [0:1] [0:1] [0:1] [0:4039] [0:239] [1:19.32535885167464] [0:4177] [0:7581] [0:691.16746527777775] [0:691.16746527777775] [0.0038310185185185183:729.70540509259263] [0:1] [0:1] [0:142] [0:11] [0:3966] [0:530] [0:1] [0:159]
tree_sizes=5336 5554 5647 5289 5841 5222 5622 4886 5749 5100 5527 5428 5209 5527 5506 4882 5710 5426 5328 5642 5199 5201 5448 4882 4681 4123 4992 4771 4898 4647 4809 4442 4854 4779 5202 4346 3394 4555 3813 3705 4681 4335 4149 4469 3797 3831 4390 3575 3682 4463 4464 4448 4031 3921 3189 4267 4034 3723 4451 3931 3917 2185 3903 3800 2942 2211 3375 3714 3285 3605 3089 3283 3711 3190 3180 2632 2853 2326 2843 3296 4239 4040 2752 3618 2336 2539 2537 2736 2415 3605

Tree=0
num_leaves=51
num_cat=0
split_feature=36 9 36 20 25 25 25 25 20 36 16 10 40 9 21 10 46 28 20 25 20 28 40 7 28 9 46 33 33 16 38 34 16 20 40 20 20 33 40 21 34 10 9 21 40 40 7 25 40 28
split_gain=2111.66 644.245 188.065 161.703 80.2795 76.6717 54.0162 48.0046 44.2062 31.6189 31.6751 30.5197 28.9843 27.5196 17.9388 16.239 15.4722 15.0577 15.0405 14.9777 14.803 15.1473 13.412 11.9675 10.2665 9.37098 8.93231 7.5751 6.62873 11.6656 8.11859 6.41357 6.15851 5.82169 6.21944 4.90334 4.51219 4.03049 3.93841 3.65707 3.43567 3.31463 3.23411 3.54298 3.08729 2.85825 2.12334 1.93178 1.46601 1.1008
threshold=1.5000000000000002 7.5000000000000009 5.5000000000000009 5.5000000000000009 4.6250000000000009 4.6250000000000009 3.2500000000000004 4.6250000000000009 2.5000000000000004 1.0000000180025095e-35 3.5000000000000004 1.0000000180025095e-35 3.233420138888889 9.5000000000000018 32.500000000000007 13.500000000000002 8.5000000000000018 6.5000000000000009 5.5000000000000009 3.2500000000000004 7.5000000000000009 6.5000000000000009 228.56506365740742 1.5000000000000002 21.500000000000004 13.500000000000002 13.500000000000002 1.0000000180025095e-35 2.5000000000000004 8.5000000000000018 4.2879108796296306 2.5000000000000004 1.0000000180025095e-35 1.5000000000000002 279.15934027777786 1.0000000180025095e-35 8.5000000000000018 1.0000000180025095e-35 168.56597800925928 94.500000000000014 5.5000000000000009 3.5000000000000004 18.500000000000004 112.50000000000001 440.85628472222226 294.47070601851857 3.5000000000000004 3.2500000000000004 217.52250578703709 59.500000000000007
decision_type=10 2 10 8 10 10 8 8 10 10 2 2 10 2 8 2 10 10 8 8 8 8 10 2 8 2 8 8 10 2 8 10 2 8 8 10 8 8 10 10 10 2 2 10 8 10 2 10 10 8
left_child=1 5 4 7 13 9 23 12 11 10 14 32 47 28 -1 24 19 41 35 36 21 -15 -14 27 -8 33 -13 -5 30 -30 -2 -22 -7 38 -35 -11 40 -17 -6 -19 -4 -9 43 -21 -10 -27 -25 -3 -38 -12
right_child=2 3 16 6 25 8 15 17 44 18 49 26 22 20 -16 37 -18 39 -20 42 31 -23 -24 46 -26 45 -28 -29 29 -31 -32 -33 -34 34 -36 -37 48 -39 -40 -41 -42 -43 -44 -45 -46 -47 -48 -49 -50 -51
leaf_value=1.8252169156354827 1.9461952995469238 1.8597598494224401 1.9338362268232121 1.8771182696017137 1.9622888819459088 1.8955715801472328 1.9475424172877687 1.9033378284158653 1.941331449848918 1.9122094405913397 1.8931700421940192 1.9126264139713254 1.9567730147690736 1.9198518201717814 1.8629335917159704 1.9575428352499613 1.9994039743078271 1.967589418256485 1.9393886145916537 1.9848907050791502 1.9534224196794183 1.9608180001834357 1.9081288232973714 1.9585830560579804 1.9715796139249795 1.9845250310472811 1.9527966082715793 1.9264526616989117 1.951113798746803 1.9084111022620489 1.9084937953619636 1.9828946664227527 1.8651885573338114 1.9783008193923581 1.9507771171776773 1.8749154171287656 1.980371645349277 1.9847872089851224 1.9293967410964574 1.9440675544133272 1.9615911024959014 1.9383239235886287 1.9939271453920755 1.9618903144097737 1.9718768216038929 1.9590317707726606 1.93500301972626 1.8982397380484735 1.9543771662037301 1.9263300240940859
leaf_weight=63.970131129026413 18.370909452438354 43.302857995033264 14.215584695339201 11.919221013784407 11.700519710779192 107.6010410785675 96.884677231311798 22.854286164045334 11.700519710779192 32.14909154176712 70.20311826467514 24.603896588087082 15.090389907360075 37.944676071405411 420.78130698204041 20.885974436998367 676.0057275891304 18.370909452438354 19.792467921972275 116.13039189577103 34.773507177829742 42.865455389022827 71.515326082706451 13.668831437826158 77.967014521360397 209.40649762749672 23.40103942155838 26.025455057621002 52.160260766744614 17.49610424041748 59.158702462911606 43.193507343530655 50.629351645708084 64.298183083534241 31.821039587259293 38.491429328918457 29.196623951196671 128.92441812157631 15.090389907360075 53.800520539283752 22.198182255029678 12.465974271297453 296.01221361756325 30.836883723735809 15.199740558862684 18.370909452438354 14.543636649847029 31.492987632751465 11.044415801763533 11.044415801763533
leaf_count=585 168 396 130 109 107 984 886 209 107 294 642 225 138 347 3848 191 6182 168 181 1062 318 392 654 125 713 1915 214 238 477 160 541 395 463 588 291 352 267 1179 138 492 203 114 2707 282 139 168 133 288 101 101
internal_value=1.94618 1.90318 1.98217 1.94071 1.96052 1.87554 1.96119 1.91121 1.90178 1.86662 1.86195 1.89406 1.89436 1.94181 1.85677 1.96957 1.99395 1.93769 1.89871 1.98641 1.95611 1.94117 1.91672 1.92134 1.95867 1.97668 1.93098 1.90472 1.92656 1.93857 1.91689 1.97098 1.88367 1.96437 1.96987 1.88852 1.96433 1.98148 1.94403 1.95105 1.95057 1.91318 1.98999 1.98074 1.95991 1.98279 1.94657 1.87194 1.97493 1.89626
internal_weight=3401.57 1549.28 1852.29 659.712 656.651 889.568 390.819 268.893 233.136 656.432 565.999 206.235 161.402 305.963 484.751 324.662 1195.64 107.492 90.433 519.634 158.777 80.8101 86.6057 66.1571 174.852 350.688 48.0049 37.9447 147.186 69.6564 77.5296 77.967 158.23 122.91 96.1192 70.6405 76.6548 149.81 26.7909 72.1714 36.4138 35.3203 442.979 146.967 26.9003 227.777 28.2125 74.7958 40.241 81.2475
internal_count=31107 14168 16939 6033 6005 8135 3574 2459 2132 6003 5176 1886 1476 2798 4433 2969 10934 983 827 4752 1452 739 792 605 1599 3207 439 347 1346 637 709 713 1447 1124 879 646 701 1370 245 660 333 323 4051 1344 246 2083 258 684 368 743
is_linear=0
shrinkage=1


Tree=1
num_leaves=50
num_cat=1
split_feature=36 11 37 23 23 23 23 39 37 21 11 37 13 10 38 37 13 23 23 7 23 27 28 28 46 33 37 11 37 9 23 11 23 12 23 10 17 13 36 38 39 23 13 48 36 23 11 28 11
split_gain=1949.24 661.141 191.315 137.325 119.656 51.5402 44.0259 35.9845 34.5711 26.8954 25.249 22.6483 21.3206 19.4021 17.4867 14.7879 20.6763 13.8012 12.7605 11.0068 11.0965 10.1534 10.5887 9.6425 9.49277 8.96446 7.86505 7.64092 7.63848 7.45945 7.12678 6.78049 6.73111 9.29639 5.26948 4.79442 4.78421 4.12145 4.10324 3.6619 3.66169 3.33712 2.6359 2.41252 2.26291 0.767888 0.567922 0.357215 0.0296575
threshold=1.5000000000000002 14.500000000000002 7.5000000000000009 9.5000000000000018 9.5000000000000018 16.500000000000004 16.500000000000004 26.099901620370375 1.5000000000000002 32.500000000000007 3.5000000000000004 13.500000000000002 4.5000000000000009 1.0000000180025095e-35 0.607488425925926 2.5000000000000004 11.500000000000002 7.5000000000000009 23.500000000000004 2.5000000000000004 5.5000000000000009 0 49.500000000000007 69.500000000000014 4.5000000000000009 2.5000000000000004 1.0000000180025095e-35 28.500000000000004 1.0000000180025095e-35 10.500000000000002 4.5000000000000009 1.5000000000000002 4.5000000000000009 1.0000000180025095e-35 4.5000000000000009 4.5000000000000009 23.500000000000004 2.5000000000000004 1.0000000180025095e-35 4.5548003472222236 0.0030497685185185189 116.50000000000001 3.5000000000000004 2.5000000000000004 5.5000000000000009 105.50000000000001 5.5000000000000009 15.500000000000002 14.500000000000002
decision_type=10 2 8 8 10 10 8 8 8 8 2 10 2 2 10 10 2 10 8 2 10 9 10 10 10 10 10 2 8 2 10 2 10 2 10 2 2 2 10 10 10 10 2 8 10 10 2 10 2
left_child=1 4 5 17 7 15 11 34 23 38 14 25 -11 29 41 16 39 19 -15 20 -3 36 -23 26 37 27 -5 -4 -19 -10 -27 -7 33 -17 -1 -21 -12 -8 -9 -2 -34 -6 47 -30 -13 -44 -26 -33 -39
right_child=2 3 6 8 10 31 24 9 13 12 21 44 -14 18 -16 32 -18 28 -20 35 -22 22 -24 -25 46 30 -28 -29 43 -31 -32 42 40 -35 -36 -37 -38 48 -40 -41 -42 -43 45 -45 -46 -47 -48 -49 -50
leaf_value=-0.037616082965320527 -0.017460747517226156 -0.058443025612766576 -0.023772630027095811 -0.031324796102086501 -0.059060203507664104 -0.0041369266435335303 0.008973105577220683 -0.11618089973802728 -0.032385986620560497 -0.078823880579547534 -0.011449723494490671 0.016093486830991783 -0.042073077414897533 0.011671486483258626 -0.0012812319438891308 0.0037029178171037488 0.019442572361653327 -0.036623528945394467 0.035622045752569678 0.011133532177659472 -0.025078108422005675 -0.042941917591691359 0.0035051891529833661 0.019288360068879355 0.03003751428969342 0.0028139024711618462 -0.00016459908177907687 0.018941577414304675 0.012608134043255038 0.0076936223942077227 0.02754372577963568 0.013754018848564529 -0.017333148219090252 -0.031527903793584486 0.00028489884258287956 -0.024040814571027774 0.016704942115766157 0.022180449539195488 -0.046432419566002518 -0.059600802260843612 0.0080468199626127657 -0.021311327581508211 0.031315082138182966 -0.0088570944896438387 0.044337673605273784 0.010185013913789048 0.053302929946142219 0.0013062819646400949 0.04157458101819908
leaf_weight=21.133882962167263 12.904271692037581 75.088088296353817 20.752445831894875 40.535203583538532 138.49756319075823 16.816849000751972 14.462172493338583 78.217344656586647 13.232912518084047 475.43161223828793 34.756956942379475 15.409726083278654 63.628492519259453 86.096596263349056 16.09041191637516 34.935161598026752 11.851140938699244 13.462808735668657 195.47575441747904 12.008981198072432 54.220890529453754 59.651861786842346 14.259272776544092 18.368805468082428 24.253469683229923 41.766903035342693 36.565561234951019 12.983987331390379 20.451691173017025 28.099718056619167 101.71409776061773 10.826823413372042 11.604004278779028 33.145201407372952 14.013753637671469 20.044692121446133 19.328019291162491 18.998128697276115 11.723986729979513 24.812651604413986 102.74719902873039 13.869264893233774 144.56556095927954 22.072759501636028 137.8823447227478 10.711490735411642 793.15031716227531 10.888473547995089 189.90724999457598
leaf_count=185 118 661 188 364 1212 155 134 662 118 4114 310 143 558 794 144 318 108 119 1816 107 481 532 128 167 229 387 331 120 185 258 953 100 107 300 124 181 175 177 104 222 944 122 1349 203 1305 100 7534 101 1785
internal_value=9.46363e-05 -0.040047 0.035764 -0.000448313 -0.0661153 0.00639372 0.0448277 -0.0779786 0.0162652 -0.0807596 -0.038685 0.0282045 -0.0749125 0.0239971 -0.0513334 -0.00944048 -0.0322872 -0.0322623 0.0286301 -0.0395429 -0.0459071 -0.0207343 -0.030466 -0.00977885 0.0499464 0.0153627 -0.0174569 -0.00701041 -0.00975713 -0.00724833 0.0206821 0.0251088 -0.00253713 -0.0144329 -0.0243511 -0.0111386 -0.000706492 0.0385787 -0.110013 -0.0489146 0.00485309 -0.0564104 0.0279249 0.00170675 0.0420965 0.0302207 0.0527994 0.00892512 0.0403705
internal_weight=3393.42 1596.33 1797.09 635.724 960.602 425.809 1371.28 664.149 418.375 629.001 296.453 330.51 539.06 322.905 168.457 232 49.5681 217.35 281.572 161.363 129.309 127.996 73.9111 95.4696 1040.77 177.217 77.1008 33.7364 55.9873 41.3326 143.481 193.809 182.432 68.0804 35.1476 32.0537 54.085 223.368 89.9413 37.7169 114.351 152.367 176.992 42.5245 153.292 155.277 817.404 21.7153 208.905
internal_count=31032 14155 16877 5785 8370 3922 12955 5747 3848 5438 2623 3096 4672 2986 1478 2117 448 1937 2610 1430 1142 1145 660 862 9859 1648 695 308 507 376 1340 1805 1669 618 309 288 485 2096 766 340 1051 1334 1650 388 1448 1449 7763 201 1962
cat_boundaries=0 1
cat_threshold=20
is_linear=0
shrinkage=0.05


Tree=2
num_leaves=51
num_cat=1
split_feature=36 11 25 37 36 25 36 20 25 4 40 44 28 37 25 11 20 40 10 46 20 39 5 28 40 8 20 10 13 40 10 44 13 13 44 40 13 39 40 26 28 40 44 39 39 39 40 34 10 20
split_gain=1762.86 667.898 120.88 93.0546 66.3172 58.6836 49.7166 31.839 24.3581 23.5497 23.3119 22.7734 21.7606 16.38 15.4123 14.6892 14.1101 13.1554 11.817 11.0599 10.9077 10.312 9.37436 8.54312 9.45111 8.05862 7.74261 7.15715 7.09201 9.17111 6.97047 6.103 5.93308 5.77991 5.57886 4.663 4.51025 11.5358 4.27786 4.03136 3.86371 3.86353 3.29482 4.59515 3.21058 2.66604 2.56064 1.8999 1.62831 0.833214
threshold=2.5000000000000004 15.500000000000002 3.2500000000000004 7.5000000000000009 1.0000000180025095e-35 4.6250000000000009 1.0000000180025095e-35 1.5000000000000002 3.2500000000000004 6.5000000000000009 516.12195023148161 0.12451550387596901 6.5000000000000009 11.500000000000002 4.6250000000000009 7.5000000000000009 4.5000000000000009 548.20164351851861 1.0000000180025095e-35 6.5000000000000009 1.5000000000000002 23.149126157407412 0.22500000000000003 3.5000000000000004 125.04948495370373 5.5000000000000009 4.5000000000000009 4.5000000000000009 3.5000000000000004 242.8782465277778 21.500000000000004 0.16580756013745707 14.500000000000002 40.500000000000007 0.0089394687899569929 336.25793981481485 6.5000000000000009 0.79277199074074078 224.57476851851854 0 4.5000000000000009 356.47601273148155 0.0054200940070505297 0.81931712962962966 0.95673611111111123 0.015584490740740743 202.45294560185189 1.5000000000000002 1.0000000180025095e-35 2.5000000000000004
decision_type=10 2 8 8 10 10 8 8 8 8 10 10 10 10 10 2 8 8 2 10 8 8 10 8 10 2 8 2 2 8 2 10 2 2 8 10 2 10 10 9 8 10 8 10 10 10 10 10 2 8
left_child=1 4 9 14 5 17 10 12 13 21 26 18 -7 30 25 -9 23 -1 -8 28 32 35 -19 46 -25 36 -4 -23 29 -10 39 34 -11 -12 -18 -3 37 -2 -15 -5 -27 -22 43 -16 48 -38 -6 -30 -44 -21
right_child=3 2 6 8 16 7 11 15 19 20 33 -13 -14 38 42 -17 31 22 -20 49 41 27 -24 24 -26 40 -28 -29 47 -31 -32 -33 -34 -35 -36 -37 45 -39 -40 -41 -42 -43 44 -45 -46 -47 -48 -49 -50 -51
leaf_value=-0.018180570807578882 0.020397972720293298 0.026831089883931687 -0.032747098093133899 -0.016054256350889754 -0.031855422101491435 -0.086034858184324103 0.0049456299985022149 -0.031349152653042459 0.034472779823411487 -0.080822105016251422 0.023462887848462354 -0.025895305571598127 -0.036077931878075543 0.045015440672905367 0.024286031044174258 0.0068083630668949527 -0.016554106461758988 -0.074474208037066322 0.030432267630835626 0.021269975923419858 -0.03493941148075675 -0.0025624034544360135 -0.038234916097198396 0.0026820398239608364 -0.035558528156313315 -0.038167355116257823 -0.0041277585159885249 -0.036756194123752813 0.01234361732302525 -0.012362305233766274 0.035232229028975652 -0.036479864817829492 -0.027343879252387449 -0.0061382255494333501 0.013118028085915334 -0.0093864632740177159 -0.0044171505799103228 -0.020028551520158602 0.012207319046075554 0.0065140614212727474 -0.00035394530942630011 -0.001898218647907115 0.0013610586418330631 -0.0087143872603348462 0.038418792845025758 0.021061629016995379 -0.061981470041375587 0.042357986152228688 0.022308760000997276 0.052164239969047191
leaf_weight=15.21220915019512 25.908641494810581 15.913842380046846 62.428119912743568 16.542660862207413 30.590895749628544 42.838515214622021 55.083778351545334 76.223649576306343 18.960084997117519 26.981941640377045 46.537111513316631 17.707907661795616 65.125393606722355 62.677357375621796 17.555511586368084 34.336090683937073 32.015206031501293 593.75126120448112 331.65721929818392 11.527967132627962 42.937933512032032 27.193963043391705 35.392054736614227 19.356121219694614 75.855104006826878 12.148632422089578 38.869479022920132 32.528574354946613 10.410158373415468 14.992284074425696 10.499480225145815 15.596451573073862 14.820096768438814 21.68117019534111 22.963137246668339 12.006696961820124 11.015670664608477 36.257672809064388 17.082665622234344 39.641383603215218 11.302197948098181 11.581527344882486 13.642292164266108 16.124247625470161 48.576877452433109 44.532588839530945 51.252978935837746 373.40283603221178 29.362206652760506 703.72733283042908
leaf_count=128 237 144 549 153 264 361 505 656 181 227 426 162 554 610 166 309 286 4838 3142 113 374 237 296 169 659 110 358 287 100 141 100 136 126 201 206 106 101 330 163 372 105 100 129 153 462 409 439 3633 280 6960
internal_value=6.79575e-06 -0.0326341 0.00356133 0.0394362 -0.057243 -0.0638656 0.0148725 -0.0399252 0.0450234 -0.0311889 -0.00769972 0.0243116 -0.0588308 0.0245089 0.0122698 -0.0197169 -0.0333589 -0.0716147 0.0269116 0.0475555 -0.0477017 -0.011446 -0.0727531 -0.0408128 -0.0280384 0.000795999 -0.0224761 -0.0225872 0.0397323 0.0148597 0.00551905 -0.013196 -0.0668092 0.0142783 -0.00410035 0.0121963 0.0063288 -0.00291601 0.0391234 -0.00245908 -0.023208 -0.0286696 0.0246736 0.00940282 0.029512 0.0160615 -0.0532036 0.0417131 0.0164974 0.0518174
internal_weight=3414.33 1868.44 757.929 1545.89 1110.51 862.879 573.965 218.524 1279.46 183.965 169.516 404.449 107.964 146.444 266.427 110.56 247.63 644.356 386.741 1133.02 96.3215 87.6431 629.143 177.055 95.2112 141.165 101.298 59.7225 417.765 33.9524 66.6835 70.5748 41.802 68.2183 54.9783 27.9205 117.715 62.1663 79.76 56.184 23.4508 54.5195 125.261 33.6798 91.5814 55.5483 81.8439 383.813 43.0045 715.255
internal_count=31253 16245 6944 15008 9301 7142 5343 1880 12526 1601 1534 3809 915 1398 2482 965 2159 5262 3647 11128 827 774 5134 1531 828 1292 907 524 4055 322 625 628 353 627 492 250 1077 567 773 525 215 474 1190 319 871 510 703 3733 409 7073
cat_boundaries=0 1
cat_threshold=131074
is_linear=0
shrinkage=0.05


Tree=3
num_leaves=48
num_cat=0
split_feature=46 13 37 23 23 23 20 29 38 23 37 7 29 46 23 29 9 37 38 38 29 10 48 13 9 29 13 48 46 13 43 38 9 29 20 23 38 4 44 9 23 13 29 29 47 47 46
split_gain=1520.14 429.207 168.062 129.354 85.1042 57.1415 48.0594 37.9841 33.2909 29.6872 29.3475 23.7238 23.4757 17.0061 16.4872 14.7337 13.7781 13.4723 11.7615 10.4012 9.68386 9.28798 8.87389 8.52081 8.14635 7.93833 6.66145 6.70237 6.13005 5.75701 4.93492 4.90695 4.76009 4.6681 4.43601 4.34785 7.04017 4.5341 4.32354 4.28439 3.02674 2.50713 2.21015 2.01773 1.67418 1.33963 0.964939
threshold=1.5000000000000002 4.5000000000000009 5.5000000000000009 7.5000000000000009 10.500000000000002 12.500000000000002 5.5000000000000009 0.041128323261999361 3.0384143518518525 4.5000000000000009 10.500000000000002 2.5000000000000004 0.080829572318934048 4.5000000000000009 27.500000000000004 0.043587844739530139 8.5000000000000018 1.0000000180025095e-35 147.16482060185189 2.5188831018518525 inf 1.5000000000000002 1.0000000180025095e-35 8.5000000000000018 8.5000000000000018 0.14994646680942186 11.500000000000002 1.5000000000000002 3.5000000000000004 10.500000000000002 2.5000000000000004 23.9461400462963 22.500000000000004 0.095266106442577034 7.5000000000000009 19.500000000000004 10.977314814814816 4.5000000000000009 0.075853471423091692 17.500000000000004 25.500000000000004 3.5000000000000004 0.10963323022536457 0.15310718882147456 0.07846153846153843 inf 4.5000000000000009
decision_type=10 2 8 8 10 8 8 10 8 10 10 2 10 10 8 10 2 8 8 10 8 2 10 2 2 10 2 10 10 2 10 8 2 10 10 10 10 8 10 2 10 2 10 8 10 8 10
left_child=1 4 9 11 8 10 7 18 -1 26 23 15 19 31 29 45 -16 33 -5 24 35 42 -9 28 -6 -19 27 43 -4 -8 -25 -7 -17 -10 39 37 -37 -11 40 -13 -22 -33 -14 -2 46 -3 -12
right_child=2 3 5 6 12 13 14 22 17 20 44 34 21 -15 16 32 -18 25 -20 -21 38 -23 -24 30 -26 -27 -28 -29 -30 -31 -32 41 -34 -35 -36 36 -38 -39 -40 -41 -42 -43 -44 -45 -46 -47 -48
leaf_value=0.0015545448455443944 -0.070607475786795562 -0.031917229074582082 -0.023666850334783399 -0.0018620640830122968 -0.044483930816962225 0.040488323712265066 -0.0071700935187793526 -0.0063239800974038973 -0.074046738250570385 -0.011821863996188935 0.0044087106663976416 0.0037348144065998514 -0.025303693041396277 0.050994740382355179 -0.007913606280672612 -0.025766708253228066 0.034057494139371917 -0.056434795135792061 -0.045885641270930623 -0.0037073472556434853 0.015023794434849941 0.024035299246077741 0.018977584096540462 0.021452194211797056 -0.0089499313990129715 -0.014146781661965622 -4.4121652112480449e-05 -0.012822491388621524 0.0058884647192651183 0.013157724083893469 -0.0065787936168836287 0.0014807298369152329 0.0072266591019164734 -0.036794783761115363 0.01767381210876388 -0.0059055024829165852 0.02750997691355488 0.013129096000517378 -0.032879140455475554 -0.029107751364643133 -0.015437245888439442 0.026565235035307173 -0.0037768564655403835 -0.026174704631670723 0.040171945005457267 -0.056199689224528851 0.02591829902608438
leaf_weight=19.742023810744286 13.218107379972936 32.197731040418148 28.190708801150322 20.178061686456203 155.54109910130501 169.47211807966232 43.640477992594242 64.449813783168793 332.95335048437119 27.455322973430157 10.937224164605142 18.825138852000237 18.28427068144083 815.76046924293041 20.12856686860323 44.965269081294537 169.38062556833029 342.82755197584629 61.971618346869946 22.544045843183994 11.248553842306139 18.655315987765789 65.512770622968674 65.236679956316948 21.140789613127708 15.531217761337755 12.187619544565676 18.276205271482468 33.904322527348995 127.32580187171698 17.668794438242912 11.840433605015276 11.599082566797732 24.188251920044422 13.553158536553381 18.642851799726486 61.249600939452648 36.694961927831173 13.694603644311426 13.909058868885039 11.37385395914316 87.979747027158737 28.806667566299438 13.939872980117796 117.58431699126959 101.47958791255951 12.431956842541693
leaf_count=172 114 275 255 185 1285 1679 394 566 2559 254 105 161 154 8367 184 376 1644 2727 537 198 102 169 606 619 187 125 109 161 319 1201 171 110 100 188 121 176 589 336 123 123 107 866 242 121 1179 834 123
internal_value=-0.000106152 -0.0315084 0.0351943 -0.0043739 -0.0533277 0.0419047 0.00850348 -0.0102295 -0.0621146 -0.00353103 0.0214731 -0.035078 -0.0282469 0.0471661 0.0195156 -0.0427104 0.0295107 -0.06387 -0.0357995 -0.0366142 0.00659972 -0.0020962 0.00666083 0.00534108 -0.0405954 -0.0548219 -0.033236 -0.0412526 -0.0082932 0.00791259 0.0154438 0.0348499 -0.0189636 -0.0720666 -0.00260323 0.01239 0.0198239 0.00236781 -0.0150862 -0.0122281 -0.000313234 0.0238023 -0.0137617 -0.0554164 0.0373168 -0.0517126 0.0184027
internal_weight=3418.32 1809.33 1608.99 809.117 1000.21 1371.01 572.588 212.112 735.242 237.982 285.954 236.529 264.972 1085.05 360.475 190.242 189.509 715.5 82.1497 199.226 180.36 65.7463 129.963 145.001 176.682 358.359 57.6218 45.4342 62.095 170.966 82.9055 269.292 56.5644 357.142 46.2874 144.043 79.8925 64.1503 36.317 32.7342 22.6224 99.8202 47.0909 27.158 140.953 133.677 23.3692
internal_count=31298 15313 15985 7307 8006 13793 5317 1894 5771 2192 2771 1990 2235 11022 3423 1585 1828 5599 722 1670 1687 565 1172 1364 1472 2852 505 396 574 1595 790 2655 476 2747 405 1355 765 590 332 284 209 976 396 235 1407 1109 228
is_linear=0
shrinkage=0.05


Tree=4
num_leaves=53
num_cat=0
split_feature=36 11 24 23 37 24 36 11 29 40 24 23 40 37 20 20 21 13 29 29 29 29 29 17 21 20 40 40 24 17 24 40 35 9 44 34 34 40 16 44 23 40 29 11 13 9 37 40 9 15 47 40
split_gain=1503.15 477.017 116.098 105.208 90.1253 34.2635 31.0783 29.6536 24.9915 21.4971 18.6853 17.1382 16.8411 16.6269 14.8267 13.7092 13.4587 12.4748 11.4791 11.3732 10.6951 9.81608 8.90385 8.82282 8.231 8.11937 7.85006 7.74597 7.17372 7.01428 6.95917 6.35763 6.04605 5.55659 4.7116 4.45317 4.10653 4.46104 3.97775 4.03186 3.89304 3.70789 3.31911 2.93478 2.87121 2.73977 2.00341 1.82737 1.63556 1.4686 1.56415 0.216516
threshold=2.5000000000000004 15.500000000000002 9.5000000000000018 9.5000000000000018 7.5000000000000009 18.500000000000004 1.0000000180025095e-35 5.5000000000000009 0.084532932891466461 516.12195023148161 19.500000000000004 4.5000000000000009 212.36404513888891 10.500000000000002 5.5000000000000009 2.5000000000000004 23.500000000000004 3.5000000000000004 0.050083612040133792 0.077064479638009067 0.11119245160240769 0.03580586080586081 0.042499370288684245 12.500000000000002 106.50000000000001 7.5000000000000009 244.69072337962965 248.59659143518522 3.5000000000000004 9.5000000000000018 31.500000000000004 162.10531828703708 1.3307291666666667 33.500000000000007 0.16738505747126439 4.5000000000000009 2.5000000000000004 68.077002314814834 25.500000000000004 0.21992558908639936 56.500000000000007 87.148234953703721 0.073991597673960199 6.5000000000000009 40.500000000000007 9.5000000000000018 3.5000000000000004 278.02289351851857 5.5000000000000009 2.5000000000000004 1.0000000180025095e-35 220.04223379629633
decision_type=10 2 8 10 8 8 8 2 10 10 10 10 8 10 8 10 8 2 10 10 10 10 10 2 10 8 10 8 10 2 8 10 8 2 8 10 10 10 2 10 10 10 10 2 2 2 10 10 2 2 8 10
left_child=1 3 14 8 10 13 9 15 12 20 21 29 31 23 22 24 -14 -13 25 40 -4 26 27 -6 -5 -8 34 -3 45 -10 -20 -1 -25 -30 -2 41 37 -7 39 -23 -9 -15 -24 -38 -11 -16 -17 49 -21 50 -12 -37
right_child=4 2 6 7 5 36 18 19 11 44 47 17 16 35 28 46 -18 -19 30 48 -22 38 42 32 -26 -27 -28 -29 33 -31 -32 -33 -34 -35 -36 51 43 -39 -40 -41 -42 -43 -44 -45 -46 -47 -48 -49 -50 -51 -52 -53
leaf_value=-0.038231867308873763 -0.014923315800040275 -0.011475912836633713 -0.029445182982873609 -0.046966372471811076 -0.015747671113330728 0.036457612961662764 -0.0085316450184492031 -0.021504234328368097 -0.068847594824493111 0.024995604924249269 0.038356505813192804 -0.025976706313746128 -0.084477110682245948 0.034453093410764739 -0.045683494117178043 0.009303864550092366 -0.059244853074799167 0.022246043709215364 0.018938444038605347 0.022936736010395625 0.0066843397192148657 0.025736697911278767 0.0039371767884135442 0.025976269996578635 -0.023030936149674237 0.018600735856679936 -0.03583032749442689 -0.052783386492002315 -0.011306389855453732 -0.020480404450081379 0.037752537817690363 0.0010889171076837649 -0.0023032165988295262 0.01513090513663305 0.010959536953594938 0.044072812181132896 0.027878937413960542 -0.0018061944934280073 -0.0099005247598645766 -0.0039757076172797041 0.0040917247506584101 0.0010057641859452721 -0.023859552142205885 0.050597947860299954 0.0019960774038456953 -0.011249320449469505 -0.013645392371518775 0.0062945871500666275 0.0037241780470763913 0.010487615517411668 0.018665558477594924 0.026327116455457211
leaf_weight=30.641940027475357 30.163778632879257 17.200000040233135 61.474204748868942 141.29465411603451 18.830398872494698 16.693123504519466 35.958032824099064 63.475506097078323 23.066486157476902 43.037023544311523 46.514899671077728 30.229743637144566 92.280687175691128 10.102130405604841 12.703870117664339 14.395017877221109 607.36318342387676 16.996980383992195 105.88241006433964 20.597763895988464 27.299793228507042 40.990538947284222 13.321469470858572 68.031138725578785 69.624587498605251 86.683753617107868 19.548613674938679 70.838678531348705 63.73666474968195 18.240672342479229 133.60785625129938 14.065799154341219 24.463514447212219 23.156480491161346 30.290337637066841 119.06145160645247 34.964461393654346 11.041805632412432 11.975038290023802 13.575250014662741 17.14567194133997 19.050980553030968 32.170077949762344 835.3353521078825 20.201434083282948 15.115633673965929 13.82750830799341 13.551403038203715 23.647051684558392 16.321531146764755 34.160302527248859 31.203451797366142
leaf_count=251 275 147 538 1133 174 167 334 540 175 403 460 234 670 100 104 125 4575 141 1022 180 245 384 113 666 557 845 176 571 558 143 1333 115 241 210 272 1245 358 112 112 124 148 190 274 8889 189 130 124 132 212 159 335 319
internal_value=-0.000147176 -0.0286558 0.00226685 -0.0482801 0.0384501 0.0442416 0.0157919 -0.0253495 -0.0580907 -0.00312347 0.0113373 -0.0303002 -0.0611719 0.0284683 -0.025504 -0.035496 -0.0631487 -0.00815305 0.0236664 -0.00529841 -0.0185706 -0.000500491 -0.0366167 0.012499 -0.0397816 0.0106231 -0.0119711 -0.0457636 -0.0115793 -0.0520068 0.0299919 -0.0269957 0.0187622 -0.00382107 -0.00210826 0.0377695 0.0491624 0.023275 0.0131636 0.0186314 -0.0161397 0.015943 -0.0161359 0.0498497 0.018333 -0.031538 -0.00230145 0.0263723 0.0140891 0.0287312 0.0315947 0.0413543
internal_weight=3405.15 1959.28 762.387 1196.89 1445.87 1188.78 514.145 364.008 832.885 152.012 257.092 88.5339 744.352 290.743 248.243 239.142 699.644 47.2267 362.132 124.866 88.774 146.544 133.53 111.325 210.919 122.642 80.0027 88.0387 114.713 41.3072 239.49 44.7077 92.4947 86.8931 60.4541 179.418 898.035 27.7349 66.5408 54.5658 80.6212 29.1531 45.4915 870.3 63.2385 27.8195 28.2225 110.548 44.2448 96.9967 80.6752 150.265
internal_count=31229 16339 7016 9323 14890 12461 4909 3019 6304 1375 2429 693 5611 2935 2107 1939 5245 375 3534 1080 783 1343 1105 1081 1690 1179 723 718 1002 318 2355 366 907 768 547 1854 9526 279 620 508 688 290 387 9247 592 234 249 1086 392 954 795 1564
is_linear=0
shrinkage=0.05


Tree=5
num_leaves=47
num_cat=1
split_feature=33 17 24 24 39 33 29 37 29 37 40 27 29 37 24 10 38 40 24 24 24 17 24 38 9 44 14 29 29 44 13 29 38 37 45 40 34 34 39 44 24 40 40 40 34 33
split_gain=1303.17 384.486 141.399 80.6414 52.5496 44.9662 36.9416 34.8252 17.6861 17.2475 17.1963 15.8169 15.0096 13.4284 13.0789 12.498 11.0815 10.7576 10.6234 9.75654 9.04121 8.89825 8.7554 8.13327 8.00187 8.5217 7.96914 6.79048 6.46102 5.34059 5.25718 5.15443 7.88502 5.09502 4.91553 3.93221 3.76973 3.21541 2.85921 2.51637 1.31185 0.274634 0.195549 0.983149 0.100522 0.0898163
threshold=2.5000000000000004 27.500000000000004 9.5000000000000018 18.500000000000004 0.001221064814814815 1.0000000180025095e-35 0.0854982006297796 10.500000000000002 0.043587844739530139 5.5000000000000009 227.64048611111113 0 0.039768806073153903 7.5000000000000009 17.500000000000004 3.5000000000000004 1.5310879629629632 440.85628472222226 17.500000000000004 6.5000000000000009 31.500000000000004 9.5000000000000018 2.5000000000000004 24.5592650462963 33.500000000000007 0.14073503521126765 1.5000000000000002 0.13730876966171088 0.060883500557413608 0.017643527371370128 3.5000000000000004 0.03580586080586081 7.5675954861111121 12.500000000000002 5.5000000000000009 257.59734953703708 4.5000000000000009 2.5000000000000004 2.9967245370370375 0.018045153587322265 7.5000000000000009 218.54171296296298 214.37163773148151 240.24544560185186 3.5000000000000004 11.500000000000002
decision_type=10 2 8 8 10 8 10 10 10 8 8 9 10 8 8 2 10 10 10 10 8 2 10 8 2 10 2 10 10 10 2 8 8 8 10 8 10 10 10 10 10 10 10 10 10 10
left_child=1 4 8 7 6 12 10 26 13 39 40 33 23 22 -12 27 -6 -14 28 -15 -17 -13 -3 -4 25 -10 31 -7 -18 -20 35 32 -2 -8 -33 45 41 -32 -39 -5 -1 -9 -38 -44 -41 -11
right_child=3 2 5 9 16 15 11 36 24 30 14 21 17 19 -16 20 18 -19 29 -21 -22 -23 -24 -25 -26 -27 -28 -29 -30 -31 37 34 -34 -35 -36 -37 42 38 -40 44 -42 -43 43 -45 -46 -47
leaf_value=-0.020855938174814712 -0.036280438308082474 -0.0081246496350213474 0.0067406872747801999 0.0015956479827989208 0.013564585137203877 0.0024572663497693572 -0.0055618973968054016 0.0062262528729360956 -0.022957313901149072 0.038465361410966382 -0.056048240231979435 -0.046790877450040146 -0.0068389110702080152 -0.026139768042479423 -0.035924630091555249 0.018443829252716083 -0.036996177922713695 0.022661429336653934 -0.013035286585360201 0.013852279099349628 0.038176001925522451 -0.014473386701026367 -0.048739666947171238 -0.031078889471945304 0.017955077595268012 0.015107806712102434 -0.027124803325710579 0.02984622742486644 -0.0070659532025085393 0.019874068356060266 0.017594391949569153 0.0057061658957393412 0.0069618536289342142 0.03132046816146021 0.023318129224571001 -7.5127649193105199e-05 0.041859105522908766 0.049872009160549902 0.021000978069228408 0.02764304354850396 -0.0010889281648022112 0.019523047608037407 0.010820216111607536 0.032941457000031912 0.010808830434930429 0.015100415309006214
leaf_weight=20.646695494651794 10.375320710241793 17.321573153138161 16.576456196606159 20.15890059620142 21.798673741519451 86.603129327297211 16.723252035677437 14.626187756657602 68.412583984434605 19.392755091190342 705.37036690860987 47.228051841259003 68.816027387976646 48.813809432089329 132.70030122250319 117.89752067625523 80.599387250840664 48.712240733206272 28.150178581476212 17.637540832161903 155.00498519837856 46.907008714973927 121.52004316449165 55.006880640983582 17.564407959580421 14.671323433518408 12.063742734491823 26.149710915982723 26.315744131803513 14.634900718927382 15.223616182804106 115.6295735090971 29.758545614778996 13.170512735843657 59.284698709845543 11.492564126849173 112.30561953783035 820.68197294324636 18.766271628439426 20.461330905556682 13.334361173212526 10.776194825768469 15.596244759857653 17.954894065856934 11.053467206656931 10.462879151105879
leaf_count=162 96 137 154 197 185 820 135 149 582 200 5066 356 621 404 1048 1155 641 463 250 157 1586 378 971 470 160 127 113 255 221 131 155 1080 282 108 585 114 1216 9069 199 204 108 107 164 187 110 113
internal_value=0.000240712 -0.0248535 0.000111432 0.0383768 -0.0436047 0.0147002 -0.0480116 0.019159 -0.027092 0.0463122 -0.0516693 -0.0212881 -0.00518842 -0.035384 -0.0530938 0.0243945 -0.0173741 0.00581396 -0.0221721 -0.0152985 0.0301367 -0.0292763 -0.0441312 -0.0224528 -0.00930464 -0.0157596 0.0060688 0.00980694 -0.0302741 -0.000876774 0.04795 0.00850492 -0.00699784 0.0099855 0.0121576 0.0252552 0.0358536 0.0488947 0.0493548 0.016189 -0.0142339 0.0141501 0.0390392 0.0253954 0.0240272 0.0336179
internal_weight=3394.35 2048.29 880.708 1346.06 1167.58 574.767 996.081 398.371 305.941 947.694 872.052 124.029 189.112 205.293 838.071 385.655 171.499 117.528 149.7 66.4514 272.903 94.1351 138.842 71.5833 100.648 83.0839 227.112 112.753 106.915 42.7851 896.02 215.048 40.1339 29.8938 174.914 41.3482 171.259 854.672 839.448 51.6737 33.9811 25.4024 145.857 33.5511 31.5148 29.8556
internal_count=31191 16851 8062 14340 8789 5524 7361 3979 2538 10361 6384 977 1708 1669 6114 3816 1428 1084 1243 561 2741 734 1108 624 869 709 2156 1075 862 381 9850 2043 378 243 1665 427 1823 9423 9268 511 270 256 1567 351 314 313
cat_boundaries=0 1
cat_threshold=4
is_linear=0
shrinkage=0.05


Tree=6
num_leaves=51
num_cat=2
split_feature=36 9 36 20 44 20 16 13 37 33 44 40 36 40 37 48 14 13 9 33 48 27 20 8 16 20 38 38 40 9 39 12 40 35 39 27 38 38 46 44 40 13 39 44 46 13 9 40 16 13
split_gain=1229.45 255.033 153.519 81.7142 42.1608 35.8675 29.9392 25.7769 18.2095 16.984 14.8468 13.2943 13.2656 10.8344 10.8079 10.2938 9.78811 9.48252 9.15863 9.13117 8.97636 8.17232 7.52044 7.49982 7.028 6.1706 6.08465 5.8905 5.77559 5.67676 5.09127 5.0797 5.85352 4.93069 4.90864 4.36797 3.56121 4.48797 2.89588 4.61508 5.40132 2.69972 2.42873 2.29404 2.23162 2.13006 1.60554 1.58745 1.04789 0.52982
threshold=1.5000000000000002 9.5000000000000018 5.5000000000000009 4.5000000000000009 0.28317610062893089 1.5000000000000002 3.5000000000000004 3.5000000000000004 13.500000000000002 1.0000000180025095e-35 0.18624359479700436 683.94767361111121 1.0000000180025095e-35 578.55669560185197 2.5000000000000004 2.5000000000000004 1.0000000180025095e-35 19.500000000000004 26.500000000000004 1.5000000000000002 1.0000000180025095e-35 0 4.5000000000000009 1.0000000180025095e-35 2.5000000000000004 9.5000000000000018 5.0428038194444449 14.011863425925927 276.42726273148156 15.500000000000002 0.133275462962963 10.500000000000002 631.48267361111118 1.7150974025974028 110.34745370370372 1 5.8443865740740746 20.85608506944445 8.5000000000000018 0.11055555555555556 278.02289351851857 4.5000000000000009 2.9967245370370375 0.12451550387596901 1.5000000000000002 39.500000000000007 37.500000000000007 230.58975694444447 4.5000000000000009 3.5000000000000004
decision_type=10 2 10 8 10 10 2 2 8 8 10 8 10 10 8 10 2 2 2 8 10 9 10 2 2 8 10 10 10 2 8 2 10 8 10 9 8 8 10 10 8 2 10 10 10 2 2 10 2 2
left_child=1 5 4 11 7 6 12 14 10 13 33 31 23 29 47 16 -9 36 24 48 22 -21 41 -1 -11 -20 -12 -28 -14 -5 -22 32 -3 42 -32 -13 -6 -38 39 49 -41 -7 -4 -16 -17 -15 -37 -2 -8 -10
right_child=2 3 8 9 17 20 19 15 38 18 26 35 28 45 43 44 -18 -19 25 21 30 -23 -24 -25 -26 -27 27 -29 -30 -31 34 -33 -34 -35 -36 46 37 -39 -40 40 -42 -43 -44 -45 -46 -47 -48 -49 -50 -51
leaf_value=-0.046628258942819648 -0.011908834161902637 -0.011068610037942692 0.042394190171238182 0.0076794971023392902 -0.0040575416602112334 -0.0022098611022841274 -0.013834797160225842 0.022271878034594655 0.01832075310796798 -0.016955908186474401 -0.015232772454522679 -0.0030200788460649467 -0.019957220322236256 0.02754588318576532 0.010525570059112309 0.010314051414775656 5.3471141330241411e-05 0.011737012102464417 -0.0022602009720345006 0.0088989245478885304 -0.0027471581469488758 -0.020355539647577844 0.025071086966280333 -0.061767210185044441 0.015220301152286148 0.033755580262038995 0.033885858797648521 -0.0067203375621105264 -0.051238960118407451 -0.021946938253384427 -0.037339141896494184 -0.034600571679227241 0.020802583168796171 0.0059613266900775033 -0.0025728803357626478 -0.046614576131774194 -0.054632572398734119 -0.01976262759985823 0.051009312949411759 0.035577185154212772 0.0064167686797697429 -0.027326427307152974 0.0098591845583029178 -0.0086694831510133567 0.037450138146024999 0.0022491907300519688 -0.016401960903192913 -0.038085401735545997 -0.036849491541740248 0.046870849928510955
leaf_weight=635.09312709420919 19.105190634727482 90.01658771187067 109.93540926277637 19.763431988656521 15.056017585098742 28.944103695452213 14.062438018620012 234.4931249320507 10.372130095958708 15.680409476161001 19.14660032838583 23.730948492884636 79.715872965753078 19.948070205748081 64.427615284919739 13.026342444121836 62.537117026746273 16.770938776433468 12.53648057579994 31.266734398901463 19.471702411770821 44.738240674138069 14.242252096533774 168.28089164942503 108.79432343691587 114.39561524987221 16.403500638902191 12.918217353522776 18.850833900272846 51.04044970870018 63.101477518677711 14.934591762721537 12.254477098584173 13.542609713971613 12.841905094683169 77.157413274049759 14.045014955103396 39.249603495001793 526.12429108470678 56.519660808146 24.856362909078598 12.948230296373366 9.7723155543208104 15.953427605330942 115.54872837662697 13.924889765679834 12.265948653221129 12.544030033051966 75.088859789073467 173.88687337934971
leaf_count=4488 158 785 1204 173 131 217 106 2342 108 142 189 196 616 187 595 129 599 157 122 270 163 356 117 1173 1045 1172 164 128 138 467 505 132 106 140 103 592 123 334 6080 631 262 104 105 141 1223 131 100 103 577 1977
internal_value=0.000183403 -0.0280489 0.0320975 -0.000930627 0.0125703 -0.0410417 -0.0442885 0.0177503 0.0444615 0.0140189 0.0287374 -0.0238461 -0.0479219 -0.00282615 -0.00347027 0.0233115 0.0176723 -0.0193163 0.0209509 -0.0236209 -0.0174962 -0.00992877 -0.00135846 -0.0501618 0.0106687 0.0302476 0.00443328 0.0176232 -0.0281247 -0.0137163 -0.02645 -0.011313 -0.00645807 0.0370977 -0.0319823 -0.0357998 -0.0272165 -0.0328498 0.0478674 0.0408169 0.0275572 -0.012059 0.04024 0.00643129 0.0351899 0.0187735 -0.0393871 -0.0260643 -0.0341467 0.0457902
internal_weight=3401.33 1805.09 1596.24 586.444 622.757 1218.65 1067.1 537.636 973.478 356.084 181.719 230.36 901.941 104.677 112.03 425.605 297.03 85.1216 251.407 165.156 151.55 76.005 56.1346 803.374 124.475 126.932 48.4683 29.3217 98.5667 70.8039 95.4151 117.206 102.271 133.25 75.9434 113.154 68.3506 53.2946 791.759 265.635 81.376 41.8923 119.708 80.381 128.575 33.873 89.4234 31.6492 89.1513 184.259
internal_count=31306 14283 17023 5350 6035 8933 7724 5290 10988 3439 1930 1911 6415 958 997 4293 2941 745 2481 1309 1209 626 438 5661 1187 1294 481 292 754 640 771 1023 891 1449 608 888 588 457 9058 2978 893 321 1309 736 1352 318 692 261 683 2085
cat_boundaries=0 1 2
cat_threshold=6 4
is_linear=0
shrinkage=0.05


Tree=7
num_leaves=44
num_cat=2
split_feature=34 17 25 37 37 37 26 34 17 21 25 16 20 25 38 37 25 26 38 40 25 37 8 25 20 17 20 17 37 38 14 20 21 40 3 10 35 17 17 4 38 38 10
split_gain=1125.97 300.14 126.106 73.6798 52.8997 36.1826 22.249 21.5649 21.2771 21.1435 19.8329 14.7811 11.9409 10.2384 9.96179 9.65679 9.47033 8.91562 7.53617 6.45845 5.25572 4.92252 4.89771 4.63117 4.56893 4.46545 4.21732 5.06668 4.15845 3.81043 3.52093 6.59829 3.43503 3.33358 3.05667 3.0545 2.63733 2.49916 2.2762 1.55582 0.874846 0.508054 0.326904
threshold=2.5000000000000004 25.500000000000004 4.6250000000000009 9.5000000000000018 2.5000000000000004 1.0000000180025095e-35 0 1.0000000180025095e-35 77.500000000000014 43.500000000000007 4.1250000000000009 8.5000000000000018 1.5000000000000002 3.2500000000000004 15.310341435185187 23.500000000000004 4.1250000000000009 1 134.1232291666667 289.45725115740748 5.2500000000000009 5.5000000000000009 11.500000000000002 5.2500000000000009 5.5000000000000009 63.500000000000007 2.5000000000000004 1.0000000180025095e-35 4.5000000000000009 4.1131018518518525 1.5000000000000002 2.5000000000000004 106.50000000000001 264.42609375000006 4.5000000000000009 1.0000000180025095e-35 1.3933982683982686 13.500000000000002 24.500000000000004 1.0000000180025095e-35 4.9763339120370373 3.0004976851851857 16.500000000000004
decision_type=10 2 8 8 10 8 9 8 2 10 10 2 10 10 8 10 8 9 8 10 8 10 2 8 10 2 8 2 10 8 2 10 8 10 2 2 10 2 2 10 10 10 2
left_child=1 4 5 10 6 34 26 23 13 35 19 18 -11 -7 -10 16 30 21 -9 22 -19 33 25 24 -4 -2 27 -1 39 -13 31 -5 -25 -6 -3 -8 42 -28 41 -12 -23 -18 -30
right_child=3 2 7 15 17 8 9 11 14 12 28 29 -14 -15 -16 -17 38 20 -20 -21 -22 40 -24 32 -26 -27 37 -29 36 -31 -32 -33 -34 -35 -36 -37 -38 -39 -40 -41 -42 -43 -44
leaf_value=-0.00011388802254708509 -6.5569202098170334e-05 -0.018249427279421235 -0.013458850225258431 0.013847431294036467 0.025346313818617069 -0.030627094447671019 -0.06408467390174534 0.024244973555791631 0.020373637253986401 -0.041851242192043343 -0.0041465596059042991 0.010808821755135711 -0.016821862462860014 -0.0071357276460654222 -0.00526800323593761 0.05042554609231599 0.012014399844462814 -0.046359082498588139 -0.0031325843374046809 -0.028957403474876194 -0.0053285882883050834 9.184699692512149e-05 -0.022289515099334991 0.018004043075283634 0.011377128545670544 0.020463844244996511 -0.01024938339693305 -0.0309779831939241 0.037518139307229886 0.034687976523004198 -0.00057353879091244964 0.037049483219098338 -0.0058321255851831351 4.185691108180779e-05 -0.047666437497025427 -0.029254973955966941 0.005453352236145125 0.012275426214119185 0.045501446088907563 0.017811293341969184 -0.017418643577041964 0.031341243086521274 0.01784387793986798
leaf_weight=18.35839769244194 70.014215029776096 19.332546912133694 55.937861874699593 57.339122869074345 28.435721546411514 121.97055224329233 148.81587875634432 38.037420995533466 46.451867960393429 779.32870402187109 12.890880942344667 24.439640030264854 60.494744174182415 79.072091303765774 138.82378919422626 476.52342107146978 17.30788461863995 13.043042048811914 58.069133557379246 11.666257426142691 16.367664597928524 12.13197983056307 10.615527689456938 46.740545332431793 22.201089695096016 37.576782166957855 28.750448688864708 43.586489379405975 73.019486598670483 195.88374446332455 10.583623528480528 93.587073780596256 18.510583929717541 21.338152952492237 86.637440636754036 19.587189428508282 10.457894191145895 14.496790185570715 291.8377228602767 11.404136724770067 12.132474124431608 12.704308688640593 16.906297899782658
leaf_count=135 650 142 487 603 243 975 993 382 436 5421 130 257 456 703 1278 5726 184 106 552 107 150 105 103 423 213 374 220 327 784 2059 114 1041 166 172 637 141 112 124 3432 115 105 143 186
internal_value=-9.94575e-05 -0.0216702 -0.000620696 0.0383567 -0.0380699 -0.0181185 -0.0412348 0.0181061 -0.010728 -0.0434932 0.0140859 0.0253005 -0.0401585 -0.0217851 0.00152724 0.0446867 0.0385706 -0.00367541 0.00836614 0.000264634 -0.0213984 0.00619648 0.00420679 0.00191212 -0.00614253 0.00769481 -0.0134315 -0.0225226 0.0279177 0.0323378 0.0270669 0.0289614 0.0113083 0.0154923 -0.0433638 -0.0609939 0.0322852 -0.00220924 0.043841 0.00744131 -0.0101437 0.023503 0.034954
internal_weight=3383.41 2168.98 952.108 1214.43 1216.87 492.288 1113.42 459.82 386.318 1008.23 254.551 316.43 839.823 201.043 185.276 959.883 483.36 103.449 96.1066 129.873 29.4107 74.0383 118.207 143.39 78.139 107.591 105.192 61.9449 124.679 220.323 161.51 150.926 65.2511 49.7739 105.97 168.403 100.384 43.2472 321.85 24.295 24.2645 30.0122 89.9258
internal_count=31212 17408 8710 13804 8698 4171 7817 4539 3392 7011 2561 3250 5877 1678 1714 11243 5517 881 934 1234 256 625 1127 1289 700 1024 806 462 1327 2316 1758 1644 589 415 779 1134 1082 344 3759 245 210 327 970
cat_boundaries=0 1 2
cat_threshold=1057032 65543
is_linear=0
shrinkage=0.05


Tree=8
num_leaves=52
num_cat=1
split_feature=13 38 24 24 40 26 44 24 25 21 29 4 29 40 19 10 19 40 19 38 38 40 28 24 24 19 25 29 29 48 40 48 14 38 24 40 40 13 5 24 38 40 29 10 40 40 13 24 25 29 40
split_gain=828.809 182.096 168.856 57.6849 50.4195 46.1477 45.8343 40.6178 26.1043 18.1249 22.4223 16.1782 15.3963 15.4179 15.3359 14.9173 13.7885 13.2212 12.2632 11.9752 11.4932 11.1912 10.7689 10.6723 10.5001 7.90172 7.78361 7.67166 7.26992 7.25597 6.84119 5.80475 5.47039 5.43748 4.77166 3.82799 3.67643 3.57835 3.55621 3.26536 3.19131 3.15476 2.88263 2.25751 2.07853 1.38452 1.28849 0.903902 0.307144 0.304285 0.161078
threshold=9.5000000000000018 188.6433969907408 19.500000000000004 11.500000000000002 214.37163773148151 0 1.0000000180025095e-35 16.500000000000004 3.2500000000000004 14.500000000000002 0.089947994056463601 4.5000000000000009 0.039768806073153903 649.23098379629641 3.5000000000000004 3.5000000000000004 5.5000000000000009 279.15934027777786 5.5000000000000009 1.6608998842592595 4.0440219907407409 217.52250578703709 56.500000000000007 6.5000000000000009 25.500000000000004 5.5000000000000009 4.6250000000000009 0.03580586080586081 0.083538587848932686 1.5000000000000002 183.53087962962965 1.5000000000000002 1.0000000180025095e-35 46.403041087962968 29.500000000000004 333.43163773148154 180.58402777777783 22.500000000000004 0.15476190476190479 53.500000000000007 134.1232291666667 168.09640625000003 0.23351449275362321 12.500000000000002 291.65776041666669 253.38898726851855 16.500000000000004 44.500000000000007 11.500000000000002 0.083538587848932686 237.55228009259261
decision_type=2 8 8 8 8 9 8 10 8 8 10 8 10 8 8 2 10 10 10 10 8 8 10 10 10 10 8 10 10 8 10 10 2 8 10 8 10 2 10 10 8 10 10 2 10 10 2 10 8 8 10
left_child=1 7 4 9 18 15 12 19 11 -3 21 20 13 37 26 22 29 31 27 32 -6 -11 -5 -12 -17 28 -10 30 -21 40 -2 36 49 -13 -19 46 -9 -4 -27 -36 -8 -29 -16 -37 -31 -18 -14 -47 -7 -1 -33
right_child=2 3 6 5 8 48 16 17 14 10 23 33 35 -15 42 24 45 34 -20 25 -22 -23 -24 -25 -26 38 -28 41 -30 44 -32 50 -34 -35 39 43 -38 -39 -40 -41 -42 -43 -44 -45 -46 47 -48 -49 -50 -51 -52
leaf_value=0.012362083975491571 -0.014402862710414802 -0.069356961691702412 -0.0037294683066801124 -0.017948137202555656 -0.039710145137552236 -0.073068755505698427 0.020520623123444298 0.028252859120285502 -0.019004499331205207 -0.0091761934187306778 -0.025614967237150038 -0.0063689534112562011 0.01111841207850732 -0.03607017136900123 0.020113315054297955 -0.01075931586942749 0.049689323733142519 -0.022020513674891905 0.038706793338133705 -0.021285335064733055 0.002308116699295711 -0.041354084087451448 0.0066879692783147586 0.008349007710489742 0.028859512144715074 0.026239558873893544 0.0089636145067270336 0.032508231428718275 0.0038327665921202552 0.037476287964242835 0.023383673378642181 0.041671729337234426 -0.0078438565476065866 -0.041009567454853124 0.026031482204099593 0.0068659730547424528 0.0017213692226443176 0.023509020405371502 -0.0063057611216877189 -0.0065343305020376125 -0.0070857096515714911 0.0060042458491326384 -0.0055078409963907476 0.027076391710936912 0.0092687603564763979 0.013713483109253237 0.035419652708432496 0.037075464680883241 -0.032949965934303896 0.0327999671034096 0.020485464404885936
leaf_weight=12.444724999368193 33.262784235179424 50.554503694176674 18.807989731431007 206.05624304711819 15.000379867851732 34.061928413808346 29.89127591252327 21.115175947546959 61.070927180349827 31.393724627792835 55.487393617630005 15.82365696877241 12.378501005470751 20.391215808689594 104.91638475656509 24.109257355332375 439.8392236828804 13.737366721034048 84.585050202906132 145.72087217122316 84.85445361584425 769.53044180572033 53.319130726158619 34.275828696787357 37.530434153974056 12.651340425014498 36.095449313521385 34.269620060920715 33.908245004713535 339.88420302420855 12.490176327526568 65.652953185141087 14.678363703191279 68.471326008439064 10.652769386768343 47.498835198581219 27.504784494638443 23.533405542373657 13.033182322978972 12.024294063448904 11.988858252763746 19.478599458932877 10.100080877542494 18.111866295337677 10.581327915191649 16.10359013825655 60.829903393983841 18.575573652982712 13.86071617156267 14.876857347786425 16.905055180191994
leaf_count=113 312 324 191 1599 142 249 326 218 523 236 394 136 131 174 1066 217 5507 125 1001 1224 740 5132 425 267 371 130 330 353 305 3903 121 745 131 510 100 444 274 247 132 110 117 198 105 177 109 189 679 221 103 138 177
internal_value=0.000308513 -0.0238855 0.0256171 -0.0329978 0.00385512 -0.0159371 0.0373663 0.00493933 -0.00620967 -0.0395655 -0.0374968 -0.0197329 0.0153824 -0.00492915 0.00571101 -0.00739198 0.0423601 0.0235837 0.0251155 -0.00791201 -0.00559653 -0.0401576 -0.012853 -0.0128897 0.0137187 -0.0128835 -0.00868467 0.0122626 -0.0165684 0.0343907 -0.00280002 0.0307447 0.0151757 -0.0352276 -0.00281023 0.0244136 0.0148038 0.0122937 0.0113885 0.0107028 0.012705 0.0242316 0.0177277 0.0139673 0.036767 0.0485221 0.0322842 0.0293222 -0.0552371 0.0268432 0.0387511
internal_weight=3373.92 1725.09 1648.83 1310.18 580.419 368.938 1068.42 414.906 396.333 941.242 890.687 184.15 201.552 62.7326 212.183 321.015 866.864 167.592 184.086 247.314 99.8548 800.924 259.375 89.7632 61.6397 205.314 97.1664 99.5012 179.629 392.346 45.753 131.178 41.9999 84.295 36.4144 138.819 48.62 42.3414 25.6845 22.6771 41.8801 53.7482 115.016 65.6107 350.466 474.518 73.2084 34.6792 47.9226 27.3216 82.558
internal_count=31191 13239 17952 9317 5537 2964 12415 3922 3552 6353 6029 1528 2043 612 2024 2612 10372 1749 1985 2173 882 5368 2024 661 588 1791 853 984 1529 4455 433 1414 382 646 335 1431 492 438 262 210 443 551 1171 621 4012 5917 810 410 352 251 922
cat_boundaries=0 1
cat_threshold=12
is_linear=0
shrinkage=0.05


Tree=9
num_leaves=46
num_cat=1
split_feature=33 23 17 24 13 36 37 37 39 26 5 17 40 23 23 37 23 28 4 4 23 28 17 47 39 35 21 13 40 28 16 13 28 13 45 28 21 40 40 24 40 40 36 24 24
split_gain=949.467 266.401 93.549 70.2324 36.1429 28.1433 27.1799 20.4595 18.173 17.1303 15.2791 14.3895 13.0301 12.9151 12.4687 11.3398 13.906 10.1379 9.99352 9.75599 9.67083 7.82487 7.205 6.11358 9.41632 5.20553 5.19711 4.92631 4.86308 4.7714 4.33582 6.39979 4.05439 3.80996 3.57146 3.56352 3.34894 2.89017 2.88163 2.84829 1.46271 1.97501 1.40255 1.38182 0.56166
threshold=2.5000000000000004 9.5000000000000018 25.500000000000004 18.500000000000004 4.5000000000000009 1.0000000180025095e-35 10.500000000000002 7.5000000000000009 1.1466145833333334 0 0.30952380952380959 110.50000000000001 516.12195023148161 1.0000000180025095e-35 6.5000000000000009 1.5000000000000002 16.500000000000004 20.500000000000004 1.5000000000000002 2.5000000000000004 1.5000000000000002 1.5000000000000002 175.50000000000003 0.42607771706132369 1.6391087962962965 1.0116279069767444 108.50000000000001 2.5000000000000004 229.5462152777778 1.5000000000000002 41.500000000000007 13.500000000000002 22.500000000000004 17.500000000000004 4.5000000000000009 7.5000000000000009 20.500000000000004 132.50174768518522 278.02289351851857 25.500000000000004 214.37163773148151 240.24544560185186 9.5000000000000018 57.500000000000007 40.500000000000007
decision_type=10 8 2 8 2 8 10 8 8 9 10 2 10 10 10 8 10 8 8 10 10 10 2 10 10 8 10 2 10 10 2 2 10 2 10 8 8 10 10 10 10 10 10 10 10
left_child=1 4 9 6 8 12 18 37 29 15 14 17 33 -10 19 16 -3 -7 22 -6 -15 -16 28 24 -20 -17 -13 43 -2 -1 31 -12 -14 -4 -8 -25 -11 -5 39 -39 -36 -42 44 -9 -29
right_child=3 2 5 7 10 11 34 27 13 36 30 26 32 20 21 25 -18 -19 23 -21 -22 -23 -24 35 -26 -27 -28 42 -30 -31 -32 -33 -34 -35 40 -37 -38 38 -40 -41 41 -43 -44 -45 -46
leaf_value=0.019043303255157018 -0.0036508841075745986 -0.040542855604933252 -0.0047945291212541825 -0.0040189357743813901 -0.038089791307136356 0.0004694157345202242 0.0071845560723926422 0.0033804634435571795 -0.083140192413778236 -0.030249593591664375 0.0087373210661595077 0.035327632928915963 0.001498294443660903 -0.01599595128034384 -0.033439916734209589 0.0088826685089120321 -0.0089509894454761832 0.022913089417071254 0.030664829536001553 -0.010667956631226777 -0.041352577555944965 0.00070883682490162012 0.020237661743424118 -0.022995475894470978 -0.0014049515822203368 -0.0096539246783901838 0.012082942601632682 0.031944095288732183 -0.029521702600601198 -0.016763026231618058 0.015860912479477424 -0.020088109424238915 0.025267347366617912 -0.02424630903567605 0.03927277398811075 0.010749099098117739 -0.06876456717896888 0.0055978413442898649 0.00064918286654528257 0.031901565174970926 0.0050600670716445043 0.029948851882571778 0.050262719681854029 0.027792612038776272 0.044980889928881169
leaf_weight=12.521153733134271 58.543294630944729 59.741870068013668 57.310436993837357 9.719547286629675 172.01148486882448 103.39485492557287 15.110091432929037 11.816087596118452 17.492998607456684 25.881766498088837 28.659621261060238 148.90468365699053 36.992306493222713 48.328209780156612 18.188782058656216 50.879655458033085 83.592069961130619 93.40615738928318 65.599275775253773 45.666922546923161 787.43772848695517 59.931015491485596 16.721285462379456 11.075621224939825 33.243882060050964 114.59744413197041 36.695260249078274 89.479674987494946 22.522961527109146 14.838305518031119 18.780196189880371 42.371558457612991 31.11198566108942 44.768578037619591 104.97901293635368 11.008379213511942 20.950213998556137 15.482114955782889 12.67700284719467 52.825141549110413 15.371400751173494 19.556509852409363 487.81666115671396 10.44597954303026 128.94017378240824
leaf_count=101 569 415 468 107 1266 1020 161 132 115 184 223 1642 343 311 143 437 610 955 641 350 5102 501 172 105 310 880 388 1093 208 121 170 368 302 383 1284 109 149 166 131 574 173 220 6361 119 1599
internal_value=-1.19508e-05 -0.0196664 0.00100942 0.0357464 -0.0344422 0.0138391 0.0174552 0.0439345 -0.0400752 -0.0188404 -0.0212299 0.0212869 -0.00302587 -0.041354 -0.0266366 -0.0125877 -0.0230413 0.0114255 0.00584971 -0.0327057 -0.0399902 -0.00877535 -0.00588521 0.015196 0.0203305 -0.00386107 0.0311694 0.0467612 -0.0121362 3.4321e-05 -0.00295676 -0.0086479 0.0133422 -0.0140593 0.0331351 -0.00729548 -0.0439678 0.019975 0.022921 0.0267282 0.0355932 0.0210008 0.0475413 0.0178317 0.0404745
internal_weight=3367.39 2174.46 908.227 1192.93 1266.23 552.584 373.732 819.202 880.618 355.643 385.61 382.401 170.183 853.259 295.798 308.811 143.334 196.801 218.715 217.678 835.766 78.1198 97.7875 120.927 98.8432 165.477 185.6 728.499 81.0663 27.3595 89.8114 71.0312 68.1043 102.079 155.017 22.084 46.832 90.7038 80.9843 68.3073 139.907 34.9279 706.237 22.2621 218.42
internal_count=31181 16947 8176 14234 8771 5501 3952 10282 5750 2675 3021 4005 1496 5528 2260 2342 1025 1975 2114 1616 5413 644 949 1165 951 1317 2030 9304 777 222 761 591 645 851 1838 214 333 978 871 740 1677 393 9053 251 2692
cat_boundaries=0 1
cat_threshold=12
is_linear=0
shrinkage=0.05


Tree=10
num_leaves=50
num_cat=1
split_feature=36 11 37 23 23 23 36 26 37 40 44 11 20 20 8 20 21 21 21 40 23 6 13 44 23 11 21 48 23 23 20 21 21 15 23 13 46 34 46 48 40 21 20 40 23 16 3 40 16
split_gain=884.022 226.67 89.7602 72.5933 35.0945 33.4601 24.2706 17.7338 14.9318 14.7158 13.7086 13.601 13.3025 13.2684 11.8059 10.6083 7.78406 8.03641 7.58945 7.30829 6.90033 6.8234 6.62352 6.54958 6.48017 6.26052 5.48064 5.40455 4.93446 4.83067 4.59265 4.34536 3.69893 3.43966 3.38741 3.30566 3.23146 3.21697 3.1684 2.88836 2.61803 2.58802 2.29333 2.20228 1.05574 1.00757 0.932688 0.40393 0.361221
threshold=2.5000000000000004 15.500000000000002 7.5000000000000009 8.5000000000000018 9.5000000000000018 16.500000000000004 1.0000000180025095e-35 0 10.500000000000002 578.55669560185197 0.267479674796748 50.500000000000007 5.5000000000000009 1.5000000000000002 10.500000000000002 5.5000000000000009 33.500000000000007 75.500000000000014 79.500000000000014 18.535156250000004 12.500000000000002 1.0000000180025095e-35 2.5000000000000004 0.017643527371370128 16.500000000000004 8.5000000000000018 87.500000000000014 1.0000000180025095e-35 39.500000000000007 2.5000000000000004 10.500000000000002 93.500000000000014 20.500000000000004 1.5000000000000002 65.500000000000014 1.5000000000000002 1.5000000000000002 4.5000000000000009 7.5000000000000009 1.5000000000000002 96.523454861111119 8.5000000000000018 10.500000000000002 240.24544560185186 38.500000000000007 2.5000000000000004 5.5000000000000009 241.30103009259264 27.500000000000004
decision_type=10 2 8 8 10 8 8 9 10 8 10 2 10 8 2 10 8 10 8 10 10 2 2 10 10 2 8 8 10 10 10 10 8 2 10 2 10 10 10 10 10 10 10 8 8 2 2 10 2
left_child=1 4 10 12 9 8 15 13 25 18 19 20 14 24 21 26 45 -18 47 -2 -8 -3 43 -13 -6 35 -5 -15 30 -12 -21 -20 41 -14 -30 -4 -24 40 -27 -17 -10 -9 -35 -7 -38 -11 -31 -1 -39
right_child=2 3 5 6 7 22 11 32 37 16 29 23 33 27 -16 39 17 -19 31 28 -22 -23 36 -25 -26 38 -28 -29 34 46 -32 -33 -34 42 -36 -37 44 48 -40 -41 -42 -43 -44 -45 -46 -47 -48 -49 -50
leaf_value=-0.021951960525068509 -0.017152023639258711 -0.02301111490002861 0.0084447545690331076 0.013929410854206063 -0.035885274016818701 0.024891400603825022 -0.015708142291541143 -0.041817681121310971 0.029945604801383054 -0.056287920873999212 0.0011454332642848544 0.035028219059303291 0.023965148987937241 0.014789976337504228 0.0096316893831212575 0.026924862698249914 -0.018305501550625207 -0.039012877066676291 -0.003012988063023558 0.005269561486390956 0.013286993933284023 -0.053502224999663332 0.009384250651655518 0.012917710401242569 -0.014486255869956555 0.0097026023943157791 -0.015127245357578936 -0.0077401723287193859 0.038752326233529283 -0.011641570331310956 0.030947024855531382 -0.022161968894997143 -0.065896060842889029 -0.015794906330126594 0.0094461568011581405 -0.020708133470787846 0.04023940839483163 0.042880646883111689 0.034228568978049052 0.00047670760120722413 0.00096469260296979688 -0.0094341813905125492 0.0083389314023575405 -0.003193598837493105 0.049669336373287812 -0.02763926728102379 -0.038304293915113155 -0.048759588855011728 0.027613783157152367
leaf_weight=16.343932613730431 15.74217928946018 176.87651938199997 13.115436896681787 15.247908018529413 63.755250699818134 15.679158546030523 20.210660062730312 15.051327697932722 9.6404490470886248 103.855309471488 20.420322388410568 142.57564391195774 12.49986659735441 27.00370742380619 21.589812487363815 24.682048305869102 64.983007743954659 611.64862202852964 45.677665963768959 120.39006549865007 119.04156585782766 20.404814414680004 8.5970715731382352 53.973775438964367 98.660231798887253 60.253311969339848 96.614326320588589 159.25336890667677 26.302817113697529 11.456017434597017 16.078463695943356 89.711528964340687 25.042769752442837 13.806137554347517 20.475498631596565 18.02539224177599 219.88053365796804 67.395186275243759 14.942451007664202 16.10792800784111 17.402602538466454 14.323418483138083 16.059919491410255 8.9838383942842466 473.03714210540056 18.927215091884136 13.644706152379511 22.823899693787098 54.750321604311466
leaf_count=118 152 1320 118 132 439 186 188 107 104 604 177 1599 111 225 182 239 405 3869 330 1188 1217 168 96 585 728 623 817 1269 291 102 167 645 176 116 224 174 2876 825 163 159 187 102 141 92 6349 118 120 156 689
internal_value=-0.000325523 -0.0198073 0.033407 0.00231494 -0.0318157 0.0401303 0.0136535 -0.0190337 0.0238219 -0.0369815 0.00614953 0.0210775 -0.0187439 -0.0131078 -0.023622 -0.0028281 -0.0399382 -0.037173 -0.0227054 0.0118193 0.00868012 -0.0274093 0.0456668 0.0294276 -0.0237072 0.00890898 -0.01074 -0.00417247 0.0146976 -0.0173518 0.00928169 -0.0160389 -0.043224 0.00629066 0.0280755 -0.00896029 0.0465956 0.0338178 0.0164065 0.017673 0.0143566 -0.0296962 -0.00348258 0.0158472 0.0469867 -0.053126 -0.0300905 -0.0413247 0.0373925
internal_weight=3352.97 2126.75 1226.21 749.691 1377.06 981.703 488.454 403.09 255.525 973.971 244.51 335.802 261.237 348.673 218.871 152.652 799.414 676.632 174.557 198.989 139.252 197.281 726.178 196.549 162.415 106.337 111.862 186.257 183.247 45.521 136.469 135.389 54.4175 42.3659 46.7783 31.1408 701.515 149.189 75.1958 40.79 27.0431 29.3747 29.8661 24.663 692.918 122.783 25.1007 39.1678 122.146
internal_count=31168 16265 14903 6974 9291 12482 4936 3046 2883 6245 2421 3589 2038 2661 1670 1347 4996 4274 1249 2022 1405 1488 9599 2184 1167 1078 949 1494 1870 399 1355 975 385 368 515 292 9321 1805 786 398 291 209 257 278 9225 722 222 274 1514
cat_boundaries=0 1
cat_threshold=12
is_linear=0
shrinkage=0.05


Tree=11
num_leaves=49
num_cat=1
split_feature=34 23 17 37 23 37 37 38 17 13 24 5 48 21 24 10 46 13 37 26 19 37 40 17 17 21 17 38 24 48 38 10 10 13 17 23 24 23 21 34 13 38 38 40 14 9 37 17
split_gain=796.726 185.649 86.8948 68.3168 34.3269 24.6892 22.5185 19.7111 18.2533 17.9629 14.5992 11.0852 10.3706 9.97913 9.30711 8.66832 8.52022 7.8991 7.28344 7.14838 8.23549 7.10398 8.141 6.6112 6.39842 6.79706 6.35973 5.68296 5.21962 4.99359 4.74428 4.49611 3.94159 3.79293 3.5985 3.56296 2.85226 5.78017 2.8029 2.78553 2.76574 2.7342 2.6568 2.63917 2.45704 1.83745 1.78702 0.290967
threshold=2.5000000000000004 8.5000000000000018 45.500000000000007 7.5000000000000009 6.5000000000000009 1.5000000000000002 2.5000000000000004 0.14403067129629635 16.500000000000004 4.5000000000000009 23.500000000000004 0.15476190476190479 1.0000000180025095e-35 14.500000000000002 6.5000000000000009 2.5000000000000004 8.5000000000000018 11.500000000000002 12.500000000000002 0 1.5000000000000002 5.5000000000000009 279.15934027777786 39.500000000000007 142.50000000000003 98.500000000000014 30.500000000000004 35.395957754629642 17.500000000000004 1.5000000000000002 7.8823495370370376 18.500000000000004 18.500000000000004 2.5000000000000004 24.500000000000004 4.5000000000000009 27.500000000000004 10.500000000000002 117.50000000000001 1.5000000000000002 3.5000000000000004 71.339351851851873 1.9038425925925928 291.65776041666669 1.0000000180025095e-35 56.500000000000007 4.5000000000000009 14.500000000000002
decision_type=10 10 2 8 8 8 10 10 2 2 10 10 10 8 8 2 10 2 10 9 10 10 10 2 2 8 2 10 8 10 10 2 2 2 2 10 10 10 10 8 2 10 10 8 2 2 10 2
left_child=1 6 7 21 18 24 9 8 12 13 17 14 -3 -1 -11 -10 28 -7 35 20 33 22 27 -13 25 -4 -15 30 43 38 -2 36 -20 -8 -22 44 37 -23 -9 -12 -30 -31 -37 -6 -5 -26 -29 -18
right_child=3 2 5 4 16 10 19 29 15 11 39 23 -14 26 -16 -17 47 -19 32 -21 34 31 -24 -25 45 -27 -28 46 40 41 -32 -33 -34 -35 -36 42 -38 -39 -40 -41 -42 -43 -44 -45 -46 -47 -48 -49
leaf_value=-0.058508630449238319 0.012532738751636869 -0.023084002876563502 -0.015559942402366928 0.0037137329442273256 0.028670758168697338 -0.020103797642846248 0.030187645328772512 0.00032865591741429147 -0.013721871989913443 -0.034219422427241575 0.019326489127688678 0.010220084197709296 -0.055515485143400795 -0.03447041117438155 -0.0068751820538221833 0.011380311639857702 0.017970420215926684 0.011758563420382376 0.035596762222794509 -0.028501504557450003 0.0035712075799929112 0.024879672741288328 -0.029201392298899499 -0.015242166666573515 -0.034090494855527904 0.016056928571239065 -0.0061241404841103197 0.0059681842692452655 0.017757580343664019 0.022941433868342277 -0.015675476998493153 -0.0078487482935566365 0.0020115687130919345 0.0017446627289857423 -0.019949517858386365 0.028277993890200154 0.036067187437763409 -0.010085545879613279 -0.022891263522822853 0.032334918459401514 0.042426728250098314 -0.0023053741316900423 -0.0028559395494725617 0.0061286363338590531 -0.019771651817966352 -0.0060591693461133226 0.030077515337992224 0.050314485650282251
leaf_weight=49.13890502601862 19.487733922898769 234.35876387357712 26.710844747722149 19.275670729577541 67.608667403459549 18.868595398962498 14.167691104114054 59.321800030767918 91.958489045500755 132.4734772592783 102.01583623886108 33.915427014231682 26.906762041151524 777.54183158278465 44.028308175504208 48.745540767908096 7.8568177446722975 105.96605870127678 29.970921613276005 24.866997465491295 20.98617110401392 27.255171574652195 16.843452118337154 72.036590449512005 17.696764729917053 31.689845062792301 22.765084095299244 17.386728093028069 22.267267033457756 31.152351647615433 34.146782658994198 11.907135695219038 12.479373201727865 31.890228308737278 51.18075780570507 10.478496849536898 22.420639775693417 15.170632869005201 11.593724533915518 148.82656961679459 284.86635830998421 14.038953959941862 10.801771275699137 19.725978687405586 17.688679203391075 11.326914332807062 15.305657401680945 403.20317716151476
leaf_count=282 187 1615 224 190 801 183 116 523 732 902 1074 241 190 4799 340 433 98 1092 373 199 162 256 157 582 152 270 160 172 255 291 333 126 155 263 431 109 261 164 101 1738 3837 127 114 212 173 102 158 5692
internal_value=6.11298e-05 -0.0168717 -0.000505495 0.0351505 0.0407137 0.0151467 -0.0294152 -0.0145078 -0.0196955 -0.0317794 0.0206662 -0.0202392 -0.0274038 -0.0354758 -0.0277757 -0.00493336 0.0441504 0.00635387 0.0124334 -0.0102724 -0.00288977 0.00678711 -0.00185128 -0.00699839 -0.00840649 0.00150956 -0.0337071 0.00479164 0.0375889 0.00352402 -0.00523149 0.0178017 0.0269759 0.0125933 -0.0133215 0.000539692 0.0227363 0.0126317 -0.00472514 0.0275256 0.0409513 0.01565 0.0149379 0.0241868 -0.00854152 -0.0256489 0.0197481 0.0499197
internal_weight=3342.32 2256.17 981.178 1086.15 906.223 463.101 1274.99 518.076 401.97 1131.9 375.677 282.454 261.266 849.446 176.502 140.704 805.528 124.835 100.695 143.092 118.225 179.924 103.17 105.952 87.4244 58.4007 800.307 86.3269 394.468 116.107 53.6345 76.7536 42.4503 46.0579 72.1669 58.2446 64.8464 42.4258 70.9155 250.842 307.134 45.1913 21.2803 87.3346 36.9643 29.0237 32.6924 411.06
internal_count=31147 17324 8847 13823 12009 4835 8477 4012 2970 7306 4087 2065 1805 5241 1242 1165 10895 1275 1114 1171 972 1814 1007 823 748 494 4959 850 5105 1042 520 807 528 379 593 586 681 420 624 2812 4092 418 223 1013 363 254 330 5790
cat_boundaries=0 1
cat_threshold=7
is_linear=0
shrinkage=0.05


Tree=12
num_leaves=47
num_cat=1
split_feature=36 11 25 37 37 37 27 16 24 21 44 25 37 24 16 11 36 36 3 21 3 24 24 13 9 37 13 3 3 21 37 9 47 19 37 24 21 9 9 36 37 37 19 13 35 11
split_gain=743.172 215.223 74.1886 54.025 24.6374 24.5156 20.0128 14.4183 13.2913 12.8035 12.2153 12.1407 11.8315 7.83938 7.25444 7.11759 6.82406 6.61325 6.52068 6.46664 5.84322 5.5826 5.51907 5.38886 5.31278 5.11425 4.7948 4.42206 4.39655 4.61764 4.29182 3.82738 4.61057 3.77356 3.31935 2.23188 2.06546 1.86489 1.61347 1.61025 1.40358 1.08494 2.20737 1.02267 0.838855 0.1792
threshold=3.5000000000000004 14.500000000000002 4.6250000000000009 10.500000000000002 2.5000000000000004 1.0000000180025095e-35 0 4.5000000000000009 34.500000000000007 31.500000000000004 0.15285947712418305 4.6250000000000009 6.5000000000000009 3.5000000000000004 53.500000000000007 6.5000000000000009 1.5000000000000002 7.5000000000000009 3.5000000000000004 93.500000000000014 5.5000000000000009 7.5000000000000009 26.500000000000004 1.0000000180025095e-35 11.500000000000002 6.5000000000000009 3.5000000000000004 6.5000000000000009 5.5000000000000009 93.500000000000014 1.5000000000000002 31.500000000000004 0.37590579710144933 1.0000000180025095e-35 28.500000000000004 9.5000000000000018 96.500000000000014 6.5000000000000009 79.500000000000014 1.0000000180025095e-35 4.5000000000000009 24.500000000000004 12.500000000000002 3.5000000000000004 1.4897788902795164 21.500000000000004
decision_type=10 2 8 8 10 8 9 2 8 10 10 10 10 10 2 2 10 10 2 8 2 10 8 2 2 10 2 2 2 10 8 2 8 10 8 10 10 2 2 8 8 10 10 2 10 2
left_child=1 4 5 11 6 28 18 16 17 15 21 14 13 -7 31 -8 19 24 39 -4 -12 36 33 -11 34 37 -23 -20 29 -3 -24 32 -2 -9 -5 -14 -6 -13 -26 -1 -18 42 -19 -10 -27 -30
right_child=3 2 7 8 10 12 9 22 43 23 20 25 35 -15 -16 -17 40 41 27 -21 -22 26 30 -25 38 44 -28 -29 45 -31 -32 -33 -34 -35 -36 -37 -38 -39 -40 -41 -42 -43 -44 -45 -46 -47
leaf_value=-0.011610453732087857 0.0095410924864486688 -0.030184324007846076 0.017147498873331234 0.01539885032196632 -0.023877479234588658 -0.022681919713460282 -0.047149051899972837 0.023005331959005962 0.022234254302639912 -0.033029165182722559 -0.0055456480783019832 -0.004441766342372493 0.0067815865798761176 -0.0028475095432290796 -0.028941796859627916 -0.01406662564962685 0.0071862211965589215 0.033456122866522213 -0.024381839805271019 -0.012652895833045264 -0.049886205738176301 -0.0051824297104497499 0.0064813956564756499 -0.023897104311035422 0.030488032248032045 0.037270732263421646 0.01817085966454067 -0.0044045058958677441 -0.021793164222146437 0.0018604551718739766 0.032634329634883823 0.026371509665336908 -0.013588402122473951 0.0040980277822160807 -0.015547928145658908 0.03057445992847508 -0.00078746143493774873 0.016834047139936033 0.0039048570842045191 0.0025834229012844136 0.032424160014731362 0.043620491881315497 0.0085457795594231934 0.049024907092567196 0.01270516743333092 -0.045470323371836763
leaf_weight=25.298425495624542 76.120784446597099 19.686394907534122 20.868521898984909 11.927295982837679 19.547270648181438 57.433835603296757 190.70960900187492 58.799278378486633 15.594671949744223 498.14887999743223 13.631119154393675 12.021689802408217 22.414551086723804 256.28219129890203 10.033866956830023 23.498111613094807 13.011761441826822 118.09023738652468 122.0841715708375 57.506715171039104 16.086347095668316 37.004178516566753 20.255578361451626 363.89425929635763 44.993311010301113 59.114966928958893 43.457546472549438 38.658331125974655 16.696446552872658 19.638297311961651 177.54146445542574 18.032315909862518 24.544062606990337 49.444028370082378 12.756831541657446 19.948219448328018 16.578029416501522 30.504948228597641 8.2561231330037099 54.783625952899456 13.584083363413809 110.96059353649616 14.015740334987639 432.0099318549037 10.907587125897406 37.834889858961105
leaf_count=172 734 133 194 138 148 426 1153 597 191 3039 112 125 204 2275 104 160 136 1512 824 516 127 329 183 2409 554 749 408 269 111 135 2093 196 232 519 125 218 128 337 106 398 156 1574 190 6323 130 262
internal_value=0.000197412 -0.0153611 0.0044634 0.0359059 -0.027 -0.00952067 -0.0291592 0.0197022 0.0423753 -0.0321305 -0.00724054 0.0148555 -0.00335503 -0.00677758 0.00407395 -0.0439236 0.00349819 0.0334338 -0.013635 -0.00416563 -0.0332755 0.000491111 0.0251146 -0.0293343 0.0188167 0.0264894 0.00775589 -0.0198551 -0.0315596 -0.0157768 0.0301819 0.00792194 0.00352553 0.014931 -0.000519505 0.0200303 -0.0146654 0.0109851 0.0270554 -0.00231932 0.0231679 0.0376467 0.0312213 0.0483475 0.0345459 -0.0406601
internal_weight=3334.21 2324.33 860.946 1009.88 1463.38 449.935 1317.08 411.011 768.605 1076.25 146.304 241.28 356.079 313.716 128.731 214.208 104.971 321 240.825 78.3752 29.7175 116.587 306.04 862.043 77.9336 112.549 80.4617 160.743 93.856 39.3247 197.797 118.697 100.665 108.243 24.6841 42.3628 36.1253 42.5266 53.2494 80.0821 26.5958 243.067 132.106 447.605 70.0226 54.5313
internal_count=31154 17834 8158 13320 9676 3764 8424 4394 10713 6761 1252 2607 3123 2701 1266 1313 1002 4199 1663 710 239 1013 3392 5448 923 1341 737 1093 641 268 2276 1162 966 1116 263 422 276 462 660 570 292 3276 1702 6514 879 373
cat_boundaries=0 1
cat_threshold=4
is_linear=0
shrinkage=0.05


Tree=13
num_leaves=50
num_cat=2
split_feature=33 11 34 25 23 23 23 26 33 37 25 40 27 23 46 9 23 47 40 4 47 11 39 23 7 9 47 21 21 40 37 11 23 21 14 38 4 4 38 11 10 39 4 8 38 40 23 21 21
split_gain=680.436 159.507 68.7074 53.8336 26.993 23.724 16.7271 15.1098 15.0057 14.7246 12.1885 11.304 10.4567 11.2726 9.72519 8.94983 7.8903 8.30678 7.70681 8.41652 8.95233 8.82657 7.49523 7.01093 6.78459 6.01618 5.81577 5.534 5.28139 5.2262 5.02421 4.98876 3.20292 3.14697 2.99981 2.02853 2.75556 1.90304 2.69114 2.39308 1.65877 1.6333 1.60709 2.3196 1.57427 1.47584 1.22981 0.829238 0.0626493
threshold=2.5000000000000004 15.500000000000002 5.5000000000000009 4.6250000000000009 9.5000000000000018 19.500000000000004 16.500000000000004 0 1.5000000000000002 6.5000000000000009 3.2500000000000004 578.55669560185197 1 18.500000000000004 7.5000000000000009 9.5000000000000018 1.0000000180025095e-35 1.0000000180025095e-35 108.12934606481483 1.5000000000000002 0.42607771706132369 97.500000000000014 0.019479166666666669 50.500000000000007 2.5000000000000004 11.500000000000002 0.33527131782945746 114.50000000000001 102.50000000000001 218.54171296296298 5.5000000000000009 30.500000000000004 13.500000000000002 48.500000000000007 1.0000000180025095e-35 46.403041087962968 1.0000000180025095e-35 1.5000000000000002 19.075109953703706 11.500000000000002 3.5000000000000004 0.91759259259259274 1.5000000000000002 4.5000000000000009 11.752392939814817 256.17056712962966 7.5000000000000009 118.50000000000001 96.500000000000014
decision_type=10 2 10 8 10 10 8 9 8 10 10 8 9 10 10 2 10 8 8 8 10 2 10 10 2 2 8 8 10 8 8 2 10 8 2 10 10 8 10 2 2 10 10 2 8 10 10 10 8
left_child=1 4 5 9 11 18 14 12 22 10 24 26 32 -14 29 40 -13 -18 46 21 -21 -20 31 -9 -3 -24 44 -12 -28 41 35 -5 -6 -17 -31 36 -7 38 -32 -39 -10 -4 -11 -44 -1 47 -2 -8 -47
right_child=2 3 6 8 7 30 45 23 15 42 27 16 13 -15 -16 33 17 -19 19 20 -22 -23 25 -25 -26 -27 28 -29 -30 34 37 -33 -34 -35 -36 -37 -38 39 -40 -41 -42 -43 43 -45 -46 48 -48 -49 -50
leaf_value=-0.0062909576303462602 0.0097567226114203872 -0.024508179224787235 0.027672254470765073 0.012814458584313241 0.011116661129635528 -0.0086189554926104518 0.04867972820866872 -0.055740951576026931 -0.012797275790736088 0.031869269783123294 -0.0058712316811132623 -0.064664124500710685 -0.032481645775867561 -0.0081095662597022444 0.038404651072895715 0.0013620058335642108 -0.00028487130925587901 -0.031647347574234506 -0.020898051670614565 0.015795203346534083 -0.017305958362535283 0.021959842087263107 -0.011259881622805295 -0.017330606797795519 -0.00030027634930969221 0.024729570435742278 -0.014952602952252224 0.019295980448111243 0.012332070473798855 0.0079387660215630377 0.024649937835858921 -0.0076244400776329969 -0.0038325055733173952 0.033471574452748669 -0.019926639698082393 0.025455220647418137 0.016877450843575423 0.01256148890585897 -0.0040681125188754197 0.038261518869659852 0.0099398535073382324 0.0021434731707825872 -0.0071683480399908316 0.020632640526382987 -0.025810452853130619 0.024460846000109667 0.036966656642415802 0.021560571359240374 0.0075177683459834643
leaf_weight=15.500472404062746 11.739383921027185 169.4001050516963 32.531163536012173 40.400737874209881 45.827892549335957 17.928424999117851 474.22853306680918 32.015849582850933 11.279022917151453 12.49812415987253 147.61558069288731 17.229336328804493 72.068556278944016 136.15908199548721 83.387313202023506 8.5139898285269719 21.766689978539944 812.26225087791681 57.066557474434376 86.526068799197674 21.83963855355978 10.57964278757572 10.947669103741644 26.931598104536533 34.852490827441216 63.325632870197296 43.956438258290291 20.547869175672531 23.249659478664398 20.802706159651283 29.335689760744572 82.232387989759445 116.52030742913485 139.59806050360203 10.557827860116957 12.580042757093905 15.028300553560255 16.666650280356407 9.0271729454398137 110.85391711443663 10.921700611710547 8.5863696411252004 10.370309956371786 11.215836353600023 114.5280093178153 7.5119501873850796 12.721071653068064 14.138878047466276 7.246545411646367
leaf_count=118 118 1221 404 357 333 191 7195 210 108 124 1338 100 501 1043 1118 104 143 4779 541 859 218 113 107 187 285 680 310 177 169 236 398 789 890 1682 114 143 163 195 118 1500 120 94 100 112 776 109 147 210 104
internal_value=0.000203967 -0.0153959 0.0329248 0.0029893 -0.024998 0.0166153 0.042917 -0.014189 0.016751 -0.00949505 -0.0124247 -0.0293376 -0.00920375 -0.0163423 0.0270848 0.0274268 -0.0318937 -0.0308354 0.00411079 0.000144983 0.00865506 -0.0131451 0.00706655 -0.0353858 -0.0204834 0.0190492 -0.0177897 -0.00232769 -0.00531325 0.0124231 0.0281033 -0.000652748 0.000559967 0.0317306 -0.00289252 0.0116333 0.00369915 0.0321519 0.0182024 0.0355033 -0.00184068 0.0231516 0.0200093 0.00844033 -0.0238027 0.0475069 0.02778 0.0481211 0.0201493
internal_weight=3322.62 2251.74 1070.88 773.72 1478.02 411.893 658.991 429.523 367.219 406.5 372.416 1048.49 370.576 208.228 155.865 170.313 851.258 834.029 200.472 176.012 108.366 67.6462 196.906 58.9474 204.253 74.2733 197.235 168.163 67.2061 72.4781 211.42 122.633 162.348 148.112 31.3605 45.5368 32.9567 165.883 38.3629 127.521 22.2007 41.1175 34.0843 21.5861 130.028 503.126 24.4605 488.367 14.7585
internal_count=31151 16863 14288 7304 9559 4704 9584 3164 3947 3357 3021 6395 2767 1544 1966 2014 5022 4922 1996 1731 1077 654 1933 397 1506 787 1373 1515 479 848 2708 1146 1223 1786 350 497 354 2211 516 1695 228 498 336 212 894 7618 265 7405 213
cat_boundaries=0 1 2
cat_threshold=268 20
is_linear=0
shrinkage=0.05


Tree=14
num_leaves=50
num_cat=2
split_feature=36 11 36 36 40 27 11 36 44 28 27 19 21 15 28 4 15 9 28 13 4 21 38 44 21 9 35 13 44 36 28 28 9 9 11 35 4 21 28 28 40 44 4 28 38 16 44 28 40
split_gain=614.336 161.764 45.4584 41.3392 23.184 20.6543 18.4242 17.2774 14.6838 12.537 12.1269 11.6141 9.73705 9.61087 9.54377 9.21207 8.8766 8.8412 8.45627 8.18712 8.18199 7.54409 7.32401 6.48669 6.15613 6.0338 8.73106 6.20068 5.75939 6.04905 5.39416 4.8075 4.64821 4.33654 3.91673 3.32124 3.13675 2.95771 2.83957 2.758 2.80598 2.71598 2.60127 2.25509 1.84865 1.84083 0.970033 0.823019 0.160209
threshold=3.5000000000000004 14.500000000000002 7.5000000000000009 1.0000000180025095e-35 516.12195023148161 0 89.500000000000014 1.0000000180025095e-35 0.23565948118377789 1.5000000000000002 1 1.5000000000000002 107.50000000000001 2.5000000000000004 5.5000000000000009 1.5000000000000002 3.5000000000000004 36.500000000000007 49.500000000000007 13.500000000000002 2.5000000000000004 32.500000000000007 48.177763310185192 0.055646630236794177 115.50000000000001 9.5000000000000018 1.6689497716894979 11.500000000000002 0.23166368515205729 13.500000000000002 11.500000000000002 92.500000000000014 1.0000000180025095e-35 15.500000000000002 1.0000000180025095e-35 1.0116279069767444 4.5000000000000009 94.500000000000014 17.500000000000004 168.50000000000003 249.6902314814815 0.16580756013745707 1.5000000000000002 12.500000000000002 4.0440219907407409 5.5000000000000009 0.55277777777777792 15.500000000000002 153.32813657407411
decision_type=10 2 10 8 10 9 2 10 10 8 9 8 10 2 8 10 2 2 8 2 10 10 8 8 10 2 8 2 10 10 10 8 2 2 2 8 8 10 10 8 10 10 8 8 10 2 10 10 10
left_child=1 5 8 4 13 11 10 14 25 -6 20 15 45 31 22 34 -12 28 24 32 -5 -16 -7 -14 -9 27 42 43 39 30 -30 -3 -10 -15 -1 47 -34 -11 -37 40 -4 -20 -27 -2 -21 -8 -19 -13 -31
right_child=2 3 17 6 9 7 12 18 19 37 16 35 23 33 21 -17 -18 46 41 44 -22 -23 -24 -25 -26 26 -28 -29 29 48 -32 -33 36 -35 -36 38 -38 -39 -40 -41 -42 -43 -44 -45 -46 -47 -48 -49 -50
leaf_value=-0.030087876045978807 0.00626311447854237 -0.015226166817639117 0.04070639010962035 -0.0078108578497874826 -0.021888158502571853 -0.0031442854425151852 0.0068916867524520271 -0.015314652349625743 0.0082035452320648582 0.029646863731699405 0.018955616777327235 0.0051034899083190711 0.02163653735990349 -0.018148163631178101 -0.036158682914572825 0.015583881139451581 -0.0076798636817733473 0.048677810919917013 0.011619716423253891 -0.00044924969860831419 0.020263091360349393 -0.01824130263491654 -0.03474710997491514 -0.01349991936856988 -0.041876274860052021 0.019294566063051993 -0.0052807851203614427 -0.016257863615595905 0.015624977572924224 0.035708495654476445 -0.022335246946576182 0.011140468659812707 -0.036633009019480307 -0.045384635069630058 -0.013083164372365922 0.005849223751697382 -0.0028683734730476228 0.0087478683675453611 -0.011893106300766888 0.006859361646431944 0.0094033987901093637 -0.011857771016610988 0.03610514476241334 0.025600566576049977 0.02551768690350378 0.033747319412211624 0.013369219784151877 0.025330131120319472 0.013701048704021944
leaf_weight=69.556183606386185 31.588368020951748 102.08708571642637 196.25988382846117 165.94097825139761 21.572800368070602 20.030062384903431 9.8295933902263624 208.55973295867443 12.019794590771196 28.359286367893219 169.1749539449811 11.721609719097616 20.793762475252151 37.72498457878828 81.045551992952824 15.331924080848692 35.236382655799389 328.72252806648612 32.734323248267174 9.6702925935387629 25.712058484554291 289.53467378765345 559.69057498127222 22.016492202877998 22.3510777130723 53.418131142854691 15.982568375766276 12.830251157283781 19.489336498081688 23.053039602935314 10.159618996083735 16.859643064439297 16.68304014205933 40.417340584099293 88.351107783615589 47.754503406584263 11.411526225507258 47.448203377425671 34.546740740537643 9.1883866712450963 11.042974282056091 13.618750855326651 125.78443365544081 33.862971685826778 17.192424781620502 117.20031031221151 6.5111152194440356 11.690513946115969 10.356692478060721
leaf_count=441 330 788 2931 1532 175 138 104 1529 108 253 1801 98 232 252 491 116 316 5179 261 101 242 1794 3234 234 159 690 183 152 223 323 122 135 153 293 623 335 105 448 255 134 152 95 1667 366 179 1410 90 106 149
internal_value=0.000235714 -0.0134247 0.0339776 0.00386164 -0.0112113 -0.0232771 0.0117344 -0.0260609 0.0189046 0.0084604 0.00568415 -0.00952999 0.0252774 -0.0208998 -0.0295028 -0.0176601 0.0136391 0.0421045 -0.0148736 -0.00197366 -0.00344962 -0.022589 -0.0336914 0.00404447 -0.0187187 0.0239617 0.0286652 0.0112172 0.0340781 0.0184574 0.00127137 -0.0111903 -0.0155553 -0.0341178 -0.0212671 0.00312836 -0.0254238 0.0179168 -0.0018529 0.0381087 0.0392996 0.00423899 0.0317539 0.0173747 0.0175663 0.0320089 0.0481986 0.0178836 0.031558
internal_weight=3322.12 2366.89 955.227 860.374 294.469 1506.52 565.905 1227.56 340.444 97.3803 396.064 278.953 169.84 197.089 950.301 173.239 204.411 614.784 277.264 66.9771 191.653 370.58 579.721 42.8103 230.911 273.467 195.185 78.2816 279.55 63.0587 29.649 118.947 40.1144 78.1423 157.907 105.713 28.0946 75.8075 82.3012 216.491 207.303 46.3531 179.203 65.4513 26.8627 127.03 335.234 23.4121 33.4097
internal_count=31227 17890 13337 8215 2344 9675 5871 7701 4034 876 3891 1974 1980 1468 5657 1180 2117 9303 2044 646 1774 2285 3372 466 1688 3388 2540 848 4034 817 345 923 366 545 1064 794 258 701 590 3217 3083 356 2357 696 280 1514 5269 204 472
cat_boundaries=0 1 2
cat_threshold=4 25
is_linear=0
shrinkage=0.05


Tree=15
num_leaves=44
num_cat=0
split_feature=37 11 25 29 37 40 23 37 9 28 37 40 21 39 35 29 23 21 21 24 40 39 11 29 9 25 35 40 23 5 28 11 28 25 10 37 28 47 24 29 21 28 23
split_gain=549.749 159.359 78.6901 33.8645 29.2097 24.3071 19.2148 18.7619 16.4355 15.8138 13.0593 10.8836 9.9852 9.72865 8.02358 7.59135 7.57844 11.7024 9.51133 7.50259 7.23048 6.50719 5.88654 5.82198 5.59144 5.46545 4.48865 4.12124 3.9767 3.91363 3.23932 4.14434 4.10168 3.20893 3.20496 2.97628 2.81486 2.71768 2.55686 1.87111 1.82649 1.22147 0.335783
threshold=7.5000000000000009 14.500000000000002 4.6250000000000009 0.0854982006297796 21.500000000000004 230.58975694444447 15.500000000000002 4.5000000000000009 6.5000000000000009 4.5000000000000009 1.0000000180025095e-35 14.247488425925928 104.50000000000001 0.0033275462962962968 1.0000000180025095e-35 0.031304442508710804 23.500000000000004 15.500000000000002 111.50000000000001 19.500000000000004 217.52250578703709 28.357158564814821 8.5000000000000018 0.097509301364200093 6.5000000000000009 2.8750000000000004 2.6262254901960786 248.59659143518522 48.500000000000007 0.46428571428571436 12.500000000000002 44.500000000000007 44.500000000000007 4.1250000000000009 69.500000000000014 10.500000000000002 21.500000000000004 0.30495169082125612 7.5000000000000009 0.080829572318934048 94.500000000000014 168.50000000000003 6.5000000000000009
decision_type=10 2 8 10 10 8 8 8 2 10 8 10 8 8 10 10 10 8 10 10 10 10 2 10 2 10 8 10 10 10 8 2 10 8 2 10 8 10 10 10 10 10 8
left_child=1 3 10 5 6 11 20 15 39 38 30 -1 14 -10 -11 28 17 -7 -18 23 22 -17 35 -12 -13 -22 34 42 -4 -24 31 -3 -32 -14 41 -2 -21 -27 -5 -9 -29 -8 -6
right_child=4 2 7 9 27 16 26 8 13 12 19 24 33 -15 -16 21 18 -19 -20 36 25 -23 29 -25 -26 37 -28 40 -30 -31 32 -33 -34 -35 -36 -37 -38 -39 -40 -41 -42 -43 -44
leaf_value=-0.037779470140431488 -0.019088537335751516 -0.019269413334306814 -0.017845113350942018 -0.042697619224762319 0.025032507952515465 -0.046014395496860844 0.037998447709384833 -0.02465087601195191 -0.017901426810356405 -0.014564246846768323 -0.011564658499923736 0.0067497386239139595 0.0070751434888040006 0.032393589009782453 0.012775092462305329 0.0056393658868898761 -0.018875861935043606 -0.025757228584097232 0.019118364464316164 0.0010019108163046573 -0.026222240266460618 0.03203892769629265 0.033478605860693171 0.0040543322980947302 -0.017442872446428032 -0.0030915631262758403 0.0063745644151263952 0.033064986459023914 0.010971614798750334 0.0014680040930626752 0.0055462010062585741 -0.049995191987266117 -0.025388620068706336 0.028952418350488923 0.0013422445347919785 0.012968303144307726 0.019988043732835394 0.020116975247866729 -0.01053634141591054 0.0024583288355440039 0.0057874010940043184 0.0094928393009593142 0.048787648571973527
leaf_weight=15.595222808420656 9.2891340032219905 44.027551166713238 35.207127958536148 18.306243091821671 18.015011847019196 82.511630587279797 219.84996081516147 10.173227392137052 6.9691721573472014 75.73761922866106 247.04669035226107 101.22895332425833 40.452463008463383 261.22130040079355 35.658358186483383 89.630125284194946 134.97129827365279 995.87645968794823 14.601716682314871 46.402872730046511 12.789106599986551 28.066719383001328 46.985187895596027 75.347134843468666 25.835890270769596 29.897458806633949 15.774319339543579 9.9450198002159613 13.124256752431391 12.27582064270973 18.462008245289326 18.3568419739604 16.495014205574989 30.207036092877388 6.7777831070125094 9.8614425137639028 29.419803988188505 15.521998129785059 14.199954651296137 9.5413982011377794 14.902924366295336 7.8047393672168246 348.31640618294477
leaf_count=124 90 277 315 114 257 456 3203 104 81 511 2046 792 284 3368 318 885 992 6007 109 503 120 317 574 693 217 303 172 136 126 152 125 121 114 253 101 123 332 176 111 102 199 115 5719
internal_value=0.000103428 -0.0111895 0.00499542 -0.0208692 0.0367314 -0.0237513 0.026384 0.0199283 0.0275561 -0.00233636 -0.00874556 -0.00405611 0.00365904 0.0307829 -0.00563996 0.00628217 -0.0260137 -0.0275124 -0.0146683 -0.0045871 0.0107626 0.0129838 0.0202097 -0.00790815 0.00135654 -0.00255531 0.0345357 0.0465015 -0.00972501 0.0274778 -0.0247023 -0.0313494 -0.0104013 0.017723 0.0362579 -0.00331383 0.00914948 0.00604832 -0.0319259 -0.0136877 0.0204149 0.0372462 0.0479722
internal_weight=3312.68 2534.67 949.491 1585.18 778.006 1370.62 386.827 453.933 287.905 214.562 495.558 142.66 182.055 268.19 111.396 166.028 1227.96 1078.39 149.573 398.217 136.62 117.697 78.4116 322.394 127.065 58.2086 250.207 391.179 48.3314 59.261 97.3414 62.3844 34.957 70.6595 234.432 19.1506 75.8227 45.4195 32.5062 19.7146 24.8479 227.655 366.331
internal_count=31237 19797 9509 10288 11440 8697 5129 5298 3655 1591 4211 1133 1366 3449 829 1643 7564 6463 1101 3574 1538 1202 939 2739 1009 599 3591 6311 441 726 637 398 239 537 3419 213 835 479 225 206 335 3318 5976
is_linear=0
shrinkage=0.05


Tree=16
num_leaves=52
num_cat=0
split_feature=36 11 37 25 23 20 29 24 29 25 28 20 29 40 28 36 24 28 4 3 40 20 16 40 28 38 3 20 10 40 20 3 28 13 13 37 29 9 29 45 16 40 11 3 38 13 28 20 11 20 40
split_gain=519.736 119.906 50.8607 47.6742 25.5367 18.6586 17.7282 16.7983 15.2395 13.3058 12.8077 12.1007 9.64518 9.46532 9.00828 8.4179 7.95616 7.64425 7.16336 7.16243 9.85067 7.0788 7.35793 6.70839 6.33298 6.08581 5.9621 5.95778 5.92226 5.85074 5.80342 5.59009 4.99383 4.97237 4.14321 4.00739 4.88818 4.30228 3.94733 3.93865 3.6022 3.54683 3.21039 3.14303 2.3929 1.66288 1.17963 0.872264 0.705655 0.562453 0.0637948
threshold=3.5000000000000004 14.500000000000002 10.500000000000002 4.6250000000000009 7.5000000000000009 5.5000000000000009 0.0854982006297796 37.500000000000007 0.031304442508710804 4.6250000000000009 32.500000000000007 5.5000000000000009 0.020906177156177159 9.1565798611111138 12.500000000000002 14.500000000000002 31.500000000000004 6.5000000000000009 1.5000000000000002 5.5000000000000009 516.12195023148161 2.5000000000000004 5.5000000000000009 289.45725115740748 174.00000000000003 2.2494444444444448 5.5000000000000009 2.5000000000000004 1.0000000180025095e-35 215.45743634259262 1.0000000180025095e-35 4.5000000000000009 46.500000000000007 18.500000000000004 5.5000000000000009 7.5000000000000009 0.083538587848932686 9.5000000000000018 0.037073206018518524 2.5000000000000004 6.5000000000000009 291.65776041666669 25.500000000000004 2.5000000000000004 2.1107523148148153 3.5000000000000004 33.500000000000007 19.500000000000004 50.500000000000007 15.500000000000002 238.33756365740743
decision_type=10 2 8 8 10 10 10 8 10 10 10 8 8 10 8 10 10 10 8 2 10 10 2 10 8 8 2 8 2 8 10 2 8 2 2 10 10 2 8 8 2 10 2 2 10 2 10 8 2 10 10
left_child=1 4 9 5 12 19 21 15 11 18 27 31 13 43 -13 24 41 33 34 29 -21 23 -23 -6 30 -14 -15 -8 -18 -3 -4 -5 -27 -7 -2 36 37 -11 -20 -12 -40 -10 -36 -1 -37 -9 -38 49 -19 -17 -47
right_child=2 3 7 8 6 17 10 45 16 35 39 14 25 26 -16 47 28 48 38 20 -22 22 -24 -25 -26 32 -28 -29 -30 -31 -32 -33 -34 -35 42 44 46 -39 40 -41 -42 -43 -44 -45 -46 50 -48 -49 -50 -51 -52
leaf_value=-0.022937768774721864 -0.029058936075075009 0.01537893878801398 0.0075764137139639007 0.0075113890237478095 -0.016054504144696103 0.017605884484124975 -0.026880526841721437 0.018706478936085791 0.016613177112067359 -0.016302108058404791 0.027702668009110355 0.021245994424872447 0.0051936361928213506 0.0067443149080401443 -0.020849351591256719 0.027954587100208747 0.0049084775892434193 0.012136171887344288 -0.0085147146988461594 -0.028610520453578554 0.0083065562289988196 0.010002087642091663 -0.02525221823714437 -0.037602022878154159 -0.015975652722418642 -0.02495638276525701 -0.028025657269862139 0.0030212029027429309 0.033653697619339389 -0.010032732513695736 0.029160720297211336 -0.02823912453829211 -0.013263870000849477 -0.015112471638271572 0.015294697804333649 0.0050453868652125429 0.010499366748667962 0.015508810560488182 0.027620928431850763 0.00015059345238309959 0.002198338438716585 -0.0020155755895585725 -0.011882040764727939 -0.045086085326021291 0.039300666438514736 0.048741460807613345 0.037207734834441605 0.043544552821905981 0.030182520541727251 0.0061496131720677498 0.028660829855276473
leaf_weight=38.356495216488838 17.984942585229874 20.617493085563183 46.610055241733789 12.832928128540514 356.93532932549715 13.280059002339838 25.887598693370819 13.785766389220951 99.7418023198843 15.485035292804239 43.608505629003048 57.125558272004128 17.901265293359756 20.375424675643444 11.707631602883337 26.750479497015476 22.889981389045715 19.063809938728809 16.946111507713795 101.38340979069471 19.431455425918102 45.366493932902813 15.96038483828306 39.746139988303185 7.3111828602850428 614.50847096741199 21.126377105712891 34.218689970672131 127.8318151421845 229.95766931772232 125.78479447960854 33.174429230391979 129.59758678823709 27.25854879617691 12.647310085594652 7.5584236904978743 12.394077695906164 17.091975376009941 28.996494617313147 17.767196156084538 25.19577057659626 32.469561114907265 23.393575016409159 122.94414836168289 40.389952875673771 326.44994214177132 13.188312813639639 95.720426894724369 28.83313874155283 6.9751176796853533 25.832475695759058
leaf_count=215 163 181 544 123 2330 115 184 187 1078 166 337 665 134 132 133 418 241 177 165 730 150 379 143 260 92 3559 136 276 1613 1865 1809 293 770 254 121 99 150 205 291 144 266 336 249 680 589 5612 159 1535 302 113 418
internal_value=0.000258088 -0.0119194 0.0324128 0.00306372 -0.0202231 -0.00786639 -0.0117719 0.039319 0.0156397 0.011844 0.00504599 0.000229585 -0.0252123 -0.0352454 0.0131591 0.0297791 0.021782 0.0122816 0.000638801 -0.0127635 -0.0225788 -0.0162389 -0.000384853 -0.0186547 0.0217 -0.0223297 -0.0120655 -0.0109327 0.029586 -0.00768188 0.023703 -0.0185084 -0.0230221 -0.00363801 -0.0124586 0.0244381 0.0137437 0.000230753 0.0107506 0.020339 0.0169852 0.0121314 -0.00164381 -0.0406673 0.0348871 0.0468659 0.0281002 0.0397709 0.0248259 0.0248212 0.0476907
internal_weight=3308.39 2401.9 906.492 857.599 1544.3 459.826 579.49 675.22 397.774 231.272 121.482 114.841 964.81 202.802 68.8332 309.152 282.933 88.4356 125.164 371.39 120.815 458.008 61.3269 396.681 179.706 762.007 41.5018 60.1063 150.722 250.575 172.395 46.0074 744.106 40.5386 54.0258 106.108 58.1594 32.577 71.1384 61.3757 54.1923 132.211 36.0409 161.301 47.9484 366.068 25.5824 129.446 47.8969 33.7256 352.282
internal_count=31286 17935 13351 8256 9679 3774 4053 10728 4482 2623 941 1214 5626 1163 798 4511 3268 848 1255 2926 880 3112 522 2590 2445 4463 268 460 1854 2046 2353 416 4329 369 533 1368 680 371 722 481 557 1414 370 895 688 6217 309 2066 479 531 6030
is_linear=0
shrinkage=0.05


Tree=17
num_leaves=49
num_cat=0
split_feature=34 11 34 25 29 24 17 38 29 28 39 15 17 23 0 39 23 21 36 23 36 15 11 25 40 28 40 29 24 24 28 11 28 19 40 28 28 39 10 40 39 40 0 29 19 11 39 28
split_gain=516.887 105.603 56.7441 42.3772 27.6646 27.5819 14.0934 12.2056 11.9197 11.7122 11.1513 10.9617 10.5952 10.6056 9.18661 10.5478 8.24874 7.75871 7.73741 7.72802 6.82922 8.58754 6.59312 5.89749 5.20784 5.06424 7.71489 5.17042 4.93274 4.5841 4.01142 3.59071 3.24191 3.16235 3.09697 3.02089 2.96386 2.58994 2.46817 2.41936 2.35776 1.66613 1.54434 1.21575 0.572241 0.52405 0.361529 0.331799
threshold=2.5000000000000004 15.500000000000002 6.5000000000000009 4.6250000000000009 0.0854982006297796 19.500000000000004 36.500000000000007 15.026359953703706 0.041128323261999361 6.5000000000000009 0.0004224537037037038 5.5000000000000009 9.5000000000000018 4.5000000000000009 1.0000000180025095e-35 0.79277199074074078 9.5000000000000018 74.500000000000014 1.0000000180025095e-35 31.500000000000004 1.0000000180025095e-35 2.5000000000000004 9.5000000000000018 2.6250000000000004 232.50264467592595 14.500000000000002 285.3223495370371 0.025893997445721587 17.500000000000004 10.500000000000002 31.500000000000004 1.5000000000000002 1.5000000000000002 2.5000000000000004 203.55133680555556 31.500000000000004 24.500000000000004 0.024230324074074078 1.0000000180025095e-35 56.652934027777782 3.7633969907407412 248.59659143518522 1.0000000180025095e-35 0.14306599832915626 1.5000000000000002 126.50000000000001 0.21690393518518522 14.500000000000002
decision_type=10 2 10 8 10 10 2 8 10 10 10 2 2 10 2 8 8 8 8 10 8 2 2 10 8 8 10 10 10 10 10 2 8 10 8 8 10 10 2 10 8 10 2 8 8 2 8 10
left_child=1 4 5 7 6 11 10 29 25 18 24 14 13 -11 15 -2 34 -12 -6 30 21 -9 40 -16 -1 26 -5 -27 -22 32 -10 -18 -3 -13 45 46 -14 42 -21 -39 43 44 -24 -7 -33 -4 -36 -43
right_child=2 3 16 8 9 22 -8 20 19 12 17 33 36 -15 23 -17 31 -19 -20 38 28 -23 37 -25 -26 27 -28 -29 -30 -31 -32 41 -34 -35 35 -37 -38 39 -40 -41 -42 47 -44 -45 -46 -47 -48 -49
leaf_value=-0.005765014568313514 0.033983409891406559 -0.014964620733409362 0.036042445271470637 0.014802340139819273 -0.042679609010616654 0.022114853053955438 -0.0511819513860194 -0.0073350911603443899 0.00097845567507119039 -0.037116975637411877 -0.025625618365976127 -0.0014853033577883273 0.0012659058247365296 0.0022757638723694177 -0.025067223419912407 0.0020250687369214354 0.0048124221242895927 -0.0030601254139858698 -0.0011961631150487391 0.0090805789346922235 -0.0096105123821571166 -0.031280421504197659 0.044718558118489064 0.0042846723792899213 -0.024004880714967279 -0.031942728223596027 -0.017623117435290218 0.0079047696139180196 0.008341235057430554 0.027189453376512674 0.019079515755961209 0.017688222383330971 0.010382951797882709 -0.035614211225223097 0.0057120439961529934 -0.011080433546370965 0.020246683628112244 -0.0010700112661404539 0.032415179378108505 0.026834171330807045 -0.011292360504415861 0.026966760976171473 0.021584219373144059 -0.00090295116646103748 0.047494984663995272 0.0096917763907400714 0.022713144340361782 0.0075285157357675271
leaf_weight=44.392685890197754 47.340585187077522 15.24302903562784 34.735283583402634 70.57980478182435 21.454931192100048 12.488404050469404 39.222743675112724 78.325697064399719 54.612617291510105 20.276835307478905 49.224767431616783 10.989357009530069 30.803741276264191 51.110818557441235 19.63113996386528 52.286035850644112 6.5416273847222319 133.69701061397791 20.060537114739418 17.934140786528587 167.4262645766139 74.56561055034399 69.181170675903559 52.450397182255983 1097.2464708313346 14.548039950430395 19.632550276815891 11.166920267045496 44.99862702190876 22.147529624402523 66.319911904633045 9.4056262075901014 28.51581534743309 14.892496064305304 8.7441348955035227 8.2102558277547342 61.439060032367706 8.0930186212062818 107.93562868237495 84.786272790282965 8.8413940072059614 6.9244676083326366 25.103712640702724 7.9731060937046996 398.90385718271136 6.7625420391559592 15.733843579888342 9.4726409874856454
leaf_count=303 546 122 503 771 129 156 279 564 590 117 366 104 233 353 174 513 91 995 145 188 1361 495 1086 558 6307 146 191 119 483 240 720 150 252 153 114 99 487 124 1398 1183 96 110 390 100 7051 104 184 149
internal_value=-7.15971e-05 -0.0124505 0.0316345 0.00240225 -0.0199504 0.0175927 -0.0225174 -0.00815389 0.0148919 -0.00275557 -0.0214793 0.00390561 0.00343941 -0.0106104 0.00862123 0.0181093 0.0428527 -0.00965281 -0.0249178 0.0210012 -0.01172 -0.0196341 0.029716 -0.00481669 -0.0233239 0.00155493 0.00719083 -0.0161687 -0.00570337 0.0110454 0.0112686 0.0456719 0.000924219 -0.0237099 0.0246157 0.0106947 0.0142992 0.033109 0.0295644 0.0244723 0.00637664 0.0462379 0.0399561 0.0147297 0.0470307 0.0332522 0.0186389 0.0201206
internal_weight=3282.37 2362.88 919.491 793.952 1568.93 414.057 1363.78 431.223 362.73 205.146 1324.56 197.59 163.63 71.3877 171.708 99.6266 505.434 182.922 41.5155 246.802 365.316 152.891 216.467 72.0815 1141.64 115.927 90.2124 25.715 212.425 65.9064 120.933 431.248 43.7588 25.8819 74.1861 32.6882 92.2428 187.164 125.87 92.8793 29.3029 424.707 94.2849 20.4615 408.309 41.4978 24.478 16.3971
internal_count=31092 17354 13738 7640 9714 5183 8250 3517 4123 1464 7971 2048 1190 470 1791 1059 8555 1361 274 2896 2903 1059 3135 732 6610 1227 962 265 1844 614 1310 7551 374 257 1004 397 720 2783 1586 1307 352 7460 1476 256 7201 607 298 259
is_linear=0
shrinkage=0.05


Tree=18
num_leaves=48
num_cat=0
split_feature=37 23 10 37 43 23 23 22 39 43 13 37 38 40 40 16 39 13 22 24 17 16 17 45 20 24 17 45 13 8 37 15 47 13 47 16 15 38 15 38 39 8 15 15 38 23 24
split_gain=425.625 123.68 44.0537 28.643 27.4552 26.9245 22.4588 12.5289 11.5706 11.3081 11.0298 8.67129 8.37493 8.13892 7.23919 7.17928 6.8173 5.50056 5.48109 5.35291 5.27558 5.27368 5.33832 4.60691 5.12743 4.59324 6.40411 4.52504 3.89269 3.17944 3.14583 3.13441 3.23724 3.12909 3.06718 3.11237 2.98302 2.6093 2.59649 2.51347 2.29613 1.45878 2.68721 0.904331 0.767369 0.731822 0.00848605
