tree
version=v4
num_class=1
num_tree_per_iteration=1
label_index=0
max_feature_idx=29
objective=binary sigmoid:1
feature_names=viol_lag1 viol_lag2 viol_lag3 hist_horizon viol_recency viol_chronicity viol_cnt_prior1 viol_cnt_prior_cum ctx_a_prior1 ctx_a_cum ctx_b_prior1 ctx_b_cum ctx_c_prior1 ctx_c_cum ctx_i_prior1 ctx_i_cum ctx_total_prior1 ctx_total_cum c311_available c311_prior1 c311_prior_cum building_age prewar unitsres unitstotal numfloors bldgclass_1 borough portfolio_size portfolio_loo_rate
feature_infos=[0:1] [0:1] [0:1] [0:6] [1:6] [0:1] [0:43] [0:99] [0:320] [0:1371] [0:557] [0:2115] [0:270] [0:800] [0:70] [0:309] [0:1075] [0:3871] [0:1] [0:1346] [0:2850] [0:231] [0:1] [0:5860] [0:5860] [1:90] -1:2:1:17:3:16:0:10:7:20:13:12:11:8:21:6:4:5:14:15:23:9:19 -1:0:3:2:1:4 [1:423] [0:1]
tree_sizes=3420 3513 3534 3525 3552 3541 3550 3560 3560 3556 3567 3602 3576 3590 3581 3606 3616 3580 3581 3583 3586 3579 3599 3589 3562 3605 3560 3588 3554 3558 3589 3609 3572 3615 3642 3599 3552 3586 3572 3609 3599 3595 3542 3633 3609 3614 3623 3545 3610 3617 3592 3625 3655 3598 3641 3560 3555 3635 3638 3581 3536 3632 3539 3571 3602 3592 3628 3592 3557 3556 3575 3635 3546 3531 3546 3537 3643 3543 3608 3574 3571 3635 3646 3635 3573 3620 3650 3594 3597 3613 3603 3554 3577 3574 3660 3599 3555 3572 3580 3608 3623 3574 3613 3576 3610 3573 3601 3626 3573 3601 3598 3606 3593 3635 3621 3646 3570 3621 3554 3605 3575 3592 3621 3559 3620 3582 3624 3624 3591 3533 3568 3608 3569 3597 3567 3628 3587 3625 3605 3589 3568 3604 3587 3634 3634 3572 3641 3597 3586 3627 3619 3618 3646 3610 3601 3629 3595 3580 3597 3572 3590 3586 3634 3632 3607 3580 3615 3568 3629 3595 3631 3604 3628 3592 3630 3587 3581 3611 3617 3586 3627 3596 3619 3637 3572 3564 3611 3581 3607 3606 3561 3574 3591 3586 3626 3585 3619 3573 3613 3593 3567 3610 3642 3574 3563 3640 3554 3531 3558 3586 3617 3605 3606 3585 3643 3590 3528 3621 3618 3585 3578 3616 3537 3584 3604 3605 3568 3581 3591 3623 3617 3573 3589 3599 3614 3599 3546 3591 3576 3586 3608 3567 3623 3598 3612 3529 3568 3550 3598 3583 3549 3536 3583 3582 3577 3628 3580 3575 3595 3619 3583 3585 3590 3556 3552 3537 3567 3568 3555 3598 3505 3598 3576 3546 3565 3540 3578 3605 3603 3537 3588 3546 3590 3604 3561 3582 3545 3620 3581 3550 3523 3556 3505 3542 3504 3594 3554 3561 3570 3557 3563 3598 3594 3591 3513 3555 3561 3614 3503 3559 3609 3583 3546 3545 3562 3559 3571 3536 3553 3510 3500 3513 3586 3553 3591 3550 3550 3573 3540 3569 3533 3502 3448 3562 3510 3571 3566 3493 3570 3538 3586 3562 3500

Tree=0
num_leaves=31
num_cat=0
split_feature=11 4 13 20 20 4 12 20 10 20 4 7 7 11 7 11 10 7 13 20 20 10 11 23 12 11 10 20 11 11
split_gain=86745.3 19565.1 11986.8 6799.33 5672.01 4782.28 3156.61 2442.85 1765.08 1527.83 1387.37 1344.39 1292.24 1167.08 752.968 731.127 714.595 707.831 637.384 496.59 381.434 374.851 346.719 345.889 340.255 305.879 293.628 272.433 263.377 250.957
threshold=30.500000000000004 1.5000000000000002 1.5000000000000002 7.5000000000000009 26.500000000000004 1.5000000000000002 3.5000000000000004 2.5000000000000004 1.0000000180025095e-35 28.500000000000004 1.5000000000000002 2.5000000000000004 2.5000000000000004 1.5000000000000002 1.5000000000000002 102.50000000000001 1.5000000000000002 2.5000000000000004 80.500000000000014 11.500000000000002 1.0000000180025095e-35 22.500000000000004 45.500000000000007 7.5000000000000009 5.5000000000000009 18.500000000000004 1.0000000180025095e-35 4.5000000000000009 91.500000000000014 10.500000000000002
decision_type=2 8 2 10 10 8 2 10 2 10 8 10 8 2 8 2 2 10 2 10 10 2 2 10 2 2 2 10 2 2
left_child=2 4 10 6 11 17 16 8 23 24 -1 21 15 20 25 -8 -3 27 -11 -9 -12 -2 -13 -7 -5 -10 -15 -4 -14 -16
right_child=1 3 5 9 -6 7 12 19 14 18 13 22 28 26 29 -17 -18 -19 -20 -21 -22 -23 -24 -25 -26 -27 -28 -29 -30 -31
leaf_value=-3.4605370977137233 -3.3678439973089742 -3.488002143959672 -3.446353107564994 -3.3905688372797247 -3.1005712495762037 -3.5228169792635069 -3.4387952522853533 -3.4675009551434579 -3.5029075522575011 -3.3047704865547565 -3.53401945174295 -3.3404402187396851 -3.3734584405238937 -3.5232390044726438 -3.4801675436530952 -3.3841264719342705 -3.4473115338498035 -3.3590516336206244 -3.1754454119640472 -3.4141461044880086 -3.5158573876220247 -3.2947321416920889 -3.231341017693552 -3.5072901395101486 -3.3350312046024877 -3.4777486771709549 -3.5074809029910075 -3.3831235236913844 -3.3069225384064285 -3.4425817970534389
leaf_weight=107.35483869165182 94.12773822247982 335.17975945770741 154.67038624733686 101.14677039533854 77.23731817305088 1464.5727967694402 293.0376021489501 337.8084009885788 717.95470918715 55.872614666819572 22502.262110851705 20.357989728450775 78.74738883972168 1722.2635596096516 134.67593204975128 153.07642276585102 360.71113943308592 70.917392790317535 28.104092963039875 89.038240790367126 471.98097614943981 51.733902469277382 104.64230434596539 942.28409600257874 105.20158977806568 264.84961637109518 650.92435014992952 34.675696790218353 48.126511432230473 159.36838387697935
leaf_count=3839 3366 11986 5531 3617 2762 52373 10479 12080 25674 1998 804679 728 2816 61588 4816 5474 12899 2536 1005 3184 16878 1850 3742 33696 3762 9471 23277 1240 1721 5699
internal_value=-3.51834 -3.38762 -3.52671 -3.418 -3.25219 -3.49611 -3.4381 -3.50139 -3.50665 -3.33077 -3.53196 -3.2968 -3.40334 -3.53227 -3.48765 -3.41978 -3.46684 -3.41314 -3.25796 -3.45615 -3.53365 -3.34057 -3.24756 -3.51674 -3.36151 -3.49609 -3.51891 -3.43412 -3.34676 -3.45961
internal_weight=31732.9 1907.3 29825.6 1559.2 348.099 4370.82 1268.88 4110.55 3683.71 290.325 25454.8 270.862 572.988 25347.4 1276.85 446.114 695.891 260.263 83.9767 426.847 22974.2 145.862 125 2406.86 206.348 982.804 2373.19 189.346 126.874 294.044
internal_count=1134766 68205 1066561 55757 12448 156300 45375 146993 131729 10382 910261 9686 20490 906422 45660 15953 24885 9307 3003 15264 821557 5216 4470 86069 7379 35145 84865 6771 4537 10515
is_linear=0
shrinkage=1


Tree=1
num_leaves=31
num_cat=0
split_feature=17 7 11 19 7 19 10 12 5 19 19 29 5 19 10 5 17 19 11 17 5 10 17 19 10 3 10 17 29 29
split_gain=75629 11804.2 9760.1 4730.96 3453.69 2694.98 2105.61 1583.49 1515.09 1218.4 1208.18 847.247 791.612 683.824 659.52 600.649 582.349 544.925 483.376 441.579 418.059 397.441 340.266 337.137 318.251 297.694 292.09 284.322 216.758 210.853
threshold=53.500000000000007 1.5000000000000002 3.5000000000000004 11.500000000000002 1.0000000180025095e-35 2.5000000000000004 8.5000000000000018 5.5000000000000009 1.0000000180025095e-35 2.5000000000000004 2.5000000000000004 0.0606401089547157 0.70833333333333337 1.0000000180025095e-35 44.500000000000007 0.55000000000000016 342.50000000000006 1.0000000180025095e-35 1.0000000180025095e-35 326.50000000000006 0.29166666666666669 1.0000000180025095e-35 221.50000000000003 1.5000000000000002 1.0000000180025095e-35 1.5000000000000002 1.0000000180025095e-35 24.500000000000004 0.071508469159475882 0.03229818648692024
decision_type=2 8 2 10 8 10 2 2 10 10 10 10 10 10 2 10 2 8 2 2 10 2 2 10 2 2 2 2 10 10
left_child=2 5 8 7 10 6 26 17 13 15 11 24 19 18 20 21 -5 -3 29 -9 25 -6 -7 -10 -4 -8 -2 -23 -19 -1
right_child=1 3 4 16 9 22 14 12 23 -11 -12 -13 -14 -15 -16 -17 -18 28 -20 -21 -22 27 -24 -25 -26 -27 -28 -29 -30 -31
leaf_value=-0.016137534423121672 0.022104109376065582 0.05053205581535216 -0.0038490485307025473 0.21948942704703517 0.022715521783300923 0.11314217488654439 0.10588065815538907 0.14089443328610668 0.017918013210004264 0.11105877502952526 0.062877220143831666 0.027246289935210572 0.23499228584109039 0.010293454487719249 0.14916424639036682 0.1014057916217614 0.29653612770272003 0.10385137044466346 -0.0069943287959186844 0.20277958040176772 0.12720975448982841 0.03570424066701304 0.16213204499439055 0.070085151478641972 0.011296227601492244 0.06333337474035669 0.04930267363230325 0.066044999505346078 0.14902907594623246 -0.0072578060252186617
leaf_weight=20136.776314463466 297.2707426417619 59.709810828790069 1744.1315970160067 116.69440868869424 384.09081543050706 237.38554761745036 88.316294528543949 239.59006159007549 322.39965120516717 115.9241190161556 155.88475425727665 606.35019737109542 64.220428334549069 448.33898103050888 68.124909836798906 63.89253974147141 85.961715564131737 142.59857997111976 2928.0497477483004 65.929561272263527 69.867307620123029 272.806969569996 85.303243178874254 57.866386070847511 812.77605603076518 297.40331882983446 343.02037405781448 233.20327960886061 74.539187002927065 1132.1218167319894
leaf_count=730560 10344 2006 62360 3190 13584 7525 2927 7256 11205 3776 5290 21386 1810 15917 2137 2093 2199 4590 105315 1900 2198 9432 2558 1931 28516 9778 11479 7831 2319 41047
internal_value=-2.64419e-05 0.109483 -0.00872644 0.168957 0.01878 0.0754187 0.0611465 0.142119 -0.0135512 0.0500108 0.00870084 0.00601201 0.16938 -0.0141628 0.0908722 0.0424841 0.253466 0.105231 -0.0146163 0.154867 0.0818481 0.0381456 0.126554 0.0260195 0.000967784 0.0733238 0.0367292 0.04979 0.119972 -0.0156652
internal_weight=31750.5 2335.94 29414.6 849.244 4389.06 1486.69 1164 646.588 25025.6 1069.92 3319.14 3163.26 369.74 24645.3 523.712 953.994 202.656 276.848 24196.9 305.52 455.587 890.101 322.689 380.266 2556.91 385.72 640.291 506.01 217.138 21268.9
internal_count=1134459 74216 1060243 25270 154268 48946 38863 19881 905975 36716 117552 112262 10966 892839 17040 32940 5389 8915 876922 9156 14903 30847 10083 13136 90876 12705 21823 17263 6909 771607
is_linear=0
shrinkage=0.02


Tree=2
num_leaves=31
num_cat=0
split_feature=17 17 4 5 19 17 0 17 29 0 20 19 20 5 12 20 12 19 20 16 0 29 29 20 20 20 29 12 16 20
split_gain=65429.6 9308.09 8937.06 3142.51 2479.22 2118.95 1557.2 1500.79 1203.37 1198.52 920.39 735.294 595.379 589.399 527.053 511.37 448.241 425.904 420.899 412.217 402.139 391.849 369.98 347.74 289.619 240.498 232.8 226.637 211.239 205.041
threshold=53.500000000000007 11.500000000000002 2.5000000000000004 1.0000000180025095e-35 1.5000000000000002 250.50000000000003 1.0000000180025095e-35 132.50000000000003 0.0606401089547157 1.0000000180025095e-35 1.0000000180025095e-35 7.5000000000000009 17.500000000000004 1.0000000180025095e-35 1.0000000180025095e-35 1.5000000000000002 1.0000000180025095e-35 2.5000000000000004 38.500000000000007 43.500000000000007 1.0000000180025095e-35 0.020887870855148347 0.083602150537634423 6.5000000000000009 23.500000000000004 5.5000000000000009 0.080055248618784547 1.0000000180025095e-35 3.5000000000000004 10.500000000000002
decision_type=2 2 8 8 8 2 2 2 10 2 10 10 10 8 2 10 2 10 10 2 2 10 10 10 10 10 10 2 2 10
left_child=1 6 5 8 22 11 10 13 15 16 14 20 19 23 21 28 -5 -10 -7 -9 -2 -1 -4 27 -11 -12 -13 -6 -3 -18
right_child=2 3 4 9 7 18 -8 12 17 24 25 26 -14 -15 -16 -17 29 -19 -20 -21 -22 -23 -24 -25 -26 -27 -28 -29 -30 -31
leaf_value=-0.015333989799469004 0.083709892079134485 -0.0041911203875651401 0.023904118478076587 0.022811634569914748 0.027550974826366665 0.1756882127333648 0.04821359241723739 0.082983429586518775 0.029218046891942177 0.084000237277980394 0.0052053995563636638 0.13387823423585424 0.16189356631782503 0.097299946190110301 0.0069302935842362736 0.028863737765053705 0.049028659946069517 0.088277211606825542 0.23313594317391978 0.12479623856346023 0.12707737583214726 -0.0058144398177701721 0.061891623751473647 0.094947278996325088 0.19345088520576334 0.046513751091132705 0.18911659317552601 0.058915066590855353 0.0091882035160515737 0.10928776885745188
leaf_weight=21830.711744504049 144.92042537592351 1535.6448791045696 384.56441623531282 399.6080921292305 133.46053802408278 200.20254157669842 163.6658917106688 214.41086031682789 552.82603440247476 223.63026015087962 661.68687838129699 73.683460406959057 86.207542601972818 200.79389220103621 464.04396564140916 273.37316370755434 370.10239247791469 52.977019244804978 89.45083536580205 186.80541666783392 248.74591547623277 1880.1851406656206 140.22002884745598 81.283900205045938 9.8335388936102373 60.671632517129183 81.832283690571785 318.86585469916463 680.30829090066254 23.925939669832587
leaf_count=802446 4258 55104 12560 13650 4409 4759 5323 6360 19016 6794 23428 1782 2120 5827 16545 9214 12036 1690 1736 5171 6518 68435 4439 2314 276 2067 1908 9999 23758 708
internal_value=2.89356e-05 -0.00851547 0.0964398 0.0193314 0.0706019 0.150091 -0.0130965 0.0862164 0.00926506 0.0496275 -0.0135015 0.126532 0.11349 0.0679852 -0.0141662 0.00310769 0.0378252 0.0345197 0.19417 0.102713 0.111365 -0.0145794 0.0341526 0.0567929 0.0894157 0.00873444 0.163967 0.0497422 -8.13118e-05 0.0529551
internal_weight=31768.6 29183.2 2585.45 4122.23 1746.61 838.835 25061 1221.83 3095.13 1027.1 24897.3 549.182 487.424 734.404 24174.9 2489.33 793.636 605.803 289.653 401.216 393.666 23710.9 524.784 533.61 233.464 722.359 155.516 452.326 2215.95 394.028
internal_count=1134650 1060490 74160 142246 53199 20961 918244 36200 108782 33464 912921 14466 13651 22549 887426 88076 26394 20706 6495 11531 10776 870881 16999 16722 7070 25495 3690 14408 78862 12744
is_linear=0
shrinkage=0.02


Tree=3
num_leaves=31
num_cat=0
split_feature=17 5 13 17 0 17 23 0 6 0 16 29 5 29 11 23 16 16 29 11 29 29 17 6 23 29 11 16 17 16
split_gain=58894.3 8585.8 6335.23 3134.22 2246.25 1370.18 1044.48 1000.49 977.974 752.115 679.536 661.534 533.638 524.894 492.012 486.669 330.885 323.692 281.524 269.999 268.043 257.092 232.574 228.351 226.97 217.767 186.388 177.399 168.108 146.222
threshold=37.500000000000007 1.0000000180025095e-35 1.0000000180025095e-35 175.50000000000003 1.0000000180025095e-35 123.50000000000001 7.5000000000000009 1.0000000180025095e-35 2.5000000000000004 1.0000000180025095e-35 4.5000000000000009 0.05721726190476191 1.0000000180025095e-35 0.072328788839568822 1.5000000000000002 49.500000000000007 2.5000000000000004 3.5000000000000004 0.022253172392448162 39.500000000000007 0.16696969696969699 0.23420877659574471 16.500000000000004 2.5000000000000004 10.500000000000002 0.084587104072398209 224.50000000000003 2.5000000000000004 23.500000000000004 14.500000000000002
decision_type=2 8 2 2 2 2 10 2 10 2 2 10 8 10 2 8 2 2 10 2 10 10 2 10 10 10 2 2 2 2
left_child=2 5 9 7 6 11 17 10 15 14 24 16 13 28 18 21 -2 -4 -1 -12 26 29 -14 -9 -3 -6 -7 -13 -8 -5
right_child=1 3 4 8 25 20 12 23 -10 -11 19 27 22 -15 -16 -17 -18 -19 -20 -21 -22 -23 -24 -25 -26 -27 -28 -29 -30 -31
leaf_value=-0.015949910245725275 0.0077157188277739291 0.021426663530170677 -0.0049021330017263434 0.076989265937602469 0.055594045877665553 0.061514082508171822 0.0020143166285651803 0.10372828183279127 0.19634343764823275 0.04567254243808818 0.068202883311033927 0.032583150373918388 0.022138202031808021 0.032242576885258036 -0.0028757208029887901 0.15392227263266686 0.033803659580059271 0.011225696099521841 -0.0067877435456944616 0.097852392552710235 0.10418808019177635 0.16036463996489064 0.048977605196555765 0.14312595912202669 0.064517605584551441 0.099896391397200635 0.11075612256312967 0.06078948471363517 0.018556793045783188 0.11445365434640722
leaf_weight=19875.336017657071 315.16403101570904 110.6464773081243 2257.0615762863308 61.758861608803272 214.89374851435423 338.52064491435885 1081.6411373261362 291.64035991579294 111.39063108339906 82.204105403274298 239.32234610430896 124.84341487102211 287.15202598832548 380.67105532810092 1349.4431687425822 223.52541246637702 509.93223138153553 637.55991405807436 1440.7737927306443 286.80379674956203 99.156709453091025 46.178261075168848 238.46902504749596 85.994204696267843 88.861079258844256 58.34814802184701 35.015442121773958 352.11610633134842 317.07446804270148 240.48757546395063
leaf_count=742065 10750 3520 81387 1621 6253 9476 38452 6988 1973 2592 6807 4039 9892 12858 48602 4607 16007 21659 52894 7465 2638 966 7535 1873 2640 1664 880 10619 10923 5237
internal_value=-4.93932e-05 0.0765781 -0.00972192 0.107525 0.00959597 0.0453816 0.00665228 0.086527 0.14125 -0.0143698 0.0725851 0.0347467 0.0166943 0.0114522 -0.0145896 0.130196 0.0238602 -0.00134722 -0.015331 0.0845205 0.0745406 0.114579 0.0343849 0.113054 0.0408455 0.0653841 0.0664134 0.0534901 0.0057749 0.107078
internal_weight=31782 3561.36 28220.6 1786.61 5472.87 1774.75 5199.63 1103.27 683.341 22747.8 725.634 1302.06 2305.01 1779.39 22665.6 571.95 825.096 2894.62 21316.1 526.126 472.693 348.425 525.621 377.635 199.508 273.242 373.536 476.96 1398.72 302.246
internal_count=1134882 98106 1036776 43697 190623 54409 182706 29293 14404 846153 20432 41415 79660 62233 843561 12431 26757 103046 794959 14272 12994 7824 17427 8861 6160 7917 10356 14658 49375 6858
is_linear=0
shrinkage=0.02


Tree=4
num_leaves=31
num_cat=0
split_feature=17 7 11 19 7 16 12 0 0 19 17 19 19 23 5 19 7 19 28 28 0 19 3 10 24 19 19 10 17 12
split_gain=52907.5 7152.82 5407.72 2704.45 1945.89 1487.55 1449.84 859.687 823.192 770.933 732.191 662.698 587.12 340.287 336.126 335.203 329.235 312.544 301.462 293.589 290.441 262.421 217.021 198.433 164.9 150.597 142.182 137.847 131.916 124.634
threshold=33.500000000000007 1.0000000180025095e-35 1.5000000000000002 8.5000000000000018 1.0000000180025095e-35 40.500000000000007 1.0000000180025095e-35 1.0000000180025095e-35 1.0000000180025095e-35 1.0000000180025095e-35 123.50000000000001 1.0000000180025095e-35 1.0000000180025095e-35 7.5000000000000009 0.55000000000000016 2.5000000000000004 5.5000000000000009 1.5000000000000002 3.5000000000000004 6.5000000000000009 1.0000000180025095e-35 1.5000000000000002 1.5000000000000002 1.0000000180025095e-35 9.5000000000000018 3.5000000000000004 5.5000000000000009 1.0000000180025095e-35 88.500000000000014 1.0000000180025095e-35
decision_type=2 8 2 10 8 2 2 2 2 10 2 8 10 10 10 10 10 10 10 10 2 8 2 2 8 10 10 2 2 2
left_child=2 6 7 5 9 11 17 12 19 13 15 27 18 -4 28 22 -5 23 -1 -6 24 -12 -8 -2 -13 -14 -11 -3 -7 -21
right_child=1 3 4 16 8 14 10 -9 -10 26 21 20 25 -15 -16 -17 -18 -19 -20 29 -22 -23 -24 -25 -26 -27 -28 -29 -30 -31
leaf_value=-0.016193297106547652 0.0071390080721425208 0.019414364127404674 -0.0062592708875537154 0.12114148313646515 0.013126337147925538 0.064761633497438298 0.058268944882381872 0.036750833073223889 0.065565128904369691 0.022738116269154191 0.041213094265301307 0.049766196115289228 0.0054203369541506053 0.0063664643683304213 0.13878203471842887 0.071020599076238811 0.15743051035218592 0.052395530617302455 -0.010651460165686154 0.026000231476101702 0.091145386972608336 0.082093284844385953 0.031049803779825802 0.032268570395630899 0.073458677913892045 0.04383785041496191 0.057570029163803826 0.053353162420967486 0.10465553090318089 0.048238008415190436
leaf_weight=16875.02640045248 492.34843081049621 112.21537491306663 2144.3368988223374 330.58134436607361 541.01879282668233 44.99795787781477 150.14750627800822 130.89021721854806 222.70766943693161 371.14115077070892 80.31985966488719 176.13748457282782 335.64028765633702 1417.4481880832464 131.97515073418617 138.60182903707027 171.75267307832837 94.155593832954764 5128.0582343321294 245.64008130319417 304.27850762009621 353.19816691800952 558.57904969155788 168.18657335639 428.41945109143853 45.535389367491007 53.432268938049674 85.025826690718532 269.58955009654164 176.8649754524231
leaf_count=639014 16638 3503 77309 6106 18177 1086 4441 3878 6051 12502 2248 4809 11818 49654 2402 3700 2623 2718 192408 8345 6720 8639 17071 5205 11034 1516 1630 2282 5646 5482
internal_value=-2.02733e-05 0.0671102 -0.00994001 0.0934299 0.0084994 0.080279 0.0405063 -0.0141764 0.0309752 0.00180513 0.0534583 0.0677212 -0.0144759 -0.00123436 0.111162 0.0425503 0.133837 0.0184826 -0.0149023 0.0229204 0.0749419 0.0746315 0.0368903 0.0135766 0.0666495 0.0101124 0.0272467 0.0342399 0.0991725 0.0354011
internal_weight=31778.3 4090.51 27687.7 2054.97 5172.59 1552.64 2035.54 22515.2 1186.23 3986.36 1280.85 1106.08 22384.3 3561.79 446.563 847.328 502.334 754.691 22003.1 963.524 908.835 433.518 708.727 660.535 604.557 381.176 424.573 197.241 314.588 422.505
internal_count=1134655 106871 1027784 46211 179150 37482 60660 848634 38055 141095 36099 28348 844756 126963 9134 25212 8729 24561 831422 32004 22563 10887 21512 21843 15843 13334 14132 5785 6732 13827
is_linear=0
shrinkage=0.02


Tree=5
num_leaves=31
num_cat=0
split_feature=11 13 7 19 19 6 10 10 13 4 11 10 19 6 7 19 4 19 10 19 11 23 10 23 19 3 13 25 19 13
split_gain=48201 6128.77 5122.06 2165.64 1870.84 1527.31 1087.39 1052.81 669.229 661.375 495.447 418.4 415.577 343.325 330.19 314.16 309.467 269.388 256.982 231.872 221.198 202.023 193.667 188.871 163.39 189.432 131.303 130.976 126.903 115.894
threshold=18.500000000000004 1.0000000180025095e-35 1.0000000180025095e-35 1.5000000000000002 4.5000000000000009 1.0000000180025095e-35 1.0000000180025095e-35 12.500000000000002 22.500000000000004 1.0000000180025095e-35 1.5000000000000002 1.0000000180025095e-35 23.500000000000004 1.5000000000000002 1.5000000000000002 1.5000000000000002 1.5000000000000002 1.5000000000000002 1.0000000180025095e-35 1.0000000180025095e-35 4.5000000000000009 7.5000000000000009 72.500000000000014 6.5000000000000009 2.5000000000000004 1.5000000000000002 10.500000000000002 3.8750000000000004 4.5000000000000009 9.5000000000000018
decision_type=2 2 8 10 10 8 2 2 2 10 2 2 10 10 10 10 8 8 2 10 2 10 2 10 10 2 2 10 10 2
left_child=1 9 6 5 7 11 15 18 24 10 19 21 -6 22 20 27 -5 -10 -4 23 -7 -3 -9 -1 25 -8 -20 -2 -18 -22
right_child=2 3 4 16 12 14 8 13 17 -11 -12 -13 -14 -15 -16 -17 28 -19 26 -21 29 -23 -24 -25 -26 -27 -28 -29 -30 -31
leaf_value=-0.016284769482957911 -0.00067384184502581159 -0.0068565019480677763 0.036070559689268769 0.079868172996361717 0.10079788802242233 0.01393168164473539 0.053508145029895253 0.078053217762275071 0.039075464299642794 0.039756533989705745 -0.0025901114535578601 0.011542332320756741 0.13408326995327227 0.11805707539688634 0.064506911498782349 0.054887266035235804 0.032096960209208568 0.075107634637735704 0.045000537852776495 0.0037614516801561387 0.032164188575620062 0.0034603955714151429 0.12148458257735452 -0.011181668225780038 0.061188614707947682 0.029859218976164219 0.068940467851380055 0.020399003398583554 0.05611792974408996 0.067380375843755738
leaf_weight=16957.802037695423 212.51869833655655 2014.4493741709739 207.57299378886819 103.36915403231978 492.74013482034206 336.95127076283097 181.56844272278249 471.55160723999143 107.58015745133162 89.593768790364265 1332.4836036600173 1052.5339568648487 238.58579783141613 144.72489451617002 99.979133570566773 74.848933238536119 253.61701435595751 425.40021958202124 132.33116397447884 255.1438902001828 326.16842947341502 1217.259002732113 48.313502352684736 3512.0173966772854 118.66493689268827 560.32250827550888 376.21159179508686 264.03625983931124 140.24114842526615 42.564654579386115
leaf_count=651900 7223 73551 5795 2448 8749 11484 5144 10006 2936 2602 48034 35381 3285 2423 2538 2053 7913 9927 3400 8995 9873 42683 848 134233 2960 16443 8599 8636 3932 1187
internal_value=-5.10338e-05 -0.00947059 0.0643292 0.00924672 0.0858954 0.00535024 0.040878 0.0720901 0.0502822 -0.0141927 -0.0144136 0.000596691 0.111825 0.0902641 0.0305959 0.0170631 0.0490426 0.0679215 0.0551215 -0.0151736 0.025707 -0.00297066 0.082315 -0.0154098 0.0392913 0.0357112 0.0628114 0.0110199 0.0407706 0.0364006
internal_weight=31791.1 27734.2 4056.97 5587.13 2112.03 5089.91 1944.94 1380.71 1393.54 22147 22057.4 4284.24 731.326 664.59 805.663 551.404 497.227 532.98 716.116 20725 705.684 3231.71 519.865 20469.8 860.556 741.891 508.543 476.555 393.858 368.733
internal_count=1135181 1036754 98427 190990 43105 176697 55322 31071 37410 845764 843162 151615 12034 13277 25082 17912 14293 12863 17794 795128 22544 116234 10854 786133 24547 21587 11999 15859 11845 11060
is_linear=0
shrinkage=0.02


Tree=6
num_leaves=31
num_cat=0
split_feature=17 5 13 17 11 6 29 0 6 29 11 6 29 29 16 9 29 16 29 29 29 17 24 16 16 29 3 23 23 15
split_gain=44992.3 5606.8 4061.23 1907.65 1350.42 1212.39 881.933 673.993 574.141 507.6 484.72 471.847 375.914 338.455 316.825 310.019 277.684 223.605 215.686 194.191 176.044 175.182 171.637 154.636 150.894 130.919 114.318 110.301 106.803 102.454
threshold=27.500000000000004 1.0000000180025095e-35 1.0000000180025095e-35 123.50000000000001 45.500000000000007 1.0000000180025095e-35 0.072328788839568822 1.0000000180025095e-35 1.5000000000000002 0.060023094688221715 1.5000000000000002 1.0000000180025095e-35 0.014742103738046944 0.0857864357864358 16.500000000000004 70.500000000000014 0.022253172392448162 3.5000000000000004 0.05721726190476191 0.18205492424242428 0.040629771779951307 11.500000000000002 7.5000000000000009 3.5000000000000004 7.5000000000000009 0.1522063595068138 1.5000000000000002 7.5000000000000009 59.500000000000007 1.0000000180025095e-35
decision_type=2 8 2 2 2 8 10 2 10 10 2 8 10 10 2 2 10 2 10 10 10 2 10 2 2 10 2 10 8 2
left_child=2 4 7 11 9 6 22 10 15 17 16 13 21 23 20 19 27 -2 -13 24 -6 -7 -4 -3 -5 -16 -12 29 -10 -1
right_child=1 3 5 8 14 12 -8 -9 28 -11 26 18 -14 -15 25 -17 -18 -19 -20 -21 -22 -23 -24 -25 -26 -27 -28 -29 -30 -31
leaf_value=-0.014200423230456225 0.0061953897498243059 0.019671943968802369 -0.0055606458350384415 0.043444613244247934 0.022904660149869027 0.013924590113719788 0.025878884355944848 0.03958216886511317 0.10662583008952678 0.039205005769320664 0.0065521492544156987 0.062074627638659452 0.064062862214129532 0.068726192554545124 0.056319749874564118 0.10175843346794899 -0.0065044168821727453 0.023909340641567134 0.086654007181067985 0.10033177415003643 0.050956749205116891 0.034111289046269581 0.0034649163609365334 0.044857855159166224 0.075036067142364729 0.07919443296218473 -0.0063831411283116202 -0.012015117105087932 0.13430435673099356 -0.017538754061623318
leaf_weight=5683.879160348326 570.80036413669586 164.29060245677829 2099.3880216721445 76.612818349152803 165.63833238556981 374.41260821558535 522.97435336001217 92.131177473813295 236.31102573499084 501.96272854506969 382.85876680165529 538.57923536747694 103.52144096791744 168.23738327994943 389.75441623851657 291.26991336047649 1396.4018599819392 570.26404710300267 208.06352741643786 112.07168100401759 201.20214513130486 320.83893424645066 1406.742855284363 248.5253760907799 414.88910936564207 147.46622149273753 948.28067531809211 2723.470643138513 104.6922771371901 10607.349741021171
leaf_count=222000 19334 4829 76085 1788 4636 12425 17244 2580 3194 14409 13666 11983 2526 3928 9000 4383 52767 16989 3865 1945 5205 9196 48749 5880 7508 3199 34431 105421 1296 414261
internal_value=-3.63022e-05 0.054318 -0.0104566 0.0751981 0.0332818 0.00614218 0.0016769 -0.0141269 0.0931098 0.0224569 -0.0143563 0.058468 0.0286353 0.0447997 0.0529083 0.0844613 -0.0151189 0.0150614 0.0690308 0.0759597 0.0383872 0.0232758 -0.00193942 0.0349062 0.07021 0.0627343 -0.0026606 -0.0157512 0.115491 -0.016375
internal_weight=31772.9 5110.63 26662.3 2563.54 2547.09 4827.88 4029.11 21834.4 1235.85 1643.03 21742.2 1327.7 798.773 581.053 904.061 894.844 20411.1 1141.06 746.643 603.574 366.84 695.252 3506.13 412.816 491.502 537.221 1331.14 19014.7 341.003 16291.2
internal_count=1134722 123371 1011351 50599 72772 166225 142078 845126 20114 50732 842546 30485 24147 14637 22040 15624 794449 36323 15848 11241 9841 21621 124834 10709 9296 12199 48097 741682 4490 636261
is_linear=0
shrinkage=0.02


Tree=7
num_leaves=31
num_cat=0
split_feature=11 11 20 16 4 20 20 11 20 10 4 0 10 0 29 29 29 20 24 20 20 29 0 24 28 29 29 16 24 11
split_gain=40710.8 4791.05 4035.75 2341.15 1575.81 790.027 768.253 647.384 572.549 565.206 553.391 428.171 375.738 329.488 306.143 271.732 224.905 209.765 209.482 206.507 205.791 188.227 170.081 154.543 133.776 247.211 128.893 118.928 116.022 115.929
threshold=15.500000000000002 1.5000000000000002 6.5000000000000009 16.500000000000004 2.5000000000000004 1.0000000180025095e-35 1.5000000000000002 42.500000000000007 42.500000000000007 1.0000000180025095e-35 2.5000000000000004 1.0000000180025095e-35 1.0000000180025095e-35 1.0000000180025095e-35 0.022253172392448162 0.16368952684742161 0.13271071140320537 4.5000000000000009 7.5000000000000009 1.5000000000000002 8.5000000000000018 0.07507225433526013 1.0000000180025095e-35 7.5000000000000009 6.5000000000000009 0.13352713178294576 0.052218304083975729 89.500000000000014 7.5000000000000009 40.500000000000007
decision_type=2 2 10 2 8 10 10 2 10 2 8 2 2 2 10 10 8 10 10 10 10 10 2 10 10 8 10 2 10 2
left_child=1 5 3 10 20 11 9 -5 15 18 -2 14 19 16 23 29 -9 26 -6 28 22 -8 -3 -1 -11 -26 -7 -18 -12 -4
right_child=2 4 8 7 6 17 21 13 -10 24 12 -13 -14 -15 -16 -17 27 -19 -20 -21 -22 -23 -24 -25 25 -27 -28 -29 -30 -31
leaf_value=-0.01623945924419162 0.054393723596390407 0.020056448880295751 0.055714634360283004 0.040750447237104831 -0.0074539058891859846 0.00039316611227770772 0.022350704052010624 0.048440197532037862 0.10679310042555232 0.0066579919901730705 0.00051193261369768099 0.025351274921206781 0.032143152010427431 0.085468147592357338 -0.0061124791596413874 0.094706300114928879 0.064704276647356646 0.039478933246929471 0.0034666646691524088 0.036248549459776035 0.079918217031508462 0.054145589452075427 0.048977973365633289 -0.011410055362857295 0.0095626943072896747 0.036029751905306613 0.030293948763762742 0.090868630669415376 0.016839461532561495 0.074381714650228414
leaf_weight=16231.902952879667 258.96099944598973 127.52495838329196 203.95020119287074 525.67039218917489 1821.4059010259807 477.24504787661135 347.0072347484529 350.13789575174451 320.85921107977629 745.6393972299993 336.52375874854624 106.05951704829931 875.7954524718225 311.41654253005981 1516.4006482642144 231.02211509644985 410.35582657158375 75.095899412408471 1142.7000336442143 131.25295851193368 57.036892175674438 95.132991705089808 234.40704389661551 3181.303377231583 385.11459325812757 222.8323621544987 64.596799101680517 93.090407643467188 359.78950570710003 516.28463959693909
leaf_count=643208 5481 3848 4347 12954 66622 16966 10791 7555 3894 25023 11228 2877 23456 4550 57406 3605 8394 2298 39703 3730 1212 2740 5486 123949 12911 6784 2199 1567 11243 8593
internal_value=-7.93891e-05 -0.00978174 0.0527691 0.0420649 0.00749796 -0.0139148 0.00422031 0.0593137 0.08345 0.00164606 0.0271812 -0.0145691 0.0230146 0.0676476 -0.0147726 0.0754725 0.0610537 0.00838175 -0.00324414 0.013327 0.044636 0.0292986 0.038871 -0.0154487 0.0123492 0.019307 0.00400709 0.0697128 0.00896052 0.0691803
internal_weight=31756.5 26831.4 4925.11 3652.99 5178.8 21652.6 4759.83 1690.67 1272.12 4317.69 1962.32 21035.7 1703.36 1165 20929.6 951.257 853.584 616.938 2964.11 827.566 418.969 442.14 361.932 19413.2 1353.59 607.947 541.842 503.446 696.313 720.235
internal_count=1134620 1024023 110597 90158 175120 848903 164574 35020 20439 151043 55138 827440 49657 22066 824563 16545 17516 21463 106325 26201 10546 13531 9334 767157 44718 19695 19165 9961 22471 12940
is_linear=0
shrinkage=0.02


Tree=8
num_leaves=31
num_cat=0
split_feature=11 12 11 20 5 20 10 19 20 6 4 4 29 6 29 29 4 23 19 11 29 23 11 23 20 11 29 19 10 15
split_gain=37719.5 4326.44 3852.58 1345.2 1247.41 1101.87 812.677 773.514 682.112 617.864 429.837 393.255 354.408 343.918 320.808 280.497 192.346 191.774 180.557 174.804 173.806 169.81 166.283 158.449 141.335 129.703 116.323 112.075 110.317 94.6082
threshold=12.500000000000002 4.5000000000000009 1.5000000000000002 3.5000000000000004 1.0000000180025095e-35 14.500000000000002 1.0000000180025095e-35 1.0000000180025095e-35 1.5000000000000002 1.0000000180025095e-35 1.5000000000000002 1.5000000000000002 0.029895433014567884 1.0000000180025095e-35 0.03229818648692024 0.17284798534798537 2.5000000000000004 7.5000000000000009 3.5000000000000004 62.500000000000007 0.10247252747252748 6.5000000000000009 43.500000000000007 4.5000000000000009 71.500000000000014 55.500000000000007 0.11452058232931728 1.5000000000000002 1.0000000180025095e-35 1.0000000180025095e-35
decision_type=2 2 2 10 8 10 2 10 10 8 8 8 10 8 10 10 8 10 10 2 10 10 2 10 10 2 10 10 2 2
left_child=2 3 7 6 8 9 16 11 12 15 -6 -1 28 22 21 19 -2 -12 -9 -3 -5 29 -8 -18 -7 -11 -10 -19 -4 -13
right_child=1 5 4 20 10 24 13 18 26 25 17 14 -14 -15 -16 -17 23 27 -20 -21 -22 -23 -24 -25 -26 -27 -28 -29 -30 -31
leaf_value=0.022972031891663788 0.043186366843225348 0.034024901388579165 -0.0083661234010825713 0.049453287403669909 0.047861676686584032 0.083009088251833174 0.023286234869631568 0.0073612945125826222 0.023519998059820812 0.061347498994021789 0.0087847376746292716 -0.013936650717352488 0.0098556593849133747 0.051132682933168749 -0.0048161795660512791 0.070089846414473286 -0.001814178325529918 0.023770110162687184 0.043977046242457088 0.052191420511780065 0.071780442221931751 -0.011069179683293334 0.039706367820376343 0.014980982031314923 0.1059818448485754 0.079831674021986473 0.061119020539778024 0.056742820277876325 0.0013946424270909108 -0.017157270444059732
leaf_weight=111.3687531016767 70.6624606102705 408.80687477067113 1897.6164249610156 434.63751728460193 244.38014773279428 513.09250216186047 743.4480230845511 364.90930972807109 287.09410117007792 268.21311048045754 454.12313648127019 5615.4160465523601 727.96834350004792 370.13821873255074 1268.2986183464527 202.16256233677268 341.287662031129 393.87710962072015 62.336175296455622 463.19825531542301 218.54006994143128 3315.5111070331186 374.88332288339734 655.54995818063617 158.91328174620867 441.63592745363712 36.86346167139709 45.898633722215891 612.26866157352924 10616.169573480263
leaf_count=2950 1589 9888 69872 9256 5396 6598 21011 12519 8828 4928 14858 225502 24818 7908 48108 3731 11618 12159 1789 8720 4016 130300 8746 20535 1617 6136 1039 1142 21033 427151
internal_value=-4.50709e-05 0.0467219 -0.0102154 0.0314159 0.00617638 0.0667005 0.0248526 -0.0138234 0.00034968 0.0584097 0.0243925 -0.0143674 -0.00242194 0.0343999 -0.0145683 0.0487463 0.0115205 0.01793 0.0127938 0.0437235 0.0570218 -0.0152008 0.0288211 0.00923476 0.088591 0.0729436 0.0279733 0.0273323 -0.00598545 -0.016044
internal_weight=31719.3 5665.17 26054.1 3209.15 4700.09 2456.02 2555.97 21354 3561.81 1784.02 1138.28 20926.8 3237.85 1488.47 20815.4 1074.17 1067.5 893.899 427.245 872.005 653.178 19547.1 1118.33 996.838 672.006 709.849 323.958 439.776 2509.89 16231.6
internal_count=1133761 126297 1007464 84679 159145 41618 71407 848319 125590 33403 33555 834011 115723 37665 831061 22339 33742 28159 14308 18608 13272 782953 29757 32153 8215 11064 9867 13301 90905 652653
is_linear=0
shrinkage=0.02


Tree=9
num_leaves=31
num_cat=0
split_feature=11 11 7 20 7 11 20 16 20 20 0 0 29 16 29 20 29 20 23 20 29 23 4 11 7 29 23 29 29 29
split_gain=35255.1 3701.36 3669.73 1138.12 1125.5 995.647 751.69 665.292 578.692 476.979 392.198 376.192 335.757 306.36 291.112 274.444 272.172 193.089 172.984 154.502 154.167 153.602 147.678 145.893 144.413 131.69 129.509 121.817 101.933 101.822
threshold=12.500000000000002 1.5000000000000002 1.0000000180025095e-35 15.500000000000002 1.0000000180025095e-35 45.500000000000007 1.0000000180025095e-35 20.500000000000004 1.5000000000000002 3.5000000000000004 1.0000000180025095e-35 1.0000000180025095e-35 0.029895433014567884 2.5000000000000004 0.031311274509803928 1.5000000000000002 0.1522063595068138 6.5000000000000009 7.5000000000000009 2.5000000000000004 0.11555786902640695 7.5000000000000009 2.5000000000000004 41.500000000000007 6.5000000000000009 0.060023094688221715 109.50000000000001 0.052218304083975729 0.0606401089547157 0.071508469159475882
decision_type=2 2 8 10 8 2 10 2 10 10 2 2 10 2 10 8 10 10 10 10 10 10 10 2 10 10 8 10 10 10
left_child=1 6 5 7 8 9 10 16 12 13 14 18 -3 28 21 -7 19 27 -6 22 -17 -1 -4 -9 29 -15 -25 -8 -2 -5
right_child=2 4 3 24 11 15 17 23 -10 -11 -12 -13 -14 25 -16 20 -18 -19 -20 -21 -22 -23 -24 26 -26 -27 -28 -29 -30 -31
leaf_value=-0.01599454425401246 0.00096922256153071792 -0.0058414487501145997 0.037815240063391299 0.062418490994732942 0.0081816539847193691 0.020246474017437285 0.0012591752165856368 0.049219956140754174 0.025349127672891669 0.045481928917636479 0.022958058915379661 0.044352933768220269 0.0094919516329743988 0.017069728079534614 -0.0052653639129566256 0.041532959595298256 0.066541969894907502 0.047643047958073066 0.025611711693450157 0.04962240413648572 0.05939063479630502 -0.011036089976273519 0.017195405117355698 0.064371654596931269 0.09418425585642691 0.033162825347413175 0.093905612573625966 0.028797369654389601 0.018640468104108986 0.081413093892054506
leaf_weight=16137.493746088818 539.8580310922116 2500.834967603907 478.44755586609244 205.96753421425819 460.77974371053278 171.73716749064624 506.59256142564118 260.89292931929231 331.90311915427446 235.86153745651245 110.89962639659643 253.99243873730302 739.2780194170773 573.67893332615495 1252.2865860164165 549.65226916596293 145.42336309142411 44.304619461297989 452.05130734480917 279.61611791327596 314.60719113796949 2969.0441318787634 199.35551805049181 819.85215748474002 231.39976913109422 318.65988327749074 68.995103560388088 72.60478400439024 171.27291652932763 335.62079263105989
leaf_count=658970 18407 91079 10533 2713 14959 4422 17838 5044 9854 5439 2876 5372 24976 16431 47815 11620 2672 1228 13328 5371 5987 117932 5296 11840 2256 8365 928 2367 5131 3942
internal_value=-8.46567e-05 -0.0101605 0.0440179 0.0593936 0.00581082 0.0278238 -0.0137487 0.0521599 0.000238215 0.0189742 -0.0144077 0.0228555 -0.00234107 0.0150491 -0.0146123 0.0435022 0.0409875 0.00787383 0.0168319 0.0370406 0.0480946 -0.0152246 0.0317848 0.0628316 0.0803789 0.0228474 0.0667671 0.00475489 0.00524547 0.0743177
internal_weight=31733 25832.1 5900.9 3025.57 4738.84 2875.33 21093.2 2252.58 3572.02 1839.33 20469.7 1166.82 3240.11 1603.47 20358.8 1036 1102.84 623.502 912.831 957.419 864.259 19106.5 677.803 1149.74 772.988 892.339 888.847 579.197 711.131 541.588
internal_count=1134991 1008594 126397 50595 159568 75802 849026 41684 125909 53773 827593 33659 116055 48334 824717 22029 23872 21433 28287 21200 17607 776902 15829 17812 8911 24796 12768 20205 23538 6655
is_linear=0
shrinkage=0.02


Tree=10
num_leaves=31
num_cat=0
split_feature=17 13 13 7 7 4 29 4 12 29 29 4 4 17 7 12 29 28 29 7 15 17 3 29 21 29 29 29 28 25
split_gain=33292.3 3733.76 2952.21 906.1 844.352 797.265 609.614 534.739 441.893 415.788 396.154 323.826 260.725 226.094 187.708 176.923 150.826 146.413 137.336 135.12 132.405 180.29 124.584 138.142 123.03 108.836 108.525 103.75 89.0797 81.1677
threshold=27.500000000000004 1.0000000180025095e-35 20.500000000000004 1.0000000180025095e-35 1.0000000180025095e-35 1.5000000000000002 0.032025641025641031 1.0000000180025095e-35 1.0000000180025095e-35 0.0606401089547157 0.022253172392448162 1.5000000000000002 1.5000000000000002 398.50000000000006 6.5000000000000009 1.0000000180025095e-35 0.021322058556101111 7.5000000000000009 0.084587104072398209 2.5000000000000004 1.0000000180025095e-35 2.5000000000000004 1.5000000000000002 0.055644019815994344 66.500000000000014 0.11133244798583446 0.047706582633053225 0.095266106442577034 2.5000000000000004 3.8750000000000004
decision_type=2 2 2 8 8 8 10 10 2 10 10 8 10 2 10 2 10 10 10 10 2 2 2 10 8 10 8 10 10 10
left_child=1 7 4 6 9 14 29 10 27 15 20 18 19 22 -4 -2 -14 -13 -5 -6 21 -1 -10 -24 -25 -8 -19 -7 -22 -3
right_child=2 3 5 11 12 8 25 -9 13 -11 -12 17 16 -15 -16 -17 -18 26 -20 -21 28 -23 23 24 -26 -27 -28 -29 -30 -31
leaf_value=-0.013299464753491846 0.0069770043632659644 -0.0069007866594094497 0.065984220048135117 0.031018279363517847 0.045528832636614704 0.017593530386917244 0.010586133208540925 0.031385425424651336 0.063717736951230508 0.033663838733931473 -0.0044252836729930895 0.008147652640478828 0.019174105938571367 0.070373766015613792 0.08620281157870166 0.021749607966923462 0.041390737894868926 0.0036151502358738601 0.064569702930846962 0.068669859296245486 -0.016747004958955578 0.00067436964617842118 0.038747078970279673 0.082687074118190845 0.050440156506801725 0.026235696770189235 0.028722522160784955 0.045182995939993378 -0.012095724515149446 0.00015584589670537342
leaf_weight=6546.1630084849894 667.8319195099175 1646.5617532283068 657.26448885723948 233.45298726484179 591.07978779450059 192.4916490893811 606.66201374307275 103.87909441813827 231.14520933479071 661.23201863840222 1624.3151986375451 595.86928422749043 239.18347424827516 268.01286911219358 278.85812514647841 631.98268134705722 255.93537909537554 87.03756444901228 62.715656876564026 127.43217793852091 10102.142943354324 391.29655531607568 473.01459185034037 53.258964285254478 640.2443556599319 252.14465416967869 334.58667331002653 76.581433622166514 1983.6671925764531 1078.9300213661045
leaf_count=269205 21312 61481 7777 5121 11081 5097 20138 2600 3899 16316 61716 19338 5753 3404 2616 16691 5367 2719 1245 1871 416955 14224 8807 808 10745 7855 9890 1671 80431 38154
internal_value=-2.21034e-05 -0.00997386 0.0421948 0.00573177 0.0288893 0.0568932 0.000522425 -0.0136809 0.0495056 0.0207573 -0.0139092 0.0199342 0.0420014 0.0533522 0.0720926 0.0141708 0.0307185 0.0145511 0.0383164 0.0497228 -0.0147187 -0.0125113 0.0500402 0.0472778 0.0530321 0.015206 0.0235603 0.025584 -0.0159846 -0.00410827
internal_weight=31695 25649.4 6045.55 4897.96 3174.68 2870.87 3584.3 20751.5 1934.75 1961.05 20647.6 1313.66 1213.63 1665.68 936.123 1299.81 495.119 1017.49 296.169 718.512 19023.3 6937.46 1397.66 1166.52 693.503 858.807 421.624 269.073 12085.8 2725.49
internal_count=1134287 1011072 123215 165941 78391 44824 127628 845131 34431 54319 842531 38313 24072 27663 10393 38003 11120 31947 6366 12952 780815 283429 24259 20360 11553 27993 12609 6768 497386 99635
is_linear=0
shrinkage=0.02


Tree=11
num_leaves=31
num_cat=0
split_feature=17 13 17 19 20 19 20 19 10 29 29 10 10 3 29 20 29 19 3 29 23 12 23 29 3 15 23 29 12 20
split_gain=31312.2 3230.98 2955.28 1049.44 888.566 806.614 515.899 505.317 482.235 460.181 336.392 296.822 261.951 243.515 238.893 192.117 172.499 159.772 151.41 136.613 128.097 123.005 118.945 114.578 132.024 106.138 113.614 105.591 100.607 83.6519
threshold=24.500000000000004 1.0000000180025095e-35 78.500000000000014 1.0000000180025095e-35 15.500000000000002 1.5000000000000002 2.5000000000000004 3.5000000000000004 1.0000000180025095e-35 0.022253172392448162 0.037807318467695833 1.0000000180025095e-35 31.500000000000004 1.5000000000000002 0.05721726190476191 1.0000000180025095e-35 0.072328788839568822 1.0000000180025095e-35 1.0000000180025095e-35 0.028653530377668313 7.5000000000000009 1.5000000000000002 68.500000000000014 0.13545026881720432 1.0000000180025095e-35 1.0000000180025095e-35 2.5000000000000004 0.22050724637681163 1.0000000180025095e-35 1.0000000180025095e-35
decision_type=2 2 2 8 10 10 8 10 2 10 10 2 2 2 10 10 10 10 2 10 10 2 8 10 2 2 8 10 2 10
left_child=1 9 3 19 6 8 -4 13 10 11 18 15 21 28 -15 20 -7 -11 -3 -2 25 -8 -14 24 -10 26 -1 -6 -5 -12
right_child=2 5 4 7 27 16 12 -9 23 17 29 -13 22 14 -16 -17 -18 -19 -20 -21 -22 -23 -24 -25 -26 -27 -28 -29 -30 -31
leaf_value=-0.010992196217267663 -0.00057169782915375252 0.009289375196987559 0.026224738527223374 0.024728967299517561 0.065082978570922004 0.025776019825576438 0.03365436848198472 0.052342940750972525 0.024023656845545971 -0.0049476034309700809 0.0091532056702625982 0.0024167945204851453 0.055739562059681405 0.015723818247367145 0.033646207539021263 -0.00041022253310692277 0.058613944185584216 0.023570715075301209 -0.0063799766817543889 0.016825787011603765 -0.011151723483683252 0.048093496767768133 0.077474583877330222 0.038132547732880655 0.0078123790328717734 -0.017135143598082925 -0.016826117300235841 0.083133360304606926 0.042009630431490218 0.030621182601557214
leaf_weight=2948.6016410849988 546.85220139846206 275.67089722678065 459.54285479336977 194.75193453021348 701.45379523932934 276.53958158381283 309.722730839625 388.78265032172203 269.12409093603492 1562.3360525872558 464.65170180425048 403.24703624285758 471.17445712164044 824.2751341406256 467.94371444731951 357.81109527312219 83.92857226356864 81.755997961387038 2281.2436660937965 268.48063310049474 2663.4134577140212 1174.1391757130623 139.92819910123944 70.611960845068097 791.97593362256885 9998.1344940550625 2457.0583263020962 180.40252746641636 482.77225493825972 85.492168817669153
leaf_count=122920 17431 9271 10225 5245 7576 7330 6473 7009 7609 59719 15397 14687 6364 22440 10927 12972 1929 2660 84705 7414 108192 18802 1774 1958 25343 421065 102578 1658 10393 2591
internal_value=-5.33424e-05 -0.0102629 0.0386659 0.0247387 0.0515182 0.00488391 0.0455051 0.0314982 0.0024377 -0.0136659 -0.00163442 -0.0145519 0.0497198 0.0273595 0.0222349 -0.0149234 0.0335627 -0.003516 -0.00468763 0.00517071 -0.0152108 0.0451043 0.0608348 0.0136091 0.0119428 -0.0159119 -0.0136465 0.0688656 0.0370861 0.0125388
internal_weight=31681.8 25071.6 6610.22 3173.86 3436.36 4599.24 2554.51 2358.53 4238.77 20472.4 3107.06 18828.3 2094.96 1969.74 1292.22 18425 360.468 1644.09 2556.91 815.333 18067.2 1483.86 611.103 1131.71 1061.1 15403.8 5405.66 881.856 677.524 550.144
internal_count=1134657 1000926 133731 80859 52872 156133 43638 56014 146874 844793 111964 782414 33413 49005 33367 767727 9259 62379 93976 24845 754755 25275 8138 34910 32952 646563 225498 9234 15638 17988
is_linear=0
shrinkage=0.02


Tree=12
num_leaves=31
num_cat=1
split_feature=17 7 10 20 20 19 4 16 28 17 19 7 20 20 6 17 17 5 20 19 3 15 3 3 4 19 4 19 6 27
split_gain=29451.3 2700.15 2499.93 1410.87 886.345 799.921 582.499 490.186 488.596 471.03 292.283 256.853 206.868 205.965 205.865 184.305 162.498 155.514 130.754 127.62 147.904 112.259 109.564 106.907 103.484 102.943 94.864 84.2729 77.7444 74.798
threshold=24.500000000000004 1.0000000180025095e-35 1.0000000180025095e-35 1.0000000180025095e-35 1.5000000000000002 3.5000000000000004 2.5000000000000004 30.500000000000004 6.5000000000000009 66.500000000000014 3.5000000000000004 1.0000000180025095e-35 4.5000000000000009 42.500000000000007 1.0000000180025095e-35 5.5000000000000009 11.500000000000002 0.77500000000000013 1.5000000000000002 2.5000000000000004 1.5000000000000002 1.0000000180025095e-35 1.0000000180025095e-35 1.5000000000000002 1.5000000000000002 1.0000000180025095e-35 1.5000000000000002 1.0000000180025095e-35 2.5000000000000004 0
decision_type=2 8 2 10 8 10 8 2 10 2 10 8 10 10 8 2 2 10 10 10 2 2 2 2 8 8 8 10 10 9
left_child=2 4 3 6 27 7 -1 14 16 12 24 18 23 -7 25 29 21 -9 -4 20 -11 -8 -17 -6 -5 -3 -13 -2 -16 -10
right_child=1 5 11 10 9 13 8 17 15 19 -12 26 -14 -15 28 22 -18 -19 -20 -21 -22 -23 -24 -25 -26 -27 -28 -29 -30 -31
leaf_value=0.02064797938231747 0.0039552712504208817 0.01590238850052374 0.0042071029102274454 0.036551684496516412 0.02838249052652703 0.055669081977888293 -0.012932423897490074 0.048694717034682693 -0.00041721380240767551 0.048765742163849816 0.039881787810998041 0.035583040302910582 0.040724992284793489 0.073128980987447453 0.039437178309987518 0.021135385740567884 -0.0062581038041408035 0.069852146194780293 0.02533396614371131 0.049265616011607553 0.029647075102665978 -0.01642916700590533 -0.0018630509622703439 0.01331648677344245 0.005576126556592698 0.03206612532121781 0.017963162768271975 0.020381649136543622 0.063178323427663413 -0.01048961358280027
leaf_weight=203.28678014315665 753.2445324305445 252.1389969792217 1006.7010653037578 44.549280930310488 255.48814263939857 937.62816598266363 5571.9064798224717 657.12638081237674 337.36117682233453 221.16749053820968 124.02614879608154 162.30408595129848 177.41640966013074 403.00378106161952 642.57449186220765 90.354096736758947 847.14628499746323 185.52465264499187 131.72393938712776 339.35097812116146 642.11962877772748 10933.245308909565 889.88479996658862 727.58766670897603 834.79219818674028 435.52117401175201 511.06044348329306 148.96775061637163 63.041435439139605 3136.2117328494787
leaf_count=5294 22809 6294 34677 1010 6900 11433 233926 8896 13510 4060 3099 3265 3844 3408 11601 2847 31507 1949 3694 5417 13101 464227 32419 20634 28683 8704 15178 4000 866 127457
internal_value=-1.53672e-05 0.0367212 -0.0101414 -0.0119223 0.0235604 0.0487269 -0.0129797 0.0413631 -0.0132941 0.0299968 0.0112625 0.012473 0.0208766 0.0609683 0.0340319 -0.00738243 -0.014811 0.0534302 0.00667172 0.0387728 0.0345959 -0.0152496 0.000276223 0.0172568 0.00718515 0.0261712 0.0222566 0.00668706 0.0416447 -0.00954315
internal_weight=31666.5 6841.9 24824.6 23012.8 3265.34 3576.56 22009.4 2235.93 21806.1 2363.13 1003.37 1811.79 1160.49 1340.63 1393.28 4453.81 17352.3 842.651 1138.43 1202.64 863.287 16505.2 980.239 983.076 879.341 687.66 673.365 902.212 705.616 3473.57
internal_count=1134709 133916 1000793 943979 80765 53151 911187 38310 905893 53956 32792 56814 31378 14841 27465 176233 729660 10845 38371 22578 17161 698153 35266 27534 29693 14998 18443 26809 12467 140967
cat_boundaries=0 1
cat_threshold=2
is_linear=0
shrinkage=0.02


Tree=13
num_leaves=31
num_cat=0
split_feature=17 13 7 20 20 6 29 5 11 13 23 20 5 29 29 20 6 20 29 23 16 17 20 6 15 23 10 29 20 29
split_gain=27326.1 2933.45 2446.46 829.525 726.651 681.392 582.169 562.638 434.004 433.141 397.301 249.342 209.429 208.364 206.45 176.792 168.293 167.664 165.351 160.809 150.937 138.099 117.975 117.119 117.091 91.8664 83.9425 83.6714 80.6693 78.5752
threshold=23.500000000000004 1.0000000180025095e-35 1.0000000180025095e-35 1.5000000000000002 17.500000000000004 1.0000000180025095e-35 0.036803405572755424 1.0000000180025095e-35 1.0000000180025095e-35 18.500000000000004 6.5000000000000009 1.5000000000000002 0.55000000000000016 0.020887870855148347 0.022253172392448162 4.5000000000000009 1.0000000180025095e-35 1.0000000180025095e-35 0.05887036343199701 7.5000000000000009 2.5000000000000004 69.500000000000014 4.5000000000000009 2.5000000000000004 1.0000000180025095e-35 5.5000000000000009 1.0000000180025095e-35 0.093353413654618481 1.0000000180025095e-35 0.11555786902640695
decision_type=2 2 8 8 10 8 10 10 2 2 8 10 10 10 10 10 8 10 10 10 2 2 8 10 2 10 2 10 10 10
left_child=1 7 3 18 10 6 11 8 14 15 16 26 21 -7 24 20 -4 -8 -2 -10 -5 -12 -23 -6 -1 -26 -3 -11 -16 -22
right_child=2 5 4 9 23 13 17 -9 19 27 12 -13 -14 -15 28 -17 -18 -19 -20 -21 29 22 -24 -25 25 -27 -28 -29 -30 -31
leaf_value=-0.01314638037570476 0.00099807164033219862 -0.0073690306722106374 0.016696141856789592 0.0084293538723526802 0.056997650873892462 0.016817104458154864 0.010176657887959958 0.03226237967961678 -0.0091521059675054271 0.033342685586768943 0.033923825700808721 0.01405777252584994 0.057551197595998388 0.046288509882359212 -0.007992687451268566 0.036982431891212912 0.036840073472806954 0.030839844254380237 0.01984939059832776 0.0022117473113767044 0.020094565035144677 0.032375004020432099 0.048940656130620229 0.075084441981269609 -0.017637161029049903 -0.012984632082078186 0.0017501403143551093 0.045817761182124078 0.015274184342718877 0.034478880953244175
leaf_weight=6076.3169149998575 694.0130540560931 2053.0386304426938 334.05564847029746 399.04949363693595 709.69462564215064 717.21350639685988 625.60713869519532 106.20197128131986 1536.8821553252637 489.24638869799674 639.35583469457924 286.87802819907665 407.94236287474632 110.41912951692939 1150.5492579378188 253.94797098636627 334.61103902757168 209.60892743803561 253.37587347440422 736.22594816423953 723.23535634204745 222.58883389830589 911.19175578281283 196.52829327061772 8107.2046204805374 2166.7094295658171 502.13509121909738 414.42396528273821 61.954777887091041 195.39564934000373
leaf_count=259551 21780 78672 7450 12150 6964 20237 20478 2545 61346 9120 12457 8370 4680 2083 45528 5086 5299 5660 6416 27268 18255 3712 11987 1475 353498 92050 16995 6677 2089 4304
internal_value=-8.50763e-05 -0.0101594 0.0342197 0.0219787 0.0453658 0.00441617 0.000724015 -0.0134521 -0.0136985 0.0280683 0.0403749 -0.00359079 0.0445174 0.0208002 -0.0147628 0.0216996 0.0268164 0.015393 0.0060554 -0.00547217 0.0187285 0.0414879 0.0457198 0.0609985 -0.0153534 -0.0166573 -0.00557697 0.0391081 -0.00679222 0.0231883
internal_weight=31625.6 24446.9 7178.66 3422.69 3755.97 4504.9 3677.27 19942 19835.8 2475.3 2849.75 2842.05 2181.08 827.633 17562.7 1571.63 668.667 835.216 947.389 2273.11 1317.68 1773.14 1133.78 906.223 16350.2 10273.9 2555.17 903.67 1212.5 918.631
internal_count=1134182 996370 137812 83788 54024 152495 130175 843875 841330 55592 45585 104037 32836 22320 752716 39795 12749 26138 28196 88614 34709 28156 15699 8439 705099 445548 95667 15797 47617 22559
is_linear=0
shrinkage=0.02


Tree=14
num_leaves=31
num_cat=0
split_feature=17 13 5 20 19 19 5 4 16 13 29 23 20 23 19 20 29 20 29 10 16 15 4 17 23 10 23 29 17 29
split_gain=25707.1 2907.75 2248.71 752.432 635.776 630.568 515.87 503.577 419.564 400.681 367.963 360.84 194.599 191.525 167.788 164.923 159.923 151.729 145.844 140.507 139.387 122.931 121.383 121.352 102.829 101.93 92.1393 87.0033 84.0412 82.6345
threshold=23.500000000000004 1.0000000180025095e-35 1.0000000180025095e-35 1.5000000000000002 3.5000000000000004 1.0000000180025095e-35 0.36666666666666675 1.0000000180025095e-35 30.500000000000004 18.500000000000004 0.042977768982122841 6.5000000000000009 1.0000000180025095e-35 7.5000000000000009 2.5000000000000004 42.500000000000007 0.052218304083975729 4.5000000000000009 0.05887036343199701 1.0000000180025095e-35 1.5000000000000002 1.0000000180025095e-35 1.5000000000000002 688.50000000000011 2.5000000000000004 1.0000000180025095e-35 6.5000000000000009 0.073797997579491709 7.5000000000000009 0.20597147950089129
decision_type=2 2 8 8 10 10 8 10 2 2 10 10 10 10 10 10 10 10 10 2 2 2 10 2 8 2 10 10 2 10
left_child=1 7 3 18 8 6 10 11 13 14 25 12 21 22 20 -6 19 27 -2 -13 -5 24 -4 -10 -1 -3 -11 -7 -8 -15
right_child=2 5 4 9 15 17 28 -9 23 26 -12 16 -14 29 -16 -17 -18 -19 -20 -21 -22 -23 -24 -25 -26 -27 -28 -29 -30 -31
leaf_value=-0.010435301701287845 0.00092986810308906878 -0.0073608157102579728 0.031371746135766612 0.0065175192868368696 0.048886245132737989 0.01182375418557048 0.0075486723365359668 0.029061383839864344 0.045677250305296735 0.018764739299824765 0.011708332731102555 -0.010542956970524257 0.0015910059986527687 0.033245606072775782 0.03464735811438719 0.063817632094076496 0.0032614009079841417 0.037402212448098611 0.018507999362944345 0.0077925170078473639 0.021324904568199909 -0.016604923387083196 0.010775854724221655 0.08018901197054934 -0.01590426737968436 0.0027793401189976225 0.039152569598632704 0.035493312162697743 0.021753245111500306 0.054312669938444698
leaf_weight=3082.2623728048056 694.32900169305503 2068.0187990069389 198.8870844040066 344.94778904877603 1028.1754410900176 341.00244496762753 262.53623423539102 110.20023335888982 866.9746961966157 102.30673682317138 623.21545772813261 3180.621085640043 278.61223402991891 963.7119735237211 275.84906987659633 439.92450575903058 438.04712245240808 200.94696026295424 258.37060035392642 175.7518722563982 978.86830523423851 9928.9100940506905 271.78585192002356 43.843291640281677 2499.558143755421 489.973339445889 835.29003360494971 75.602568473666906 462.24426420778036 82.947797954082489
leaf_count=132312 21768 79248 3531 10552 11549 10150 8472 2564 10415 2165 19772 132476 10158 17110 5312 3383 16542 4496 6427 6160 23840 436075 6489 407 107806 16387 13672 1874 12125 1204
internal_value=-0.000115647 -0.0100775 0.0325437 0.0208741 0.0429883 0.00438183 0.00141026 -0.0133987 0.0366732 0.026563 -0.00206038 -0.0136391 -0.0149702 0.0301924 0.0204555 0.0534009 -0.00809777 0.0231442 0.00571144 -0.00958081 0.0174744 -0.0152678 0.0195269 0.0474246 -0.0128867 -0.00541818 0.0369503 0.0161938 0.0166254 0.0349654
internal_weight=31603.7 24217.5 7386.21 3489.96 3896.25 4523.54 3905.99 19694 2428.15 2537.26 3181.21 19583.8 15789.3 1517.33 1599.67 1468.1 3794.42 617.552 952.7 3356.37 1323.82 15510.7 470.673 910.818 5581.82 2557.99 937.597 416.605 724.78 1046.66
internal_count=1134441 996617 137824 83736 54088 152524 136004 844093 39156 55541 115407 841529 686351 28334 39704 14932 155178 16520 28195 138636 34392 676193 10020 10822 240118 95635 15837 12024 20597 18314
is_linear=0
shrinkage=0.02


Tree=15
num_leaves=31
num_cat=0
split_feature=13 17 13 19 5 5 5 6 29 23 19 29 29 29 19 19 6 3 10 19 29 29 19 15 23 10 29 24 17 29
split_gain=24095.8 2459.19 2236.86 911.507 660.773 525.974 437.35 415.552 386.333 373.138 290.811 241.019 220.717 185.739 181.503 181.009 180.626 175.456 159.122 141.91 137.476 129.552 129.298 117.771 111.739 99.613 98.1025 96.7427 94.9196 79.7207
threshold=3.5000000000000004 78.500000000000014 1.0000000180025095e-35 1.0000000180025095e-35 0.29166666666666669 1.0000000180025095e-35 1.0000000180025095e-35 1.0000000180025095e-35 0.030351515151515154 7.5000000000000009 2.5000000000000004 0.0606401089547157 0.045477025447351861 0.055644019815994344 1.0000000180025095e-35 1.5000000000000002 2.5000000000000004 1.5000000000000002 1.0000000180025095e-35 1.0000000180025095e-35 0.13271071140320537 0.05721726190476191 2.5000000000000004 1.0000000180025095e-35 2.5000000000000004 1.0000000180025095e-35 0.016685226429101713 7.5000000000000009 243.50000000000003 0.014997656982193066
decision_type=2 2 2 8 8 10 8 8 10 10 10 10 10 10 10 10 10 2 2 10 10 10 10 2 8 2 10 10 2 10
left_child=2 3 5 12 10 9 11 8 15 14 17 22 -2 -8 23 25 20 -3 21 -10 -6 -11 27 24 -1 -4 -9 -5 -19 -25
right_child=1 4 7 6 16 -7 13 26 19 18 -12 -13 -14 -15 -16 -17 -18 28 -20 -21 -22 -23 -24 29 -26 -27 -28 -29 -30 -31
leaf_value=-0.010089486333493278 -0.0023471137720508877 0.043828495408782565 -0.0072107635944319935 0.0011468832868883963 0.041969297124211796 0.029349977276348804 0.027672288975485033 0.014667018076047474 0.0083763618009898063 -0.010037328847307151 0.042201273365085806 0.027855154643005493 0.018376524725017673 0.043496367811960028 0.0047355833328071731 0.017950345072877932 0.06259104644294515 0.020588424538839946 0.0085498490179779837 0.030234225446977618 0.054825972540445696 0.0028688503301978756 0.028402831551872013 -0.016715798436819664 -0.015754391895711279 0.0029423090803367673 0.038422639482428828 0.014326133410544608 0.036198391756886383 -0.0088027633888662724
leaf_weight=3071.4759392943233 802.12530038319528 204.47818597406149 1793.4794320147485 392.96623260714114 1011.7193009480834 114.65199776366353 1055.3076538294554 614.04748376272619 663.69080198556185 2953.2189482785761 831.10202095657587 549.22663068026304 275.33061961457133 419.64654294587672 188.42185395397246 144.9497289750725 348.14203518629074 850.77827309817076 228.54449021071196 144.14064629375935 523.84991445019841 347.28907052055001 154.1935769803822 9501.2976490370929 2563.3952288478613 492.04048315808177 78.080772958695889 514.03092162124813 193.10575428977609 541.83871010690928
leaf_count=133064 26263 3274 69039 12762 11630 2587 20721 16773 20938 123705 9989 12646 7261 6640 6615 3840 2679 16956 7735 3627 5040 13169 3226 425265 112041 15960 1416 14688 2929 21999
internal_value=-0.000132066 0.0295436 -0.0104204 0.0188012 0.0408197 -0.0131933 0.0243301 0.00334389 0.000335524 -0.0134463 0.0330141 0.0171059 0.00296069 0.0322009 -0.0147548 -0.00364761 0.0494143 0.0268688 -0.00756099 0.012309 0.0463881 -0.00867885 0.0115216 -0.0149893 -0.0126689 -0.00502462 0.0173985 0.00862363 0.023508 -0.0162898
internal_weight=31566.6 8126 23440.6 4162.83 3963.18 19510.1 3085.37 3930.43 3238.3 19395.5 2079.46 1610.42 1077.46 1474.95 15866.4 2430.47 1883.71 1248.36 3529.05 807.831 1535.57 3300.51 1061.19 15678 5634.87 2285.52 692.128 906.997 1043.88 10043.1
internal_count=1134477 156704 977773 104207 52497 846180 70683 131593 113404 843593 33148 43322 33524 27361 698984 88839 19349 23159 144609 24565 16670 136874 30676 692369 245105 84999 18189 27450 19885 447264
is_linear=0
shrinkage=0.02


Tree=16
num_leaves=31
num_cat=1
split_feature=11 13 13 10 20 6 19 4 11 19 29 5 29 6 29 13 20 6 20 15 20 27 23 23 29 3 29 19 29 6
split_gain=22964.8 2610.46 1977.62 700.288 680.987 500.79 430.646 427.249 378.882 354.829 294.35 280.121 267.344 259.367 154.677 143.832 137.081 135.935 126.9 110.144 106.582 104.813 103.574 96.1218 90.9039 89.5114 82.9309 70.629 69.5101 68.6646
threshold=9.5000000000000018 1.0000000180025095e-35 22.500000000000004 1.0000000180025095e-35 1.5000000000000002 1.0000000180025095e-35 2.5000000000000004 1.0000000180025095e-35 1.5000000000000002 1.0000000180025095e-35 0.032025641025641031 1.0000000180025095e-35 0.022253172392448162 1.5000000000000002 0.083602150537634423 69.500000000000014 8.5000000000000018 1.0000000180025095e-35 1.0000000180025095e-35 1.0000000180025095e-35 1.0000000180025095e-35 0 5.5000000000000009 5.5000000000000009 0.12003584229390682 1.5000000000000002 0.073797997579491709 1.5000000000000002 0.18205492424242428 2.5000000000000004
decision_type=2 2 2 2 10 8 8 10 2 10 10 8 10 10 10 2 10 8 10 2 10 9 10 10 10 2 10 10 10 10
left_child=1 7 3 9 5 10 -4 8 12 17 -3 14 18 15 -5 28 26 22 19 -1 -14 29 -2 -21 -13 -10 -6 -27 -8 -7
right_child=2 4 6 11 16 21 13 -9 25 -11 -12 24 20 -15 -16 -17 -18 -19 -20 23 -22 -23 -24 -25 -26 27 -28 -29 -30 -31
leaf_value=-0.012991075005053952 -0.005084867276364217 -0.0060068131781929462 0.025475403891306207 0.016498816409003345 0.014339420713906582 0.018508922879012072 0.035045356510996342 0.025246272934962538 0.0062214103813125702 0.027425472288670982 0.0087290904187244407 0.030370757066679712 -0.0069640681733161057 0.055395715864254527 0.029591116513777101 0.048676820634612074 0.04189822177770023 0.024244807882229744 -0.0020790814428745179 -0.017435621933615301 0.017184603524098278 -0.00093201718899714372 0.0074447042971976067 -0.012716027081302024 0.044032176924773146 -0.0071986678575863662 0.035789947044623321 0.022563699681713026 0.046493561177924851 0.053704075119867183
leaf_weight=5992.2298819608986 441.60040748119354 2407.4694465640932 608.28306235559285 1155.8992194831371 367.79712512716651 540.15704790502787 1196.8282877169549 113.62538363784552 339.91326785460114 352.49969817884266 698.80079457350075 1181.8162840623409 1241.2705331202596 638.51292525976896 528.90394795313478 646.00154366716743 130.5255870539695 126.08771567419171 302.95631053484976 8016.2606360167265 76.737381031736732 127.25156397558749 652.83165876194835 2218.4081827029586 240.50601486861706 779.75411758385599 89.776223704218864 32.296239471063018 272.55443954467773 22.471424248069525
leaf_count=265607 15180 91091 10865 28191 9795 14570 15761 2515 12292 7522 22207 19260 50252 4971 10832 6131 2579 2766 11292 367318 2558 3572 19757 97983 3169 30318 1951 987 3152 392
internal_value=-9.42882e-05 -0.0100785 0.0290747 0.0206612 0.00383951 0.000734575 0.0407765 -0.013271 -0.0135027 0.00977951 -0.00269001 0.0261653 -0.0142202 0.0441458 0.0206239 0.0407255 0.0238464 0.00466487 -0.0149114 -0.0151509 -0.00554612 0.0161358 0.00238903 -0.016414 0.0327101 -0.00238355 0.0186169 -0.00598869 0.037199 0.0196586
internal_weight=31540 23497.7 8042.33 4680.14 4384.25 3796.15 3362.18 19113.5 18999.8 1573.02 3106.27 3107.13 17847.9 2753.9 1684.8 2115.38 588.099 1220.52 16529.9 16226.9 1318.01 689.88 1094.43 10234.7 1422.32 1151.96 457.573 812.05 1469.38 562.628
internal_count=1134836 987279 147557 106677 146157 131832 40880 841122 838607 45225 113298 61452 795010 30015 39023 25044 14325 37703 742200 730908 52810 18534 34937 465301 22429 43597 11746 31305 18913 14962
cat_boundaries=0 1
cat_threshold=7
is_linear=0
shrinkage=0.02


Tree=17
num_leaves=31
num_cat=0
split_feature=13 11 11 20 7 19 10 5 20 29 20 19 29 28 29 29 5 29 11 15 19 20 20 29 7 16 28 28 5 29
split_gain=21941.8 2585.1 1718.73 933.065 537.397 526.404 395.75 342.989 327.893 312.046 294.535 249.106 214.661 155.403 153.626 150.498 135.34 129.556 127.485 110.403 109.811 103.866 103.174 93.1528 92.5307 90.8941 83.5884 81.3982 78.3286 78.1067
threshold=2.5000000000000004 40.500000000000007 1.0000000180025095e-35 1.0000000180025095e-35 2.5000000000000004 2.5000000000000004 1.0000000180025095e-35 0.55000000000000016 1.0000000180025095e-35 0.037807318467695833 1.5000000000000002 1.0000000180025095e-35 0.05411036036036037 6.5000000000000009 0.16696969696969699 0.048435972629521019 1.0000000180025095e-35 0.066790582403965307 11.500000000000002 1.0000000180025095e-35 4.5000000000000009 6.5000000000000009 40.500000000000007 0.05887036343199701 1.5000000000000002 16.500000000000004 6.5000000000000009 3.5000000000000004 0.77500000000000013 0.11452058232931728
decision_type=2 2 2 8 8 10 2 8 10 10 10 8 10 10 10 10 10 8 2 2 10 10 10 10 10 2 10 10 10 8
left_child=2 3 8 15 11 7 10 9 12 18 13 -3 16 -4 21 -2 19 -15 -5 -1 -10 25 28 -7 26 -13 -8 -21 -6 -28
right_child=1 4 6 5 22 23 24 -9 20 -11 -12 14 -14 17 -16 -17 -18 -19 -20 27 -22 -23 -24 -25 -26 -27 29 -29 -30 -31
leaf_value=-0.012806462715043005 -0.0043154626082361784 0.014676699912230379 -0.0085172743504862911 0.0016822288595931135 0.04112576397423489 0.028976578055830902 0.0035584175924507199 0.028827935240979038 0.00057571997544436757 0.022146439678311484 0.019886506462763357 0.019927786773775866 -0.0033682405674497957 -0.0042630319021166561 0.043020360770567957 0.013667395298133525 0.0076398783713613394 0.010827927318837591 0.013203279359835498 -0.016993517567023296 0.042572347073799845 0.038074351977208806 0.05572067853276149 0.043018134451655636 0.044326942139459355 0.031498244983804997 0.0076438562554289663 -0.012003868312628873 0.055717260543581733 0.022431671778039838
leaf_weight=6116.3748411536217 857.71076418831944 311.32810740731657 2133.067796876654 739.36304156854749 1025.2235587798059 461.1686542108655 754.70315551944077 734.79814318940043 418.98970331437886 973.07281720638275 193.6098398771137 418.49347082711756 687.38254551403224 645.39415955543518 556.82166700065136 236.67959792725742 106.394905352965 350.19440057128668 799.47034057043493 8505.6912300121039 25.480420863255858 562.77994910627604 371.97038384526968 336.84018478915095 27.68445522710681 816.75203830376267 358.6346415951848 1559.1344129890203 182.94842609390616 238.36042135953903
leaf_count=272980 29385 6601 86020 24291 10750 7863 24726 14382 14786 22598 5422 7856 27183 24405 6630 6376 2864 11619 20185 393844 642 6339 2389 4818 522 11523 11186 68632 1429 6421
internal_value=-0.000110178 0.025512 -0.0109817 0.0159659 0.0370587 0.0203977 -0.000251001 0.0168113 -0.0138778 0.013286 -0.00398982 0.0315557 -0.0143218 -0.00547323 0.03378 -0.000417452 -0.0147838 0.00105069 0.00767245 -0.0149317 0.00307345 0.0308961 0.0463181 0.03495 0.00875036 0.0275975 0.00798948 -0.0162218 0.0433795 0.0135758
internal_weight=31506.5 9385.42 22121.1 5139.1 4246.32 4044.71 4701.65 3246.7 17419.4 2511.91 3322.27 2666.18 16975 3128.66 2354.85 1094.39 16287.6 995.589 1538.83 16181.2 444.47 1798.03 1580.14 798.009 1379.38 1235.25 1351.7 10064.8 1208.17 596.995
internal_count=1134667 183415 951252 129898 53517 94137 170321 81456 780931 67074 127466 38949 765503 122044 32348 35761 738320 36024 44476 735456 15428 25718 14568 12681 42855 19379 42333 462476 12179 17607
is_linear=0
shrinkage=0.02


Tree=18
num_leaves=31
num_cat=0
split_feature=13 12 11 13 20 20 20 6 29 6 20 23 13 0 23 29 29 23 29 5 20 3 23 20 0 5 17 29 3 6
split_gain=20763.8 2304.27 1701.35 938.025 460.018 426.679 308.578 295.131 272.924 257.26 254.939 250.241 194.448 179.113 159.747 154.919 137.819 136.384 110.281 108.834 103.634 101.104 97.645 96.6663 91.9691 89.3827 88.8988 87.4736 87.1803 81.7908
threshold=2.5000000000000004 1.0000000180025095e-35 1.5000000000000002 22.500000000000004 1.0000000180025095e-35 1.0000000180025095e-35 1.5000000000000002 1.0000000180025095e-35 0.031311274509803928 1.5000000000000002 1.5000000000000002 7.5000000000000009 9.5000000000000018 1.0000000180025095e-35 66.500000000000014 0.020887870855148347 0.042383448159262864 6.5000000000000009 0.025723738626964438 0.22500000000000003 3.5000000000000004 1.5000000000000002 2.5000000000000004 6.5000000000000009 1.0000000180025095e-35 0.18333333333333338 1.0000000180025095e-35 0.11348484848484849 1.5000000000000002 1.0000000180025095e-35
decision_type=2 2 2 2 10 10 8 8 10 8 10 8 2 2 8 10 10 10 10 8 10 2 8 10 2 10 2 10 2 8
left_child=2 4 5 6 11 8 18 10 13 14 15 24 20 17 23 -4 -6 22 -3 27 21 -8 26 28 -2 -9 -1 -13 -5 -14
right_child=1 3 7 9 16 -7 12 25 -10 -11 -12 19 29 -15 -16 -17 -18 -19 -20 -21 -22 -23 -24 -25 -26 -27 -28 -29 -30 -31
leaf_value=-0.010524768787474794 -0.0036051638451078333 0.00059893230700886813 -0.0054034628617784875 0.042974178505035557 0.014576943071303746 0.0040364148254121695 0.024519535917444192 0.011298041767997615 -0.0044239442503340165 0.047834831336244305 0.019301720717756449 0.0045449138605203748 0.027351577054966558 0.01416407112195486 0.045466576324436361 0.0057756262546893155 0.031098526253989681 -0.010553730442246586 0.019784904535492628 0.023587364867180327 0.031696074317813017 0.012890704601131509 -0.016519121061977556 0.037777938106881473 0.035132576521071171 0.031649640972994809 -0.016282394495179771 0.022403538659004033 0.02634063706250685 0.037123511631703805
leaf_weight=2603.4648562315851 1014.0639558769763 280.29037658311427 1848.7245612218976 147.78142215311527 460.71768903359771 556.50125354528427 557.83706390298903 508.2376656010747 1176.917517773807 872.95306610316038 235.64754017442465 614.41066187061369 928.62003387138247 86.661452814936638 480.16073265857995 676.54523562081158 363.56071070209146 2856.1587948836386 208.42394001968205 225.66100194118917 285.94037719815969 653.84756744280457 9402.6102582253516 808.33361994475126 24.126787189394236 103.70560202747583 1837.4296427927911 132.78741921856999 968.65074029006064 567.3795955684036
leaf_count=118046 34640 8021 70267 1904 11483 19033 11951 14632 46735 7005 6256 18580 16289 1945 4829 21920 6897 125206 4882 4792 4949 15521 439733 7799 403 1885 85709 3155 13594 7065
internal_value=-7.31379e-05 0.0244568 -0.0108253 0.0308036 0.00931897 -0.0132045 0.0235629 0.00223878 -0.0137388 0.0384863 -0.000548157 0.00415692 0.0259684 -0.0143916 0.0350745 -0.00240737 0.0218929 -0.0145406 0.00880494 0.0114397 0.0208449 0.0182602 -0.0153624 0.0324598 -0.00267199 0.014793 -0.0129101 0.00774434 0.0285789 0.03108
internal_weight=31488.2 9595.55 21892.6 6760.22 2835.33 18519.7 3482.34 3372.86 17963.2 3277.88 2760.92 2011.05 2993.62 16786.3 2404.93 2525.27 824.278 16699.7 488.714 972.859 1497.63 1211.68 13843.5 1924.77 1038.19 611.943 4440.89 747.198 1116.43 1496
internal_count=1135126 183759 951367 103809 79950 836407 68678 114960 817374 35131 98443 61570 55775 770639 28126 92187 18380 768694 12903 26527 32421 27472 643488 23297 35043 16517 203755 21735 15498 23354
is_linear=0
shrinkage=0.02


Tree=19
num_leaves=31
num_cat=0
split_feature=11 12 11 7 20 19 11 5 7 29 25 29 5 19 20 20 20 15 29 20 20 19 29 29 3 28 5 29 5 28
split_gain=19640.3 2446.61 1408.92 809.299 474.604 462.06 383.987 383.201 326.466 273.375 237.224 182.988 143.939 141.075 136.251 121.723 115.706 103.391 103.005 92.919 91.3667 85.4401 80.4318 78.6988 77.354 76.4429 74.121 69.6355 68.2001 66.2643
threshold=5.5000000000000009 1.0000000180025095e-35 1.0000000180025095e-35 2.5000000000000004 2.5000000000000004 1.0000000180025095e-35 39.500000000000007 1.0000000180025095e-35 1.0000000180025095e-35 0.022253172392448162 3.8750000000000004 0.029895433014567884 0.18333333333333338 2.5000000000000004 1.5000000000000002 42.500000000000007 1.0000000180025095e-35 1.0000000180025095e-35 0.11452058232931728 1.0000000180025095e-35 4.5000000000000009 3.5000000000000004 0.060023094688221715 0.25043554006968644 1.5000000000000002 5.5000000000000009 0.70833333333333337 0.11089152393500221 0.22500000000000003 3.5000000000000004
decision_type=2 2 2 10 10 10 2 10 8 10 10 10 8 8 8 10 10 2 10 10 10 10 10 10 2 10 10 10 8 10
left_child=2 4 7 6 10 8 14 9 11 16 28 -4 22 -8 -3 26 17 -1 -6 -11 -7 24 -12 -15 -16 -10 27 -5 -2 -19
right_child=1 3 5 15 18 20 13 -9 25 19 12 -13 -14 23 21 -17 -18 29 -20 -21 -22 -23 -24 -25 -26 -27 -28 -29 -30 -31
leaf_value=-0.012685838630332309 -0.0025016769624438807 0.0089694813488459049 -0.0084470582357988808 0.031461907860761765 0.021926521868832691 0.012255065201400812 0.020938081575911524 0.011968306705148627 0.0031773489013074592 -0.0064882921325630141 0.0037583898863687761 0.0040698038130997259 0.02230147844633187 0.032027808463449922 0.025096106542632248 0.05208319044565668 -0.0029335677428594838 -0.016745504354830291 0.043816784184939971 0.014391625890009394 0.031534872327604359 0.031284652796915946 0.014756533481856801 0.045771612330917026 0.016401992134688279 0.015655124567093025 0.047834377179596571 0.042884336023641272 0.0098055013338318332 -0.011827315534706086
leaf_weight=5725.626422971487 1098.6435628179461 372.29692180268466 2369.7576408497989 549.54414664395154 374.80505813099444 315.37024966441095 459.62690955772996 232.75300648808479 474.86460246890783 1212.2462264429778 741.57359014637768 581.20440988056362 352.98572456650436 2074.4827676080167 746.07424853742123 390.9403027035296 335.3997581154108 8302.3517525736243 113.07429103925824 90.762644773349166 143.5623502805829 344.200858194381 414.61342949606478 187.11363773420453 931.55161613412201 334.69831741973758 301.22922119498253 375.20098355039954 214.38463127613068 1275.6214399207383
leaf_count=262640 38117 9774 97034 5931 7267 8942 7607 6150 15724 49480 23512 19930 7470 25024 14896 2405 12170 396285 1690 2816 2920 5002 10359 1931 20547 9672 2435 3317 5478 58244
internal_value=-0.000105633 0.0229667 -0.0109363 0.0298882 0.00888464 -0.000581262 0.0259795 -0.0134801 -0.00289486 -0.0138304 0.00573084 -0.00598127 0.0111367 0.0311246 0.0201209 0.0422301 -0.0145637 -0.0148184 0.0270792 -0.00502396 0.0183416 0.0221689 0.00771171 0.0331846 0.0202811 0.008349 0.0390483 0.0361377 -0.00048629 -0.0160918
internal_weight=31436.6 10042.3 21394.2 6732.26 3310.08 4219.46 5115.35 17174.8 3760.52 16942 2822.2 2950.96 1509.17 2721.22 2394.12 1616.91 15639 15303.6 487.879 1303.01 458.933 2021.83 1156.19 2261.6 1677.63 809.563 1225.97 924.745 1313.03 9577.97
internal_count=1134769 192762 942007 98869 93893 154222 84781 787785 142360 781635 84936 116964 41341 34562 50219 14088 729339 717169 8957 52296 11862 40445 33871 26955 35443 25396 11683 9248 43595 454529
is_linear=0
shrinkage=0.02


Tree=20
num_leaves=31
num_cat=0
split_feature=11 17 11 20 6 20 20 7 6 20 6 20 28 16 23 7 16 19 28 15 23 6 23 28 20 6 23 3 19 10
split_gain=18825.6 2099.75 1345.17 739.005 487.664 448.791 406.789 403.885 291.553 277.838 220.231 207.358 199.844 177.438 160.508 142.386 134.145 122.648 118.305 109.779 101.535 81.0773 68.7275 66.6498 63.4339 63.0634 60.9449 59.7878 57.2928 68.6404
threshold=5.5000000000000009 70.500000000000014 1.0000000180025095e-35 1.0000000180025095e-35 1.0000000180025095e-35 1.5000000000000002 1.0000000180025095e-35 1.0000000180025095e-35 1.0000000180025095e-35 7.5000000000000009 1.0000000180025095e-35 4.5000000000000009 3.5000000000000004 1.5000000000000002 7.5000000000000009 7.5000000000000009 35.500000000000007 3.5000000000000004 6.5000000000000009 1.0000000180025095e-35 2.5000000000000004 1.0000000180025095e-35 4.5000000000000009 24.500000000000004 21.500000000000004 13.500000000000002 5.5000000000000009 1.5000000000000002 1.5000000000000002 1.5000000000000002
decision_type=2 2 2 8 8 10 10 8 8 10 10 10 10 2 10 10 2 10 10 2 8 10 10 10 10 8 10 2 10 2
left_child=2 3 6 -2 9 8 10 11 14 16 12 13 19 22 23 -6 28 -8 21 20 -1 -9 -5 -4 -20 -10 -21 -15 29 -3
right_child=1 4 5 7 15 -7 17 18 25 -11 -12 -13 -14 27 -16 -17 -18 -19 24 26 -22 -23 -24 -25 -26 -27 -28 -29 -30 -31
leaf_value=-0.0095563433874767817 -0.001175597529841859 0.0092063708268034557 -0.0099298510319679578 -0.0052290069406695063 0.037195679870679677 0.01948909284073113 0.00098440637844703018 0.014681913622240346 0.02178915023679617 0.035489068913596759 0.014744518251860865 0.027761921082166886 -0.010115775395769562 0.021347145649326323 0.00088695541040997763 0.051818295297051627 0.029654163689086126 0.032973972762529856 0.028065864365859609 -0.017460892813037681 -0.01575819231978141 0.028582655349115162 0.0068031602449385928 0.0012069454500681683 0.050568356597219283 0.0061746914640577067 -0.012884569439947346 0.011869413287958533 0.026805547163392864 0.020166783879359836
leaf_weight=2089.974945763126 1089.9058614242822 334.70129215344787 1833.7530905175954 280.30052933096886 1464.2681844346225 396.26864238455892 445.05594858899713 559.81829988956451 127.88988317549229 1002.1128324568272 105.82884585112333 296.63943053595722 3862.3903955928981 372.8334680031985 1077.1039520446211 335.75810121744871 717.86833996325731 52.737631663680077 902.24843242019415 6827.0290326531976 2149.3355001248419 242.29692158475518 583.90794645249844 243.24411266855896 53.966328125447035 532.5300667565316 1421.5890337564051 953.03412510454655 292.7336157746613 738.50729066878557
leaf_count=96937 35798 7680 75984 10280 12941 9601 15495 11817 2436 9857 2293 5411 171557 9358 39113 2090 9139 1228 15415 332993 100837 3344 17956 9088 561 17879 66455 24667 4261 12143
internal_value=-9.49596e-05 0.0221933 -0.010859 0.0135142 0.0316653 -0.000741399 -0.0133716 0.0172851 -0.00284759 0.0268211 -0.0139105 0.0120896 -0.0140968 0.00995511 -0.0053779 0.0399505 0.0226376 0.00443278 0.0246219 -0.0153272 -0.0127037 0.0189113 0.00289907 -0.00862563 0.0293873 0.00922679 -0.0166739 0.0145486 0.0189311 0.0167603
internal_weight=31385.6 10220.9 21164.7 5334.95 4885.95 4210.79 16953.9 4245.05 3814.52 3085.92 16456.1 2486.72 16350.3 2190.08 3154.1 1800.03 2083.81 497.794 1758.33 12487.9 4239.31 802.115 864.208 2077 956.215 660.42 8248.62 1325.87 1365.94 1073.21
internal_count=1134614 192718 941896 134607 58111 154101 787795 98809 144500 43080 771072 67672 768779 62261 124185 15031 33223 16723 31137 597222 197774 15161 28236 85072 15976 20315 399448 34025 24084 19823
is_linear=0
shrinkage=0.02


Tree=21
num_leaves=31
num_cat=1
split_feature=13 12 11 13 29 24 4 29 6 29 6 4 6 6 24 9 24 16 29 4 24 11 29 27 7 21 11 13 24 29
split_gain=18022.4 1792.62 1619.78 698.672 399.198 355.925 303.556 257.939 237.386 219.087 218.8 171.952 164.173 152.102 130.342 126.619 125.531 123.726 111.913 104.234 92.4392 91.2935 89.4317 75.9623 59.1408 57.2783 54.2154 53.4171 51.85 49.9336
threshold=2.5000000000000004 1.0000000180025095e-35 1.0000000180025095e-35 22.500000000000004 0.05721726190476191 7.5000000000000009 1.5000000000000002 0.052218304083975729 1.0000000180025095e-35 0.055644019815994344 1.5000000000000002 3.5000000000000004 1.0000000180025095e-35 1.0000000180025095e-35 9.5000000000000018 103.50000000000001 6.5000000000000009 3.5000000000000004 0.071508469159475882 3.5000000000000004 2.5000000000000004 12.500000000000002 0.27003205128205132 0 8.5000000000000018 7.5000000000000009 15.500000000000002 5.5000000000000009 60.500000000000007 0.013378076062639823
decision_type=2 2 2 2 10 10 8 10 8 10 10 8 8 8 8 2 10 2 10 8 8 2 10 9 10 8 2 2 8 10
left_child=2 4 6 8 12 11 -1 16 9 21 15 -4 14 18 -2 22 20 29 23 -6 -8 -3 28 -7 -12 -10 -16 -27 -5 -13
right_child=1 3 5 10 19 13 7 -9 25 -11 24 17 -14 -15 26 -17 -18 -19 -20 -21 -22 -23 -24 -25 -26 27 -28 -29 -30 -31
leaf_value=0.018065041738943983 -0.0023634712143852212 0.0055336740534082211 0.018472289654597303 0.026468702525388958 0.034922591423535147 0.013971902778672175 -0.012401157318546527 -0.0020884955078959051 0.067973229527566875 0.024715224857320164 0.039016989895898163 -0.009135792000964366 0.018709828879305817 0.016720086842539811 0.0030333921312361888 0.042110174157449873 -0.010613613021027346 0.0043637256318060829 0.013549341659555925 0.016909772249178005 -0.016215397084901755 0.016109172063754739 0.042657640239765808 -0.0012469018495729978 0.051343953186906821 0.020404672897161635 0.014071209459455544 0.03002738039297654 0.034039044009274495 -0.00053827066457571031
leaf_weight=120.23173715174198 1124.3967090435326 503.57244585454464 118.886554999277 1759.4640616904944 161.62970503605902 137.6304645743221 3558.3862381894141 728.78499645181 13.709385223686693 973.52196052111685 522.30485256388783 1862.7957760784775 264.29223823547363 429.45382983610034 356.19402005337179 356.05224625021219 3049.7975210025907 387.715291518718 335.1255407910794 642.07337067648768 9082.6976350657642 935.37929001264274 186.20721296221018 1108.8680742885917 246.10703957080841 319.58294260688126 356.20501016639173 937.7240652050823 476.56569853052497 316.18325979821384
leaf_count=2569 38009 14668 2701 20573 2517 4644 168736 29192 193 17367 3731 78020 5370 11323 11258 2803 137874 12395 9648 14556 442539 18613 1753 39723 1451 5861 8316 11871 4839 11567
internal_value=-7.54868e-05 0.0218664 -0.0105476 0.0271975 0.00859223 -0.000182083 -0.0134908 -0.013723 0.0210859 0.0173865 0.0335371 -0.00494575 0.00400247 0.00617858 0.00187723 0.030898 -0.0142632 -0.00603722 0.00330752 0.0205712 -0.0151428 0.0124146 0.0292332 0.000545319 0.0430267 0.0280882 0.00856437 0.0275996 0.0280967 -0.00788906
internal_weight=31371.5 10135 21236.6 7230.19 2904.79 4696.66 16539.9 16419.7 3683.49 2412.47 3546.7 2685.58 2101.09 2011.08 1836.8 2778.29 15690.9 2566.69 1581.62 803.703 12641.1 1438.95 2422.24 1246.5 768.412 1271.02 712.399 1257.31 2236.03 2178.98
internal_count=1134680 183749 950931 103723 80026 170021 780910 778341 68573 50648 35150 104683 62953 65338 57583 29968 749149 101982 54015 17073 611275 33281 27165 44367 5182 17925 19574 17732 25412 89587
cat_boundaries=0 1
cat_threshold=2
is_linear=0
shrinkage=0.02


Tree=22
num_leaves=31
num_cat=2
split_feature=17 7 10 19 10 29 19 23 10 0 29 19 23 4 19 26 19 29 7 7 5 29 29 29 6 27 17 17 29 17
split_gain=16863.9 1395.7 1334.31 916.348 545.889 536.161 402.623 260.456 231.321 203.652 197.154 190.848 129.521 122.456 119.506 117.861 117.638 106.772 106.538 100.744 92.2029 87.0268 82.1099 81.5817 81.0932 79.2693 75.9302 72.1901 58.275 56.7886
threshold=18.500000000000004 1.0000000180025095e-35 1.0000000180025095e-35 1.0000000180025095e-35 1.0000000180025095e-35 0.020887870855148347 3.5000000000000004 7.5000000000000009 31.500000000000004 1.0000000180025095e-35 0.11452058232931728 1.0000000180025095e-35 6.5000000000000009 2.5000000000000004 2.5000000000000004 0 3.5000000000000004 0.037094369911707378 1.0000000180025095e-35 1.0000000180025095e-35 0.29166666666666669 0.26172161172161179 0.037094369911707378 0.026347343178089112 1.0000000180025095e-35 1 54.500000000000007 3.5000000000000004 0.13271071140320537 688.50000000000011
decision_type=2 8 2 10 2 10 10 10 2 2 10 10 10 8 10 9 10 10 8 8 10 10 10 10 8 9 2 2 10 2
left_child=2 4 3 5 11 7 8 9 12 15 14 17 24 -7 26 -1 22 -2 -9 23 -8 -14 -5 -4 -3 -15 -6 -20 -22 -10
right_child=1 6 19 16 10 13 20 18 29 -11 -12 -13 21 25 -16 -17 -18 -19 27 -21 28 -23 -24 -25 -26 -27 -28 -29 -30 -31
leaf_value=-0.01576879116822873 -0.0029515728396083468 0.008374572642622655 -7.008439590885781e-05 0.0033323962226172372 0.0090497938457868021 0.023085801564706968 0.031073353449340767 -0.0099495225614653921 0.034161074615622282 0.016009742705693723 0.02738156915788709 0.017630941122044025 0.023989373372145732 0.006558731671992688 0.025539540409409655 -0.011751978959227343 0.029368240455695253 0.01000993810338816 -0.0051296569779946243 0.014390320261976045 0.035999468680727328 0.043776578900898491 0.02163346608985758 0.012681924059347798 0.021731638849469877 -0.0048426470732776741 0.017422211248448949 0.0087679683251946101 0.045540782083648972 0.056559317982913984
leaf_weight=9678.5627281218767 888.97245731763542 367.17711219191551 642.32998772151768 398.14386634156108 824.39351088739932 72.756779735907912 777.9749966673553 2288.7042186073959 523.23630835488439 87.467853389680386 806.01501801796257 340.53089299611747 1773.6189951859415 277.55139441974461 406.30720490589738 4753.2569983638823 125.32313260063529 354.87672106549144 526.52624296024442 605.47235496528447 625.26632821559906 94.369424816220999 129.32457195408642 290.85076224803925 363.1545813139528 1636.0325158834457 922.62095265835524 207.64795722998679 485.46636370941997 51.712323702871799
leaf_count=472420 30391 7893 22505 13167 21592 1516 7499 101748 4475 1813 12037 7311 24863 10641 5721 225821 2630 9355 23417 15111 4785 976 3366 8517 5365 64283 15835 6211 3147 363
internal_value=-0.000147011 0.0219177 -0.00990572 -0.0112745 0.0138662 -0.0120538 0.0291407 -0.0131689 0.0247723 -0.0142811 0.0189374 0.00438822 0.022215 -0.00220432 0.0157653 -0.0144658 0.0120212 0.000751485 -0.00782375 0.00804303 0.0364631 0.0250119 0.00785189 0.00391374 0.015037 -0.00317744 0.0134788 -0.00119238 0.0402069 0.0362703
internal_weight=31325.6 9605.69 21720 20181.3 4543.72 19528.5 5061.98 17542.2 3173.27 14519.3 2959.34 1584.38 2598.32 1986.34 2153.32 14431.8 652.792 1243.85 3022.88 1538.65 1888.71 1867.99 527.468 933.181 730.332 1913.58 1747.01 734.174 1110.73 574.949
internal_count=1134774 161608 973166 927033 102242 907870 59366 831430 43935 700054 55185 47057 39097 76440 43148 698241 19163 39746 131376 46133 15431 25839 16533 31022 13258 74924 37427 29628 7932 4838
cat_boundaries=0 1 2
cat_threshold=1124365 2
is_linear=0
shrinkage=0.02


Tree=23
num_leaves=31
num_cat=0
split_feature=13 11 13 6 19 19 24 29 24 4 29 6 4 29 7 7 16 19 29 15 24 16 19 3 28 19 24 24 4 29
split_gain=16263.2 1546.95 1506.91 554.372 362.342 351.86 327.504 301.605 244.79 182.733 169.005 194.038 164.367 148.145 129.126 128.992 118.588 115.836 111.881 111.016 120.489 99.8523 86.0895 80.8751 67.7835 62.7685 57.4429 57.3396 56.0231 50.9436
threshold=2.5000000000000004 1.0000000180025095e-35 9.5000000000000018 1.0000000180025095e-35 1.0000000180025095e-35 2.5000000000000004 7.5000000000000009 0.022253172392448162 6.5000000000000009 1.5000000000000002 0.055644019815994344 1.0000000180025095e-35 2.5000000000000004 0.057721533785363578 3.5000000000000004 1.0000000180025095e-35 3.5000000000000004 1.0000000180025095e-35 0.071508469159475882 1.0000000180025095e-35 5.5000000000000009 35.500000000000007 81.500000000000014 5.5000000000000009 14.500000000000002 1.5000000000000002 2.5000000000000004 8.5000000000000018 4.5000000000000009 0.038510974886296227
decision_type=2 2 2 8 8 10 10 10 8 8 10 8 8 10 10 8 2 10 10 2 10 2 8 2 10 10 8 8 8 10
left_child=1 7 4 5 13 8 12 9 -4 -1 11 22 -3 -2 -5 18 24 28 25 26 -21 29 -6 -12 -14 -8 -11 -24 -9 -10
right_child=2 6 3 14 10 -7 15 17 21 19 23 -13 16 -15 -16 -17 -18 -19 -20 20 -22 -23 27 -25 -26 -27 -28 -29 -30 -31
leaf_value=0.013575266505201439 -0.0035453767905285517 0.019399536473303648 0.006462777629017682 0.030102121099711984 0.013584010097360112 0.029631028282604468 -0.0010694610196271136 0.020848782672655074 0.013270569974422875 -0.0094040285052087464 0.019255017159232682 0.019354432310631293 -0.0091343587864082566 0.015268150523295708 0.039857134118428575 0.014914154525285966 0.0042640557726646502 0.020205489529711719 0.01325666333147932 -0.016910242314008016 -0.011617048061646533 0.027338783553295991 -0.0021785994129675228 0.037757469409337947 0.00099942397977040905 0.016064821827839856 -0.013608023555449838 0.0080820770430016838 -0.00616018731625951 0.020853638316601832
leaf_weight=94.317985747009516 831.70474259927869 106.47458742000163 620.47861756756902 1427.1370130423456 441.9576396048069 1482.5032887011766 1131.1086453273892 30.576874703168869 591.14429595693946 2121.6674156114459 681.47771204262972 715.16537495516241 1851.1191663965583 208.55043992958963 906.37221809476614 477.02539432793856 391.55158742330968 73.633798342198133 334.942810786888 6917.0270738136023 2303.8417554460466 645.00840388610959 452.9410849865526 110.57010189816356 307.69944446161389 91.508876387029886 3408.6317730098963 418.14277794025838 1188.3605118747801 916.85436329990625
leaf_count=1986 28604 2174 14258 14095 10047 15186 41486 721 12296 101400 13459 12939 78525 5231 6072 12250 12412 2070 9499 351286 109768 7714 15090 1769 11578 2254 163980 11591 49703 15278
internal_value=-0.000105908 -0.0103204 0.0202532 0.0260662 0.010327 0.0217604 -0.000211482 -0.013259 0.0175442 -0.0140658 0.0140471 0.010978 -0.00483496 0.000237402 0.0339066 0.00582546 -0.00585393 -0.00398921 0.00303413 -0.0142434 -0.0155891 0.0207333 0.00640446 0.0218823 -0.00769018 0.000225064 -0.0119972 0.00275041 -0.00546614 0.0178918
internal_weight=31279.5 20829.5 10450 6589.5 3860.51 4255.99 4691.43 16138.1 2773.49 14845.5 2820.25 2028.21 2656.84 1040.26 2333.51 2034.59 2550.37 1292.57 1557.56 14751.2 9220.87 2153.01 1313.04 792.048 2158.82 1222.62 5530.3 871.084 1218.94 1508
internal_count=1134721 951092 183629 84899 98730 64732 170178 780914 49546 728420 64895 49667 104689 33835 20167 65489 102515 52494 53239 726434 461054 35288 36728 15228 90103 43740 265380 26681 50424 27574
is_linear=0
shrinkage=0.02


Tree=24
num_leaves=31
num_cat=3
split_feature=13 13 20 20 20 23 20 0 6 27 20 6 28 20 23 15 23 23 17 6 27 3 28 4 13 13 27 21 3 17
split_gain=15598.5 1971.27 718.304 563.629 494.062 492.199 301.973 237.984 213.065 191.262 181.857 176.325 148.533 139.289 135.8 138.067 123.831 123.13 112.305 87.5978 79.7175 69.049 66.2519 64.837 64.3417 62.6396 62.0818 59.4064 57.653 76.0562
threshold=1.5000000000000002 9.5000000000000018 1.0000000180025095e-35 2.5000000000000004 1.0000000180025095e-35 6.5000000000000009 27.500000000000004 1.0000000180025095e-35 1.0000000180025095e-35 0 2.5000000000000004 1.0000000180025095e-35 4.5000000000000009 4.5000000000000009 2.5000000000000004 1.0000000180025095e-35 6.5000000000000009 4.5000000000000009 4.5000000000000009 2.5000000000000004 1 1.5000000000000002 6.5000000000000009 2.5000000000000004 90.500000000000014 1.0000000180025095e-35 2 59.500000000000007 1.5000000000000002 3.5000000000000004
decision_type=2 2 10 8 8 10 10 2 8 9 10 8 10 10 8 2 8 10 2 10 9 2 10 8 2 2 9 10 2 2
left_child=2 4 5 -3 23 7 11 12 10 -7 17 16 14 -4 15 -1 -5 -6 -11 22 -19 -20 -10 -2 -13 -16 -12 -18 29 -14
right_child=1 3 13 6 8 9 -8 -9 19 18 26 24 28 -15 25 -17 27 20 21 -21 -22 -23 -24 -25 -26 -27 -28 -29 -30 -31
leaf_value=-0.0084032675900839234 0.022593163023329872 0.011455195028648396 0.0042804856169659563 0.01285123008825028 -0.00092079169552938659 0.0072753914613607707 0.037806393246754826 0.017182809481836193 0.012750376202928831 -0.0094263970681869244 0.031934654155635567 0.02899738970592897 -0.0071787921881397388 0.028605367782477506 -0.016544687663804986 -0.016122407088089326 0.035489994243619184 0.018679939575506409 0.0062992660053722187 0.041621228118933526 0.0071214706728218637 -0.004966323368233801 0.022799128675751845 -0.0033722449504656393 0.040697461029468467 -0.0085341344987827205 0.014503201074467032 0.023351134280289353 -0.011279516348704655 0.010846453773479267
leaf_weight=2248.8899242151529 38.78673836030066 1025.3430312443525 666.20239784382284 456.65290825627744 635.26716659404337 398.93225126154721 963.39809698238969 98.698602929711342 507.76627904362977 2621.2676570881158 124.07561158388853 1558.0839635021985 591.59632995724678 108.77128748781979 7952.8220067303628 1581.7069018930197 176.93105215393007 302.64688588678837 305.81633595004678 66.590215757489204 1288.3463721666485 747.89659941196442 554.93669549748302 1167.647628640756 221.59979432076216 414.121357915923 474.4872913621366 2316.7721796315163 1511.8289730455726 110.2862105704844
leaf_count=107402 819 21317 22603 8302 21713 15324 6342 1947 10101 118755 2282 14822 28097 2653 405761 79414 2251 7490 9393 848 35906 29433 9556 41420 1469 16894 9241 30453 68640 4066
internal_value=-5.97181e-05 0.0179809 -0.0111305 0.0251206 0.00868227 -0.0119172 0.0275792 -0.0136419 0.0120998 -0.00577256 0.00915875 0.0254886 -0.0138542 0.00772706 -0.0147198 -0.011594 0.0224706 0.00652204 -0.00719078 0.0194419 0.0094926 -0.00169387 0.0180143 -0.00251944 0.0304763 -0.0161493 0.0189383 0.0242263 -0.00908066 -0.0043351
internal_weight=31238.2 11879.3 19358.8 6718.78 5160.55 18583.9 5693.44 14510 3954.12 4073.91 2824.82 4730.04 14411.3 774.974 12197.5 3830.6 2950.36 2226.26 3674.98 1129.29 1590.99 1053.71 1062.7 1206.43 1779.68 8366.94 598.563 2493.7 2213.71 701.883
internal_count=1134714 224332 910382 84956 139376 885126 63639 712221 97137 172905 76632 57297 710274 25256 609471 186816 41006 65109 157581 20505 43396 38826 19657 42239 16291 422655 11523 32704 100803 32163
cat_boundaries=0 1 2 3
cat_threshold=2 2 2
is_linear=0
shrinkage=0.02


Tree=25
num_leaves=31
num_cat=1
split_feature=13 13 13 19 19 0 24 13 16 19 27 0 19 19 15 24 24 28 28 9 4 3 0 16 28 28 3 0 24 24
split_gain=14896.1 1863.72 623.092 512.687 452.228 400.683 351.655 269.345 222.792 168.141 136.803 133.856 130.646 130.087 129.344 101.935 99.6087 95.7704 88.6047 86.7277 71.9943 70.5161 69.8458 69.5867 68.4231 64.8244 61.5041 60.1698 59.5294 54.1302
threshold=1.5000000000000002 9.5000000000000018 1.0000000180025095e-35 1.5000000000000002 1.0000000180025095e-35 1.0000000180025095e-35 7.5000000000000009 68.500000000000014 1.5000000000000002 1.0000000180025095e-35 0 1.0000000180025095e-35 82.500000000000014 1.5000000000000002 1.0000000180025095e-35 2.5000000000000004 7.5000000000000009 3.5000000000000004 8.5000000000000018 2.5000000000000004 2.5000000000000004 5.5000000000000009 1.0000000180025095e-35 1.5000000000000002 28.500000000000004 5.5000000000000009 1.5000000000000002 1.0000000180025095e-35 7.5000000000000009 84.500000000000014
decision_type=2 2 2 8 8 2 10 2 2 10 9 2 8 10 2 8 8 10 10 2 8 2 2 2 10 10 2 2 10 8
left_child=2 4 5 24 20 6 9 11 12 14 -8 16 -6 26 15 -1 23 -16 -10 -12 -2 -20 28 -5 -3 -22 -4 -28 -14 -9
right_child=1 3 13 7 8 -7 10 29 18 -11 19 -13 22 -15 17 -17 -18 -19 21 -21 25 -23 -24 -25 -26 -27 27 -29 -30 -31
leaf_value=-0.0086077589143214051 0.019558577747578822 0.0090267357724091411 0.0047333803770244773 -0.0015520784264737662 0.016520162472177882 0.022153874143728661 0.00579359588201809 0.032766631445087471 0.011700681746774733 0.0049064661527754121 -0.0091224521098807396 0.029900386427020195 -0.0046984573167172389 0.021545317671859618 -0.016560196524897181 -0.014365222924929973 0.023582974229622855 -0.010264953732637786 0.017545974168648771 0.0026411716963000752 -0.0056183002027697113 0.032976486857915537 0.029083656848605331 0.017444778787612022 0.019597564060067248 0.0032170710026650879 -0.0045099297549829774 0.019707458459144758 0.0054616485514848148 0.043904491648762908
leaf_weight=2323.8007780034095 62.868284953758121 834.88573159649968 486.83147980086505 96.318378675729036 301.40072843246162 133.39775999262929 305.86125687137246 1058.1924548447132 1272.9151892475784 185.47853720188141 2954.6536527071148 1227.4144661910832 460.84598546102643 105.18631068430841 7419.5599546972662 2629.7053040526807 2678.0342132672668 1118.6913176234812 1077.8761865478009 273.49182194657624 846.77651943638921 134.04791311733425 34.198870237916708 383.05795930325985 348.09512100182474 545.30183176510036 1177.3977403808385 41.543120618909597 459.8486662376672 222.05997157841921
leaf_count=111503 1340 17259 15640 2609 6658 2603 12361 7627 28431 6426 133858 10001 17089 2380 386489 129977 34038 52937 21172 10091 31034 2274 534 5851 6213 16931 45465 785 13843 1367
internal_value=-0.00013867 0.0172886 -0.0110965 0.0241412 0.00825446 -0.0122619 -0.01253 0.0266424 0.0119332 -0.0139833 -0.00690297 0.0242733 0.00506361 6.66878e-05 -0.0142433 -0.0116665 0.022077 -0.0157367 0.0154029 -0.00810023 -0.00120636 0.0192785 0.00143399 0.0136326 0.0121512 -0.0021575 -0.00126964 -0.00366909 0.000376513 0.0347313
internal_weight=31199.7 12044.1 19155.6 6848.06 5196.08 17344.6 17211.2 5665.08 3741.13 13677.2 3534.01 4384.83 1256.29 1810.96 13491.8 4953.51 3157.41 8538.25 2484.84 3228.15 1454.95 1211.92 954.894 479.376 1182.98 1392.08 1705.77 1218.94 920.695 1280.25
internal_count=1134786 224271 910515 84965 139306 846245 843642 61493 90001 687332 156310 52499 38124 64270 680906 241480 42498 439426 51877 143949 49305 23446 31466 8460 23472 47965 61890 46250 30932 8994
cat_boundaries=0 1
cat_threshold=2
is_linear=0
shrinkage=0.02


Tree=26
num_leaves=31
num_cat=4
split_feature=11 12 13 13 20 20 20 4 5 11 5 5 15 3 16 20 25 27 4 27 20 3 3 4 20 25 27 26 3 20
split_gain=14249.6 1584.7 1111.92 539.751 345.051 306.467 254.787 228.184 197.42 186.067 162.737 156.963 127.797 126.454 116.372 89.2432 84.5988 76.7466 74.585 72.6306 69.9889 74.9468 62.9296 56.0796 55.5803 55.4189 52.6151 51.6308 51.2869 104.524
threshold=4.5000000000000009 1.0000000180025095e-35 1.0000000180025095e-35 22.500000000000004 2.5000000000000004 1.0000000180025095e-35 1.5000000000000002 1.0000000180025095e-35 0.18333333333333338 1.0000000180025095e-35 0.29166666666666669 1.0000000180025095e-35 1.0000000180025095e-35 1.5000000000000002 2.5000000000000004 42.500000000000007 3.8750000000000004 0 1.5000000000000002 1 3.5000000000000004 2.5000000000000004 1.5000000000000002 1.5000000000000002 21.500000000000004 3.8750000000000004 2 3 1.5000000000000002 3.5000000000000004
decision_type=2 2 2 2 10 10 10 10 8 2 8 8 2 2 2 10 10 9 8 9 10 2 2 8 10 10 9 9 2 10
left_child=2 4 5 11 8 7 13 9 14 12 28 20 27 17 16 -12 -2 -4 -10 -18 21 -3 -11 -15 -13 -14 -7 -1 -5 -30
right_child=1 3 6 10 -6 26 -8 -9 18 22 15 24 25 23 -16 -17 19 -19 -20 -21 -22 -23 -24 -25 -26 -27 -28 -29 29 -31
leaf_value=-0.013468123934135701 -0.0047938567040978564 0.016198398815017619 -0.008585242659000682 0.033924675855023491 0.021001754732198088 0.017957119767944216 0.015996592687511711 0.016836009411043646 0.02806518808656288 -0.00058466795749734766 0.029343892407164108 0.020322178746656146 -0.016311145326153423 0.010386813860860235 0.009691353516620595 0.039596983070701031 0.01482714024229655 0.0092049367254213154 0.010590711988971156 0.00084346662187266162 0.021339952424901464 0.0075841538647652765 -0.0093365885711009372 -0.0049881854981995996 0.033728168741733018 -0.012496605188171415 0.00028938419072962302 -0.0094006405369130453 0.015920854838118535 0.026333024232288189
leaf_weight=3012.8923652451485 994.98664570041001 742.69808989204466 110.61670120432973 165.59575934335589 576.4356646053493 71.019083676859736 386.05919535830617 100.66619761288166 116.39740385860205 476.49951620399952 1694.1117738746107 1818.0898436196148 6853.6973525211215 99.493729926645756 551.7917746193707 438.45652937144041 172.61889806576073 534.03503424674273 603.04266967624426 803.854387415573 353.36375062167645 892.05177694372833 1058.9982323534787 1725.3801813293248 134.62896422296762 1985.0421739146113 392.92343379184604 2661.0286356862634 656.0011766217649 959.62279825657606
leaf_count=149727 36599 15476 3876 1866 9520 2417 8609 1974 1571 19713 13399 24819 363376 1819 14833 2290 4694 17303 14093 24533 5230 20784 47886 67156 1138 98572 13914 130048 8831 8617
internal_value=-0.000143316 0.0173268 -0.0106192 0.0224647 0.00675677 -0.0126008 0.000909071 -0.0130612 0.00421882 -0.0132498 0.0277282 0.0172316 -0.0139504 -0.00145507 0.00158167 0.0314695 -0.000691913 0.00615332 0.0134529 0.00348843 0.0132631 0.0115053 -0.00662282 -0.0041447 0.0212632 -0.015456 0.00341917 -0.0116028 0.0232339 0.0221178
internal_weight=31142.1 11673.7 19468.4 7854.62 3819.13 16612.8 2855.58 16148.8 3242.69 16048.2 3913.79 3940.83 14512.7 2469.53 2523.25 2132.57 1971.46 644.652 719.44 976.473 1988.11 1634.75 1535.5 1824.87 1952.72 8838.74 463.943 5673.92 1781.22 1615.62
internal_count=1134683 208293 926390 102450 105843 827627 98763 811296 96323 809322 35003 67447 741723 90154 80659 15689 65826 21179 15664 29227 41490 36260 67599 68975 25957 461948 16331 279775 19314 17448
cat_boundaries=0 1 2 3 4
cat_threshold=8 2 2 66693
is_linear=0
shrinkage=0.02


Tree=27
num_leaves=31
num_cat=0
split_feature=13 13 20 5 29 20 16 20 29 6 7 17 3 20 20 29 29 13 15 0 20 29 4 3 16 29 6 9 20 25
split_gain=13711 1657.09 696.546 454.712 437.416 425.193 305.763 261.893 230.321 195.943 194.959 222.292 175.99 152.67 108.831 107.647 93.1154 91.6269 96.54 91.5198 91.2486 85.3116 73.8598 64.1427 63.8679 57.7941 55.879 49.3696 45.9307 42.1499
threshold=1.5000000000000002 9.5000000000000018 1.0000000180025095e-35 0.29166666666666669 0.030351515151515154 1.0000000180025095e-35 3.5000000000000004 2.5000000000000004 0.055644019815994344 1.0000000180025095e-35 1.0000000180025095e-35 3.5000000000000004 1.5000000000000002 40.500000000000007 4.5000000000000009 0.017467581998474448 0.068739261168384899 1.0000000180025095e-35 1.0000000180025095e-35 1.0000000180025095e-35 3.5000000000000004 0.3352713178294574 4.5000000000000009 5.5000000000000009 2.5000000000000004 0.028653530377668313 2.5000000000000004 2.5000000000000004 27.500000000000004 3.8750000000000004
decision_type=2 2 10 8 10 8 2 10 10 8 8 2 2 10 10 10 10 2 2 2 10 10 8 2 2 10 10 2 10 10
left_child=2 5 4 7 6 15 10 12 9 20 17 19 -3 21 25 -2 -14 18 -1 -12 24 26 -6 -10 -7 -4 -5 -20 -9 -24
